{"learner":{"attributes":{"scikit_learn":"{\"_estimator_type\": \"classifier\"}"},"feature_names":["KMALLOC_TOTAL_COUNT","KMALLOC_COUNT","KFREE_COUNT","KMALLOC_KIND","KMALLOC_TOP_ENTROPY","KMALLOC_TOP_GINI"],"feature_types":["int","int","int","int","float","float"],"gradient_booster":{"model":{"gbtree_model_param":{"num_parallel_tree":"1","num_trees":"100"},"iteration_indptr":[0,1,2,3,4,5,6,7,8,9,10,11,12,13,14,15,16,17,18,19,20,21,22,23,24,25,26,27,28,29,30,31,32,33,34,35,36,37,38,39,40,41,42,43,44,45,46,47,48,49,50,51,52,53,54,55,56,57,58,59,60,61,62,63,64,65,66,67,68,69,70,71,72,73,74,75,76,77,78,79,80,81,82,83,84,85,86,87,88,89,90,91,92,93,94,95,96,97,98,99,100],"tree_info":[0,0,0,0,0,0,0,0,0,0,0,0,0,0,0,0,0,0,0,0,0,0,0,0,0,0,0,0,0,0,0,0,0,0,0,0,0,0,0,0,0,0,0,0,0,0,0,0,0,0,0,0,0,0,0,0,0,0,0,0,0,0,0,0,0,0,0,0,0,0,0,0,0,0,0,0,0,0,0,0,0,0,0,0,0,0,0,0,0,0,0,0,0,0,0,0,0,0,0,0],"trees":[{"base_weights":[1.8150553E-7,-1.6591711E0,1.8965236E0,5.7249254E-1,-1.730374E0,-1.6695704E-1,1.970537E0,-5.944368E-1,-1.5320798E0,-6.5387416E-1,1.0330968E0,5.908923E-1,1.9752581E0,1.1543472E0,-1.862204E0,-9.1294587E-1,4.2613766E-1,4.4693407E-1,-3.6205974E-1,-3.3524E-1,4.375016E-1,9.134527E-1,5.9400094E-1,5.390509E-1,-5.3890735E-1,-1.0073355E0,-1.95843E0,7.288202E-2,-1.6658401E0,4.4744506E-1,-8.14576E-3,8.582594E-2,-5.425922E-1,-4.2528182E-1,-5.98721E-1,3.9772788E-1,-9.308175E-2,-5.3116333E-1,-2.0228516E-1,-6.856854E-2,6.4767204E-2],"categories":[],"categories_nodes":[],"categories_segments":[],"categories_sizes":[],"default_left":[0,0,0,0,0,0,0,0,0,0,0,0,0,0,0,0,0,0,0,0,0,0,0,0,0,0,0,0,0,0,0,0,0,0,0,0,0,0,0,0,0],"id":0,"left_children":[1,3,5,-1,7,9,11,-1,13,15,17,19,21,23,25,27,-1,-1,-1,-1,-1,29,-1,-1,-1,31,33,35,37,-1,39,-1,-1,-1,-1,-1,-1,-1,-1,-1,-1],"loss_changes":[7.3181006E3,3.1839722E2,1.6606836E2,0E0,5.7541748E1,2.3171383E1,5.6567383E0,0E0,6.0895984E2,1.634356E1,1.3561583E1,9.039001E0,3.4499512E0,1.4635571E2,4.8184082E1,1.9047537E1,0E0,0E0,0E0,0E0,0E0,3.4746842E0,0E0,0E0,0E0,6.6587456E1,8.206787E0,6.171723E0,3.1149673E-1,0E0,2.221746E-1,0E0,0E0,0E0,0E0,0E0,0E0,0E0,0E0,0E0,0E0],"parents":[2147483647,0,0,1,1,2,2,4,4,5,5,6,6,8,8,9,9,10,10,11,11,12,12,13,13,14,14,15,15,21,21,25,25,26,26,27,27,28,28,30,30],"right_children":[2,4,6,-1,8,10,12,-1,14,16,18,20,22,24,26,28,-1,-1,-1,-1,-1,30,-1,-1,-1,32,34,36,38,-1,40,-1,-1,-1,-1,-1,-1,-1,-1,-1,-1],"split_conditions":[2E0,1E0,1E1,5.7249254E-1,4E0,1.921928E0,1.7203695E-1,-5.944368E-1,5E0,4E0,8E0,3.67E2,1.1E1,2E0,1E0,1E0,4.2613766E-1,4.4693407E-1,-3.6205974E-1,-3.3524E-1,4.375016E-1,3E0,5.9400094E-1,5.390509E-1,-5.3890735E-1,2.2E1,1E1,6.0013103E-1,3E0,4.4744506E-1,3E0,8.582594E-2,-5.425922E-1,-4.2528182E-1,-5.98721E-1,3.9772788E-1,-9.308175E-2,-5.3116333E-1,-2.0228516E-1,-6.856854E-2,6.4767204E-2],"split_indices":[3,3,1,0,1,4,4,0,1,2,0,1,1,0,2,2,0,0,0,0,0,0,0,0,0,0,1,4,2,0,3,0,0,0,0,0,0,0,0,0,0],"split_type":[0,0,0,0,0,0,0,0,0,0,0,0,0,0,0,0,0,0,0,0,0,0,0,0,0,0,0,0,0,0,0,0,0,0,0,0,0,0,0,0,0],"sum_hessian":[2.3236746E3,1.2394597E3,1.0842147E3,2.374923E1,1.2157104E3,3.7498783E1,1.046716E3,5.324827E2,6.832278E2,2.6999123E1,1.0499659E1,3.99987E0,1.0427162E3,7.449758E1,6.087302E2,2.4499205E1,2.4999187E0,8.999707E0,1.4999512E0,1.2499593E0,2.7499106E0,5.499821E0,1.0372163E3,6.1498E1,1.29995775E1,6.2747963E1,5.4598224E2,1.0999642E1,1.3499561E1,2.9999025E0,2.4999187E0,2.4249212E1,3.849875E1,3.7748775E1,5.082335E2,1.999935E0,8.999707E0,1.1499626E1,1.999935E0,1.2499593E0,1.2499593E0],"tree_param":{"num_deleted":"0","num_feature":"6","num_nodes":"41","size_leaf_vector":"1"}},{"base_weights":[8.389924E-4,-1.274079E0,1.4693199E0,4.468517E-1,-1.3291402E0,-1.2034955E-1,1.5292298E0,-1.185145E0,-4.6502903E-1,-4.7813213E-1,7.697922E-1,4.5246744E-1,1.5330822E0,-1.5264962E0,-3.1770858E-1,-6.835971E-1,3.4780088E-1,3.4408122E-1,-3.0299675E-1,-2.8389117E-1,3.5557413E-1,7.287055E-1,4.610537E-1,-4.59109E-1,-2.3929502E-1,1.098497E0,-1.1704493E0,7.793059E-2,-1.2936405E0,3.6235008E-1,-6.7860303E-3,3.865355E-1,-2.706606E-1,-4.519155E-1,7.726047E-2,3.2820302E-1,-6.8061315E-2,-2.1809964E-1,-4.3621108E-1,-5.716778E-2,5.4021087E-2],"categories":[],"categories_nodes":[],"categories_segments":[],"categories_sizes":[],"default_left":[0,0,0,0,0,0,0,0,0,0,0,0,0,0,0,0,0,0,0,0,0,0,0,0,0,0,0,0,0,0,0,0,0,0,0,0,0,0,0,0,0],"id":1,"left_children":[1,3,5,-1,7,9,11,13,-1,15,17,19,21,23,25,27,-1,-1,-1,-1,-1,29,-1,-1,-1,31,33,35,37,-1,39,-1,-1,-1,-1,-1,-1,-1,-1,-1,-1],"loss_changes":[4.0041736E3,1.7618457E2,9.484253E1,0E0,3.3892944E1,1.2159608E1,3.2797852E0,2.0209375E2,0E0,9.885393E0,8.540797E0,6.0761795E0,1.7685547E0,1.6235352E-1,2.361294E2,1.1548847E1,0E0,0E0,0E0,0E0,0E0,2.244014E0,0E0,0E0,0E0,2.9133842E1,5.8846222E1,3.9347732E0,1.9160843E-1,0E0,1.5440395E-1,0E0,0E0,0E0,0E0,0E0,0E0,0E0,0E0,0E0,0E0],"parents":[2147483647,0,0,1,1,2,2,4,4,5,5,6,6,7,7,9,9,10,10,11,11,12,12,13,13,14,14,15,15,21,21,25,25,26,26,27,27,28,28,30,30],"right_children":[2,4,6,-1,8,10,12,14,-1,16,18,20,22,24,26,28,-1,-1,-1,-1,-1,30,-1,-1,-1,32,34,36,38,-1,40,-1,-1,-1,-1,-1,-1,-1,-1,-1,-1],"split_conditions":[2E0,1E0,1E1,4.468517E-1,2.8E1,1.921928E0,1.7203695E-1,4E0,-4.6502903E-1,4E0,8E0,3.67E2,1.1E1,3E0,2E0,1E0,3.4780088E-1,3.4408122E-1,-3.0299675E-1,-2.8389117E-1,3.5557413E-1,3E0,4.610537E-1,-4.59109E-1,-2.3929502E-1,1.3E1,8E0,6.0013103E-1,4E0,3.6235008E-1,3E0,3.865355E-1,-2.706606E-1,-4.519155E-1,7.726047E-2,3.2820302E-1,-6.8061315E-2,-2.1809964E-1,-4.3621108E-1,-5.716778E-2,5.4021087E-2],"split_indices":[3,3,1,0,1,4,4,1,0,2,0,1,1,0,0,2,0,0,0,0,0,0,0,0,0,1,0,4,0,0,3,0,0,0,0,0,0,0,0,0,0],"split_type":[0,0,0,0,0,0,0,0,0,0,0,0,0,0,0,0,0,0,0,0,0,0,0,0,0,0,0,0,0,0,0,0,0,0,0,0,0,0,0,0,0],"sum_hessian":[2.1367615E3,1.1438322E3,9.9292926E2,2.1835403E1,1.1219967E3,3.602477E1,9.5690454E2,6.831551E2,4.388416E2,2.6026546E1,9.998222E0,3.833774E0,9.5307074E2,4.8969275E2,1.9346234E2,2.3642483E1,2.384065E0,8.543404E0,1.454819E0,1.2177927E0,2.6159813E0,5.3446417E0,9.477261E2,4.860143E2,3.6784432E0,7.260086E1,1.2086148E2,1.0903593E1,1.273889E1,2.8474736E0,2.497168E0,6.663068E1,5.9701886E0,9.7799164E1,2.3062319E1,1.9185864E0,8.985006E0,4.030967E0,8.707922E0,1.2489793E0,1.2481886E0],"tree_param":{"num_deleted":"0","num_feature":"6","num_nodes":"41","size_leaf_vector":"1"}},{"base_weights":[9.246326E-4,-1.0892527E0,1.2693393E0,3.860536E-1,-1.1366092E0,-9.3588606E-2,1.3260695E0,-1.0070937E0,-4.0322813E-1,3.8042846E-1,-5.4426867E-1,3.6453006E-1,1.3298256E0,-1.3161376E0,-2.887457E-1,-1.6884248E-1,7.363179E-1,1.4473174E-2,-3.6782697E-1,-2.469801E-1,3.045465E-1,6.040298E-1,4.0010452E-1,-3.9600292E-1,-1.9695862E-1,8.4258044E-1,-9.61701E-1,3.2100198E-1,-2.3841356E-1,5.0731236E-1,3.144487E-1,-2.6633367E-1,6.0370374E-1,3.1015465E-1,-5.658241E-3,3.502093E-1,-4.6165723E-2,-3.8069224E-1,4.171414E-2,1.5350984E-1,-4.1886646E-2,2.0768146E-1,-2.5159227E-2,3.3295307E-1,-2.742187E-2,-4.771845E-2,4.5104437E-2],"categories":[],"categories_nodes":[],"categories_segments":[],"categories_sizes":[],"default_left":[0,0,0,0,0,0,0,0,0,0,0,0,0,0,0,0,0,0,0,0,0,0,0,0,0,0,0,0,0,0,0,0,0,0,0,0,0,0,0,0,0,0,0,0,0,0,0],"id":2,"left_children":[1,3,5,-1,7,9,11,13,-1,15,17,19,21,23,25,27,29,31,-1,-1,-1,33,-1,-1,-1,35,37,39,-1,41,-1,-1,43,-1,45,-1,-1,-1,-1,-1,-1,-1,-1,-1,-1,-1,-1],"loss_changes":[2.4924993E3,1.1053882E2,6.4542114E1,0E0,2.4200684E1,7.5189567E0,2.404419E0,1.3048285E2,0E0,3.5002868E0,6.8585954E0,4.305916E0,1.4234619E0,1.8530273E-1,1.3678117E2,2.5862417E0,2.2998857E-1,6.308171E0,0E0,0E0,0E0,1.5878062E0,0E0,0E0,0E0,2.191026E1,3.82107E1,5.086817E-1,0E0,9.424348E-1,0E0,0E0,2.621667E0,0E0,1.0745223E-1,0E0,0E0,0E0,0E0,0E0,0E0,0E0,0E0,0E0,0E0,0E0,0E0],"parents":[2147483647,0,0,1,1,2,2,4,4,5,5,6,6,7,7,9,9,10,10,11,11,12,12,13,13,14,14,15,15,16,16,17,17,21,21,25,25,26,26,27,27,29,29,32,32,34,34],"right_children":[2,4,6,-1,8,10,12,14,-1,16,18,20,22,24,26,28,30,32,-1,-1,-1,34,-1,-1,-1,36,38,40,-1,42,-1,-1,44,-1,46,-1,-1,-1,-1,-1,-1,-1,-1,-1,-1,-1,-1],"split_conditions":[2E0,1E0,1E1,3.860536E-1,3.1E1,6E0,1.7203695E-1,4E0,-4.0322813E-1,5E0,1E0,3.67E2,1.1E1,3E0,2E0,1E0,4E0,7E0,-3.6782697E-1,-2.469801E-1,3.045465E-1,3E0,4.0010452E-1,-3.9600292E-1,-1.9695862E-1,5E0,8E0,4E0,-2.3841356E-1,2E0,3.144487E-1,-2.6633367E-1,8E0,3.1015465E-1,3E0,3.502093E-1,-4.6165723E-2,-3.8069224E-1,4.171414E-2,1.5350984E-1,-4.1886646E-2,2.0768146E-1,-2.5159227E-2,3.3295307E-1,-2.742187E-2,-4.771845E-2,4.5104437E-2],"split_indices":[3,3,1,0,1,0,4,1,0,1,2,1,1,0,0,2,2,0,0,0,0,0,0,0,0,1,0,0,0,2,0,0,0,0,3,0,0,0,0,0,0,0,0,0,0,0,0],"split_type":[0,0,0,0,0,0,0,0,0,0,0,0,0,0,0,0,0,0,0,0,0,0,0,0,0,0,0,0,0,0,0,0,0,0,0,0,0,0,0,0,0,0,0,0,0,0,0],"sum_hessian":[1.8005057E3,9.683604E2,8.321454E2,1.8411203E1,9.4994916E2,3.3226933E1,7.9891846E2,5.8846954E2,3.6147968E2,1.6270159E1,1.6956776E1,3.4903288E0,7.954281E2,4.1087347E2,1.7759604E2,6.6037183E0,9.66644E0,9.85749E0,7.099286E0,1.1413336E0,2.3489952E0,5.0367217E0,7.9039136E2,4.074802E2,3.3932822E0,6.614521E1,1.1145083E2,3.9776618E0,2.6260564E0,7.08807E0,2.5783699E0,3.694167E0,6.163323E0,2.5460799E0,2.490642E0,4.975634E1,1.6388866E1,8.700939E1,2.4441437E1,2.7346425E0,1.2430193E0,5.268673E0,1.8193972E0,3.22119E0,2.9421327E0,1.245924E0,1.2447181E0],"tree_param":{"num_deleted":"0","num_feature":"6","num_nodes":"47","size_leaf_vector":"1"}},{"base_weights":[1.2652873E-3,-9.7551626E-1,1.1509125E0,3.4933585E-1,-1.0182105E0,-7.291191E-2,1.2093743E0,-8.8326615E-1,-3.6519128E-1,3.0755922E-1,-4.520519E-1,6.047022E-1,1.2163316E0,-1.1926124E0,-1.1533408E-1,-1.4309718E-1,6.1004287E-1,2.7071518E-1,-6.7028546E-1,-9.985326E-2,7.66979E-1,5.110349E-1,3.6623773E-1,-3.591302E-1,-1.6339383E-1,8.363163E-1,-7.6839364E-1,2.4624862E-1,-2.0238021E-1,4.0014377E-1,2.764759E-1,-3.072398E-1,2.659042E-1,3.016487E-1,2.9699984E-1,2.732881E-1,-4.721095E-3,3.0359808E-1,6.7583784E-2,-3.4901792E-1,7.2431944E-2,1.1917074E-1,-3.500385E-2,-1.5243004E-2,1.8223943E-1,2.8655922E-1,-2.586255E-1,-2.1870817E-1,2.6823103E-1,-3.9861895E-2,3.768514E-2],"categories":[],"categories_nodes":[],"categories_segments":[],"categories_sizes":[],"default_left":[0,0,0,0,0,0,0,0,0,0,0,0,0,0,0,0,0,0,0,0,0,0,0,0,0,0,0,0,0,0,0,0,0,0,0,0,0,0,0,0,0,0,0,0,0,0,0,0,0,0,0],"id":3,"left_children":[1,3,5,-1,7,9,11,13,-1,15,17,19,21,23,25,27,29,-1,31,-1,33,35,-1,-1,-1,37,39,41,-1,43,-1,-1,45,47,-1,-1,49,-1,-1,-1,-1,-1,-1,-1,-1,-1,-1,-1,-1,-1,-1],"loss_changes":[1.641161E3,7.33761E1,4.811975E1,0E0,1.9752197E1,4.6902146E0,1.960144E0,1.10490234E2,0E0,2.3150558E0,5.3955708E0,1.6667945E0,1.3661499E0,3.1311035E-1,8.4438805E1,1.6920179E0,2.831273E-1,0E0,5.0864325E0,0E0,5.535245E-1,1.1790354E0,0E0,0E0,0E0,5.713669E0,3.238366E1,3.1971112E-1,0E0,7.529478E-1,0E0,0E0,4.5399823E0,3.1545658E0,0E0,0E0,7.485589E-2,0E0,0E0,0E0,0E0,0E0,0E0,0E0,0E0,0E0,0E0,0E0,0E0,0E0,0E0],"parents":[2147483647,0,0,1,1,2,2,4,4,5,5,6,6,7,7,9,9,10,10,11,11,12,12,13,13,14,14,15,15,16,16,18,18,20,20,21,21,25,25,26,26,27,27,29,29,32,32,33,33,36,36],"right_children":[2,4,6,-1,8,10,12,14,-1,16,18,20,22,24,26,28,30,-1,32,-1,34,36,-1,-1,-1,38,40,42,-1,44,-1,-1,46,48,-1,-1,50,-1,-1,-1,-1,-1,-1,-1,-1,-1,-1,-1,-1,-1,-1],"split_conditions":[2E0,1E0,1E1,3.4933585E-1,2.1E1,6E0,3.9124358E-1,4E0,-3.6519128E-1,5E0,6.0013103E-1,2.4E1,1.1E1,3E0,2E0,1E0,4E0,2.7071518E-1,5E0,-9.985326E-2,1.7203695E-1,3E0,3.6623773E-1,-3.591302E-1,-1.6339383E-1,5E0,6E0,4E0,-2.0238021E-1,1.4466166E0,2.764759E-1,-3.072398E-1,8E0,3.67E2,2.9699984E-1,2.732881E-1,3E0,3.0359808E-1,6.7583784E-2,-3.4901792E-1,7.2431944E-2,1.1917074E-1,-3.500385E-2,-1.5243004E-2,1.8223943E-1,2.8655922E-1,-2.586255E-1,-2.1870817E-1,2.6823103E-1,-3.9861895E-2,3.768514E-2],"split_indices":[3,3,1,0,1,0,4,1,0,1,4,1,1,0,0,2,2,0,3,0,4,0,0,0,0,1,0,0,0,4,0,0,0,1,0,0,3,0,0,0,0,0,0,0,0,0,0,0,0,0,0],"split_type":[0,0,0,0,0,0,0,0,0,0,0,0,0,0,0,0,0,0,0,0,0,0,0,0,0,0,0,0,0,0,0,0,0,0,0,0,0,0,0,0,0,0,0,0,0,0,0,0,0,0,0],"sum_hessian":[1.4594678E3,7.891387E2,6.7032904E2,1.4922092E1,7.7421655E2,3.0550255E1,6.397788E2,4.646897E2,3.0952686E2,1.5342593E1,1.5207663E1,8.277583E0,6.315012E2,3.3085736E2,1.3383234E2,6.3736753E0,8.968918E0,1.6752868E0,1.3532375E1,1.0662556E0,7.2113276E0,4.695299E0,6.268059E2,3.2773972E2,3.117651E0,5.4350777E1,7.948155E1,3.9885848E0,2.3850904E0,6.7234545E0,2.2454638E0,9.752378E0,3.7799973E0,3.0986276E0,4.1127E0,2.2130234E0,2.4822755E0,4.1704315E1,1.2646461E1,5.7024277E1,2.245728E1,2.7499902E0,1.2385947E0,2.3552837E0,4.3681707E0,2.441331E0,1.3386663E0,1.0468806E0,2.0517468E0,1.2418294E0,1.2404462E0],"tree_param":{"num_deleted":"0","num_feature":"6","num_nodes":"51","size_leaf_vector":"1"}},{"base_weights":[2.0309112E-3,-8.941262E-1,1.0723231E0,3.2395196E-1,-9.3355256E-1,2.9379172E-2,1.1394094E0,-8.058678E-1,-3.4720597E-1,3.613408E-1,-3.1688952E-1,5.234006E-1,3.4422162E-1,-1.1093459E0,-2.2313593E-1,1.0981811E-1,2.9699534E-1,1.9366404E-1,-3.3660078E-1,-8.127865E-2,6.8880635E-1,-3.3446553E-1,-1.3580483E-1,5.6567615E-1,-6.926049E-1,2.7256587E-1,-6.307639E-2,-1.5855546E-1,5.671612E-1,2.5335416E-1,2.706571E-1,2.2891851E-1,-2.2170734E-1,1.5881365E-2,-3.4665656E-1,-1.438875E-1,1.6889456E-1,2.597688E-1,-2.9495027E-2,-1.5245253E-1,2.316689E-1],"categories":[],"categories_nodes":[],"categories_segments":[],"categories_sizes":[],"default_left":[0,0,0,0,0,0,0,0,0,0,0,0,0,0,0,0,0,0,0,0,0,0,0,0,0,0,0,0,0,0,0,0,0,0,0,0,0,0,0,0,0],"id":4,"left_children":[1,3,5,-1,7,9,11,13,-1,15,17,19,-1,21,23,25,-1,27,-1,-1,29,-1,-1,31,33,-1,35,-1,37,39,-1,-1,-1,-1,-1,-1,-1,-1,-1,-1,-1],"loss_changes":[1.1143677E3,5.0222107E1,3.7012268E1,0E0,1.6799011E1,3.9107647E0,1.8496094E0,7.020618E1,0E0,2.6312351E0,7.080809E0,1.2656906E0,0E0,4.4726562E-1,5.1377167E1,1.9218047E0,0E0,3.285876E0,0E0,0E0,4.292698E-1,0E0,0E0,1.3934473E1,3.000401E1,0E0,3.4082851E0,0E0,1.6316547E0,1.8618774E0,0E0,0E0,0E0,0E0,0E0,0E0,0E0,0E0,0E0,0E0,0E0],"parents":[2147483647,0,0,1,1,2,2,4,4,5,5,6,6,7,7,9,9,10,10,11,11,13,13,14,14,15,15,17,17,20,20,23,23,24,24,26,26,28,28,29,29],"right_children":[2,4,6,-1,8,10,12,14,-1,16,18,20,-1,22,24,26,-1,28,-1,-1,30,-1,-1,32,34,-1,36,-1,38,40,-1,-1,-1,-1,-1,-1,-1,-1,-1,-1,-1],"split_conditions":[2E0,1E0,1.1E1,3.2395196E-1,3.5E1,6E0,1.3875E-1,4E0,-3.4720597E-1,4E0,1E0,2.4E1,3.4422162E-1,3E0,2E0,8.159298E-1,2.9699534E-1,7E0,-3.3660078E-1,-8.127865E-2,1.7203695E-1,-3.3446553E-1,-1.3580483E-1,1.3E1,1E0,2.7256587E-1,1.5340476E0,-1.5855546E-1,2.1556392E0,6.59E2,2.706571E-1,2.2891851E-1,-2.2170734E-1,1.5881365E-2,-3.4665656E-1,-1.438875E-1,1.6889456E-1,2.597688E-1,-2.9495027E-2,-1.5245253E-1,2.316689E-1],"split_indices":[3,3,1,0,1,0,5,1,0,2,2,1,0,0,0,4,0,0,0,0,4,0,0,1,2,0,4,0,4,1,0,0,0,0,0,0,0,0,0,0,0],"split_type":[0,0,0,0,0,0,0,0,0,0,0,0,0,0,0,0,0,0,0,0,0,0,0,0,0,0,0,0,0,0,0,0,0,0,0,0,0,0,0,0,0],"sum_hessian":[1.1598289E3,6.3135724E2,5.284717E2,1.1846545E1,6.195107E2,3.202591E1,4.9644574E2,3.9738934E2,2.2212132E2,1.632852E1,1.569739E1,7.212959E0,4.892328E2,2.6071115E2,1.366782E2,1.2501368E1,3.8271534E0,1.0070653E1,5.6267366E0,1.1331683E0,6.07979E0,2.5783838E2,2.8727558E0,5.0918644E1,8.575955E1,1.4673904E0,1.1033977E1,3.2914183E0,6.7792344E0,2.7188184E0,3.360972E0,4.4588142E1,6.330504E0,3.319062E1,5.2568935E1,6.7660646E0,4.2679124E0,4.4710183E0,2.308216E0,1.1101401E0,1.6086782E0],"tree_param":{"num_deleted":"0","num_feature":"6","num_nodes":"41","size_leaf_vector":"1"}},{"base_weights":[1.7978827E-3,-8.279982E-1,1.0130197E0,3.04391E-1,-8.647583E-1,3.2016568E-2,1.0877619E0,-7.327357E-1,-3.325155E-1,3.1609115E-1,-2.7156374E-1,4.5858943E-1,3.291551E-1,-1.0464923E0,-1.9428267E-1,1.0406389E-1,2.6996458E-1,1.5104546E-1,-3.0734393E-1,-6.63116E-2,6.246643E-1,-3.1604943E-1,-1.1274631E-1,4.5816126E-1,-5.905433E-1,4.4995797E-1,-2.3622696E-1,-1.2799995E-1,4.4989625E-1,2.2078629E-1,2.4863392E-1,2.3891728E-1,-5.8751713E-2,1.1219326E-2,-3.267769E-1,3.0149522E-1,4.3401793E-2,-1.7557162E-1,6.400864E-2,2.1049981E-1,-2.3287574E-2,-1.3262603E-1,2.0935006E-1],"categories":[],"categories_nodes":[],"categories_segments":[],"categories_sizes":[],"default_left":[0,0,0,0,0,0,0,0,0,0,0,0,0,0,0,0,0,0,0,0,0,0,0,0,0,0,0,0,0,0,0,0,0,0,0,0,0,0,0,0,0,0,0],"id":5,"left_children":[1,3,5,-1,7,9,11,13,-1,15,17,19,-1,21,23,25,-1,27,-1,-1,29,-1,-1,31,33,35,37,-1,39,41,-1,-1,-1,-1,-1,-1,-1,-1,-1,-1,-1,-1,-1],"loss_changes":[7.6893506E2,3.4971405E1,3.0249725E1,0E0,1.5078033E1,2.6964154E0,1.7716675E0,5.442546E1,0E0,1.899222E0,4.9820323E0,9.710598E-1,0E0,5.629425E-1,3.136681E1,1.6295533E0,0E0,2.020059E0,0E0,0E0,3.2748723E-1,0E0,0E0,1.0333654E1,2.361139E1,1.0003883E0,1.2513808E0,0E0,1.0459589E0,1.3969322E0,0E0,0E0,0E0,0E0,0E0,0E0,0E0,0E0,0E0,0E0,0E0,0E0,0E0],"parents":[2147483647,0,0,1,1,2,2,4,4,5,5,6,6,7,7,9,9,10,10,11,11,13,13,14,14,15,15,17,17,20,20,23,23,24,24,25,25,26,26,28,28,29,29],"right_children":[2,4,6,-1,8,10,12,14,-1,16,18,20,-1,22,24,26,-1,28,-1,-1,30,-1,-1,32,34,36,38,-1,40,42,-1,-1,-1,-1,-1,-1,-1,-1,-1,-1,-1,-1,-1],"split_conditions":[2E0,1E0,1.1E1,3.04391E-1,3.5E1,6E0,3.9124358E-1,4E0,-3.325155E-1,4E0,1E0,2.4E1,3.291551E-1,3E0,2E0,1E0,2.6996458E-1,7E0,-3.0734393E-1,-6.63116E-2,1.7203695E-1,-3.1604943E-1,-1.1274631E-1,5E0,1E0,8.159298E-1,3E0,-1.2799995E-1,2.1556392E0,6.59E2,2.4863392E-1,2.3891728E-1,-5.8751713E-2,1.1219326E-2,-3.267769E-1,3.0149522E-1,4.3401793E-2,-1.7557162E-1,6.400864E-2,2.1049981E-1,-2.3287574E-2,-1.3262603E-1,2.0935006E-1],"split_indices":[3,3,1,0,1,0,4,1,0,2,2,1,0,0,0,2,0,0,0,0,4,0,0,1,2,4,3,0,4,1,0,0,0,0,0,0,0,0,0,0,0,0,0],"split_type":[0,0,0,0,0,0,0,0,0,0,0,0,0,0,0,0,0,0,0,0,0,0,0,0,0,0,0,0,0,0,0,0,0,0,0,0,0,0,0,0,0,0,0],"sum_hessian":[9.143725E2,5.0233984E2,4.1203265E2,9.305226E0,4.930346E2,2.9271261E1,3.8276138E2,3.2235583E2,1.7067879E2,1.5100134E1,1.4171127E1,6.380092E0,3.7638132E2,2.0307846E2,1.1927736E2,1.194139E1,3.1587439E0,9.588513E0,4.5826135E0,1.1878988E0,5.1921935E0,2.0041415E2,2.6643152E0,4.501079E1,7.426657E1,5.762118E0,6.179272E0,3.123244E0,6.4652696E0,2.4419806E0,2.750213E0,2.9524084E1,1.5486706E1,3.3283524E1,4.0983044E1,1.2314048E0,4.530713E0,3.3088915E0,2.8703804E0,4.1530356E0,2.312234E0,1.052618E0,1.3893627E0],"tree_param":{"num_deleted":"0","num_feature":"6","num_nodes":"43","size_leaf_vector":"1"}},{"base_weights":[2.1265156E-3,-7.6753557E-1,9.637288E-1,2.8781766E-1,-8.019307E-1,3.1639267E-2,1.04913E0,-6.63666E-1,-3.2300708E-1,2.7382833E-1,-2.3415974E-1,4.0355062E-1,1.0604692E0,-9.936236E-1,-1.6847931E-1,9.319177E-2,2.4722078E-1,1.1839081E-1,-2.8254905E-1,-5.420383E-2,5.6879145E-1,7.61056E-1,3.2218978E-1,-3.0075973E-1,-9.33668E-2,5.106575E-1,-5.333045E-1,3.7164402E-1,-1.9419375E-1,-2.2085762E-1,5.139487E-1,1.9519696E-1,2.2862089E-1,1.966142E-1,2.952732E-1,1.0891352E-1,3.1920698E-1,-6.297123E-2,-3.085278E-1,2.6006657E-1,3.285326E-2,-2.1046281E-1,1.782329E-2,1.9294657E-1,-1.6298331E-1,3.0451396E-1,-6.477452E-2,-1.15598395E-1,1.9029711E-1,2.2185233E-1,-1.0132439E-1],"categories":[],"categories_nodes":[],"categories_segments":[],"categories_sizes":[],"default_left":[0,0,0,0,0,0,0,0,0,0,0,0,0,0,0,0,0,0,0,0,0,0,0,0,0,0,0,0,0,0,0,0,0,0,0,0,0,0,0,0,0,0,0,0,0,0,0,0,0,0,0],"id":6,"left_children":[1,3,5,-1,7,9,11,13,-1,15,17,19,21,23,25,27,-1,29,-1,-1,31,33,-1,-1,-1,35,37,39,41,43,45,47,-1,49,-1,-1,-1,-1,-1,-1,-1,-1,-1,-1,-1,-1,-1,-1,-1,-1,-1],"loss_changes":[5.337513E2,2.4562317E1,2.5487946E1,0E0,1.422641E1,1.8627819E0,1.7218323E0,4.3006798E1,0E0,1.4221354E0,3.5694869E0,7.479768E-1,3.4643555E-1,6.508026E-1,2.6750566E1,1.0709443E0,0E0,1.4741775E0,0E0,0E0,2.448467E-1,1.8037186E0,0E0,0E0,0E0,2.7060175E0,1.0994423E1,7.7255595E-1,9.1645527E-1,2.0648177E0,2.0412083E0,1.0609112E0,0E0,1.9155674E0,0E0,0E0,0E0,0E0,0E0,0E0,0E0,0E0,0E0,0E0,0E0,0E0,0E0,0E0,0E0,0E0,0E0],"parents":[2147483647,0,0,1,1,2,2,4,4,5,5,6,6,7,7,9,9,10,10,11,11,12,12,13,13,14,14,15,15,17,17,20,20,21,21,25,25,26,26,27,27,28,28,29,29,30,30,31,31,33,33],"right_children":[2,4,6,-1,8,10,12,14,-1,16,18,20,22,24,26,28,-1,30,-1,-1,32,34,-1,-1,-1,36,38,40,42,44,46,48,-1,50,-1,-1,-1,-1,-1,-1,-1,-1,-1,-1,-1,-1,-1,-1,-1,-1,-1],"split_conditions":[2E0,1E0,1.1E1,2.8781766E-1,1.8E1,6E0,1.3875E-1,4E0,-3.2300708E-1,4E0,1E0,2.4E1,2.3E1,3E0,2E0,1E0,2.4722078E-1,3E0,-2.8254905E-1,-5.420383E-2,1.7203695E-1,1.5E0,3.2218978E-1,-3.0075973E-1,-9.33668E-2,9E0,1E0,8.159298E-1,4E0,6.0013103E-1,8E0,6.59E2,2.2862089E-1,1.6E1,2.952732E-1,1.0891352E-1,3.1920698E-1,-6.297123E-2,-3.085278E-1,2.6006657E-1,3.285326E-2,-2.1046281E-1,1.782329E-2,1.9294657E-1,-1.6298331E-1,3.0451396E-1,-6.477452E-2,-1.15598395E-1,1.9029711E-1,2.2185233E-1,-1.0132439E-1],"split_indices":[3,3,1,0,2,0,5,1,0,2,2,1,1,0,0,2,0,3,0,0,4,4,0,0,0,1,2,4,1,4,0,1,0,1,0,0,0,0,0,0,0,0,0,0,0,0,0,0,0,0,0],"split_type":[0,0,0,0,0,0,0,0,0,0,0,0,0,0,0,0,0,0,0,0,0,0,0,0,0,0,0,0,0,0,0,0,0,0,0,0,0,0,0,0,0,0,0,0,0,0,0,0,0,0,0],"sum_hessian":[7.1918005E2,3.9956882E2,3.1961127E2,7.2776136E0,3.922912E2,2.6940992E1,2.9267026E2,2.6323923E2,1.2905197E2,1.4080763E1,1.2860229E1,5.683412E0,2.8698685E2,1.5737143E2,1.05867805E2,1.1481055E1,2.5997074E0,9.139683E0,3.7205462E0,1.2324603E0,4.4509516E0,1.4854004E1,2.7213284E2,1.5488033E2,2.4911008E0,3.6857098E1,6.901071E1,5.682248E0,5.798807E0,5.157786E0,3.9818966E0,2.2028701E0,2.2480814E0,4.742123E0,1.011188E1,3.0403038E1,6.45406E0,4.2605713E1,2.6404993E1,1.1681758E0,4.5140724E0,1.343928E0,4.4548793E0,1.1313227E0,4.026463E0,2.129278E0,1.8526187E0,1.0014576E0,1.2014126E0,2.1618502E0,2.580273E0],"tree_param":{"num_deleted":"0","num_feature":"6","num_nodes":"51","size_leaf_vector":"1"}},{"base_weights":[3.7873443E-3,-7.02359E-1,9.2043465E-1,-5.4188365E-1,-3.152452E-1,3.6761213E-2,1.018163E0,-8.552647E-1,-1.1561265E-1,-3.42247E-2,2.0502107E-1,5.9014547E-1,1.0424162E0,2.7263287E-1,-9.443795E-1,1.6954319E-1,-6.572157E-1,2.1250719E-1,-3.9583784E-1,2.844897E-1,-6.093854E-3,5.250466E-2,3.149652E-1,-2.8669333E-1,-7.708545E-2,1.9347061E-1,-1.0981208E-1,-3.0016175E-1,-3.022379E-1,3.9557163E-2,5.1092494E-1,-7.455682E-2,-2.6049176E-1,-8.5883975E-1,2.3739386E-1,-2.4380226E-1,8.4541544E-2,-3.1908038E-1,5.5639625E-2,9.749154E-2,-7.369993E-2,2.7231646E-1,-5.2631237E-2,-1.9093487E-1,4.2466052E-2,-5.405139E-1,1.801005E-1],"categories":[],"categories_nodes":[],"categories_segments":[],"categories_sizes":[],"default_left":[0,0,0,0,0,0,0,0,0,0,0,0,0,0,0,0,0,0,0,0,0,0,0,0,0,0,0,0,0,0,0,0,0,0,0,0,0,0,0,0,0,0,0,0,0,0,0],"id":7,"left_children":[1,3,5,7,-1,9,11,13,15,17,-1,19,21,-1,23,25,27,29,31,-1,33,-1,-1,-1,-1,-1,35,37,-1,39,41,43,-1,45,-1,-1,-1,-1,-1,-1,-1,-1,-1,-1,-1,-1,-1],"loss_changes":[3.7041827E2,1.7506409E1,2.1467422E1,2.974253E1,0E0,1.209251E0,1.7119904E0,2.107212E1,1.4907389E1,2.2460625E0,0E0,3.0651507E0,1.1820679E0,0E0,7.061081E-1,8.510515E0,3.8555088E0,7.5675803E-1,1.4800769E0,0E0,5.011067E0,0E0,0E0,0E0,0E0,0E0,1.1482641E1,6.829367E0,0E0,9.439357E-1,1.6407132E0,9.5852077E-1,0E0,5.976364E0,0E0,0E0,0E0,0E0,0E0,0E0,0E0,0E0,0E0,0E0,0E0,0E0,0E0],"parents":[2147483647,0,0,1,1,2,2,3,3,5,5,6,6,7,7,8,8,9,9,11,11,12,12,14,14,15,15,16,16,17,17,18,18,20,20,26,26,27,27,29,29,30,30,31,31,33,33],"right_children":[2,4,6,8,-1,10,12,14,16,18,-1,20,22,-1,24,26,28,30,32,-1,34,-1,-1,-1,-1,-1,36,38,-1,40,42,44,-1,46,-1,-1,-1,-1,-1,-1,-1,-1,-1,-1,-1,-1,-1],"split_conditions":[2E0,3.5E1,1.1E1,4E0,-3.152452E-1,5E0,2.3E1,1E0,4E0,1E0,2.0502107E-1,1.6E1,1.7203695E-1,2.7263287E-1,3E0,2E0,3E0,1.5340476E0,6E0,2.844897E-1,1.3E1,5.250466E-2,3.149652E-1,-2.8669333E-1,-7.708545E-2,1.9347061E-1,6E0,8E0,-3.022379E-1,8.159298E-1,8E0,4E0,-2.6049176E-1,1.8E1,2.3739386E-1,-2.4380226E-1,8.4541544E-2,-3.1908038E-1,5.5639625E-2,9.749154E-2,-7.369993E-2,2.7231646E-1,-5.2631237E-2,-1.9093487E-1,4.2466052E-2,-5.405139E-1,1.801005E-1],"split_indices":[3,1,1,1,0,2,1,3,2,2,0,1,4,0,0,0,0,4,0,0,2,0,0,0,0,0,0,2,0,4,0,1,0,0,0,0,0,0,0,0,0,0,0,0,0,0,0],"split_type":[0,0,0,0,0,0,0,0,0,0,0,0,0,0,0,0,0,0,0,0,0,0,0,0,0,0,0,0,0,0,0,0,0,0,0,0,0,0,0,0,0,0,0,0,0,0,0],"sum_hessian":[5.70264E2,3.2224997E2,2.4801399E2,2.2238855E2,9.986142E1,2.4834364E1,2.2317963E2,1.2758538E2,9.480317E1,2.3231203E1,1.6031592E0,1.3326577E1,2.0985304E2,5.6930337E0,1.2189235E2,6.255481E1,3.224836E1,1.405422E1,9.176984E0,7.9566507E0,5.369927E0,1.9998529E0,2.078532E2,1.1954321E2,2.3491387E0,2.2670135E1,3.9884674E1,1.6888498E1,1.5359861E1,9.614581E0,4.4396386E0,6.151637E0,3.025347E0,2.5576923E0,2.8122346E0,1.3886483E1,2.5998192E1,6.1033893E0,1.07851095E1,4.7360253E0,4.878556E0,2.6088896E0,1.830749E0,1.1684957E0,4.9831414E0,1.4111217E0,1.1465706E0],"tree_param":{"num_deleted":"0","num_feature":"6","num_nodes":"47","size_leaf_vector":"1"}},{"base_weights":[3.6080242E-3,-6.4418733E-1,8.749617E-1,-4.823187E-1,-3.093167E-1,1.6156216E-1,1.015287E0,-8.0762255E-1,-1.01545595E-1,3.0857213E-2,2.5758004E-1,4.235591E-2,3.0756208E-1,2.5792444E-1,-8.9445746E-1,1.3101324E-1,-5.50576E-1,3.1842992E-1,-2.88951E-1,-2.7704668E-1,-4.633381E-1,1.6495407E-1,-9.3104705E-2,-1.7502429E-1,-9.1744035E-1,6.968918E-2,2.563749E-1,-1.9861441E-2,-2.7164266E-1,-1.5711688E-1,-6.345099E-2,-2.1541591E-1,5.9776086E-2,-2.3281488E-1,7.1531974E-2,-1.1893167E-1,-2.9151794E-1,9.10118E-2,-5.2018594E-2,3.1920336E-2,-1.61405E-1],"categories":[],"categories_nodes":[],"categories_segments":[],"categories_sizes":[],"default_left":[0,0,0,0,0,0,0,0,0,0,0,0,0,0,0,0,0,0,0,0,0,0,0,0,0,0,0,0,0,0,0,0,0,0,0,0,0,0,0,0,0],"id":8,"left_children":[1,3,5,7,-1,9,11,13,15,17,-1,-1,-1,-1,19,21,23,25,27,-1,29,-1,31,33,35,37,-1,39,-1,-1,-1,-1,-1,-1,-1,-1,-1,-1,-1,-1,-1],"loss_changes":[2.5710956E2,1.5863747E1,1.928012E1,2.2966743E1,0E0,2.9904695E0,1.2609558E0,1.5277092E1,9.143941E0,2.7520087E0,0E0,0E0,0E0,0E0,7.7030945E-1,5.499272E0,3.949768E0,2.0348818E0,2.3408315E0,0E0,1.15994215E-2,0E0,7.207257E0,4.1555877E0,3.493023E-2,7.238411E-1,0E0,7.717069E-1,0E0,0E0,0E0,0E0,0E0,0E0,0E0,0E0,0E0,0E0,0E0,0E0,0E0],"parents":[2147483647,0,0,1,1,2,2,3,3,5,5,6,6,7,7,8,8,9,9,14,14,15,15,16,16,17,17,18,18,20,20,22,22,23,23,24,24,25,25,27,27],"right_children":[2,4,6,8,-1,10,12,14,16,18,-1,-1,-1,-1,20,22,24,26,28,-1,30,-1,32,34,36,38,-1,40,-1,-1,-1,-1,-1,-1,-1,-1,-1,-1,-1,-1,-1],"split_conditions":[2E0,3.5E1,1.9E1,4E0,-3.093167E-1,6E0,1.7203695E-1,1E0,4E0,6E0,2.5758004E-1,4.235591E-2,3.0756208E-1,2.5792444E-1,2E0,2E0,2E0,4E0,1E0,-2.7704668E-1,3E0,1.6495407E-1,6E0,9E0,3E0,1E0,2.563749E-1,2.1556392E0,-2.7164266E-1,-1.5711688E-1,-6.345099E-2,-2.1541591E-1,5.9776086E-2,-2.3281488E-1,7.1531974E-2,-1.1893167E-1,-2.9151794E-1,9.10118E-2,-5.2018594E-2,3.1920336E-2,-1.61405E-1],"split_indices":[3,1,1,1,0,3,4,3,2,0,0,0,0,0,0,0,0,2,2,0,0,0,0,1,0,2,0,4,0,0,0,0,0,0,0,0,0,0,0,0,0],"split_type":[0,0,0,0,0,0,0,0,0,0,0,0,0,0,0,0,0,0,0,0,0,0,0,0,0,0,0,0,0,0,0,0,0,0,0,0,0,0,0,0,0],"sum_hessian":[4.5349893E2,2.602675E2,1.9323143E2,1.8507672E2,7.519078E1,3.211476E1,1.6111667E2,9.920362E1,8.58731E1,2.7923044E1,4.1917157E0,1.9788654E0,1.591378E2,4.4700723E0,9.473355E1,5.7039703E1,2.8833393E1,1.4704771E1,1.3218273E1,8.768669E1,7.0468626E0,1.9376099E1,3.766361E1,1.4977899E1,1.38554945E1,1.0816559E1,3.8882124E0,9.920546E0,3.2977276E0,4.813142E0,2.2337208E0,1.1539844E1,2.6123764E1,5.7469687E0,9.230929E0,2.0909302E0,1.17645645E1,5.388469E0,5.4280896E0,8.615741E0,1.3048048E0],"tree_param":{"num_deleted":"0","num_feature":"6","num_nodes":"41","size_leaf_vector":"1"}},{"base_weights":[2.2586435E-3,-5.849875E-1,8.254189E-1,-4.2095414E-1,-3.062042E-1,1.3143939E-1,9.940465E-1,-7.5694036E-1,-8.178312E-2,2.0971736E-2,2.420971E-1,3.413379E-2,1.0074219E0,2.4322625E-1,-8.412851E-1,3.095037E-1,-3.1463096E-1,2.6293257E-1,-2.4054208E-1,3.888199E-1,3.044917E-1,-8.764108E-1,-3.9473674E-1,3.7852752E-1,-2.8760558E-1,-7.687065E-2,-9.0939355E-1,5.2719425E-2,2.4001302E-1,-6.161522E-2,-2.6981658E-1,1.6247459E-1,1.3649905E-2,-2.69136E-1,-1.3245168E-1,-1.3581464E-1,-5.208235E-2,5.5008132E-2,3.7139753E-1,-2.3947427E-1,7.3802404E-2,5.2813426E-2,-1.729167E-1,-4.491926E-2,-2.9165334E-1,-3.8166158E-2,1.0828943E-1,-8.711855E-2,1.6188605E-1],"categories":[],"categories_nodes":[],"categories_segments":[],"categories_sizes":[],"default_left":[0,0,0,0,0,0,0,0,0,0,0,0,0,0,0,0,0,0,0,0,0,0,0,0,0,0,0,0,0,0,0,0,0,0,0,0,0,0,0,0,0,0,0,0,0,0,0,0,0],"id":9,"left_children":[1,3,5,7,-1,9,11,13,15,17,-1,-1,19,-1,21,23,25,27,29,31,-1,33,35,37,39,41,43,45,-1,47,-1,-1,-1,-1,-1,-1,-1,-1,-1,-1,-1,-1,-1,-1,-1,-1,-1,-1,-1],"loss_changes":[1.771897E2,1.4859779E1,1.7729355E1,1.7843166E1,0E0,2.295537E0,1.329216E0,1.1102905E1,7.323459E0,1.8133903E0,0E0,0E0,1.6897583E-1,0E0,8.347931E-1,1.3491437E0,7.031513E0,1.633855E0,1.5731201E0,1.3668612E-1,0E0,2.250824E-1,1.51126385E-2,4.3701577E0,1.200878E0,4.7719555E0,5.340624E-1,6.9705003E-1,0E0,1.7987388E0,0E0,0E0,0E0,0E0,0E0,0E0,0E0,0E0,0E0,0E0,0E0,0E0,0E0,0E0,0E0,0E0,0E0,0E0,0E0],"parents":[2147483647,0,0,1,1,2,2,3,3,5,5,6,6,7,7,8,8,9,9,12,12,14,14,15,15,16,16,17,17,18,18,19,19,21,21,22,22,23,23,24,24,25,25,26,26,27,27,29,29],"right_children":[2,4,6,8,-1,10,12,14,16,18,-1,-1,20,-1,22,24,26,28,30,32,-1,34,36,38,40,42,44,46,-1,48,-1,-1,-1,-1,-1,-1,-1,-1,-1,-1,-1,-1,-1,-1,-1,-1,-1,-1,-1],"split_conditions":[2E0,1.8E1,1.9E1,4E0,-3.062042E-1,6E0,1.7203695E-1,1E0,2E0,6E0,2.420971E-1,3.413379E-2,2.3E1,2.4322625E-1,2E0,1.3E1,1E0,4E0,1.6E1,2.1E1,3.044917E-1,3E0,3E0,9E0,1.6E1,2.1E1,3E0,1.5340476E0,2.4001302E-1,9E0,-2.6981658E-1,1.6247459E-1,1.3649905E-2,-2.69136E-1,-1.3245168E-1,-1.3581464E-1,-5.208235E-2,5.5008132E-2,3.7139753E-1,-2.3947427E-1,7.3802404E-2,5.2813426E-2,-1.729167E-1,-4.491926E-2,-2.9165334E-1,-3.8166158E-2,1.0828943E-1,-8.711855E-2,1.6188605E-1],"split_indices":[3,2,1,1,0,3,4,3,0,0,0,0,1,0,0,1,2,2,1,1,0,1,0,1,1,1,0,4,0,0,0,0,0,0,0,0,0,0,0,0,0,0,0,0,0,0,0,0,0],"split_type":[0,0,0,0,0,0,0,0,0,0,0,0,0,0,0,0,0,0,0,0,0,0,0,0,0,0,0,0,0,0,0,0,0,0,0,0,0,0,0,0,0,0,0,0,0,0,0,0,0],"sum_hessian":[3.6455167E2,2.1293338E2,1.5161829E2,1.5612158E2,5.68118E1,2.998712E1,1.2163117E2,7.781024E1,7.831134E1,2.6658846E1,3.3282726E0,1.9627688E0,1.196684E2,3.5328913E0,7.427734E1,2.9093033E1,4.921831E1,1.3844268E1,1.2814578E1,2.0760589E0,1.1759234E2,6.79683E1,6.3090477E0,2.6406588E1,2.686445E0,3.5968792E1,1.3249517E1,1.07393E1,3.104968E0,1.0937686E1,1.8768927E0,1.0371087E0,1.0389502E0,6.3864426E1,4.103874E0,4.1687374E0,2.1403103E0,2.2508665E1,3.8979237E0,1.1193521E0,1.5670929E0,2.4308512E1,1.1660279E1,1.2698396E0,1.1979678E1,7.1517186E0,3.5875814E0,8.297394E0,2.640292E0],"tree_param":{"num_deleted":"0","num_feature":"6","num_nodes":"49","size_leaf_vector":"1"}},{"base_weights":[2.8194368E-3,-5.2160203E-1,7.7371615E-1,-3.624211E-1,-3.015536E-1,1.4197761E-1,9.8253334E-1,-7.018506E-1,-6.979905E-2,-4.130207E-2,4.2461622E-1,2.7487036E-2,3.002984E-1,2.283898E-1,-7.8325784E-1,2.3877206E-1,-2.6028347E-1,4.412371E-1,-1.5202853E-1,9.6227184E-2,2.3309688E-1,-8.2479644E-1,-3.32826E-1,1.2832443E-1,-3.42771E-2,-6.1687768E-2,-8.6266345E-1,2.4054395E-1,-9.344076E-2,1.60116E-1,-5.660946E-1,3.70481E-1,-1.5565492E-1,-2.548415E-1,-1.12965696E-1,-1.1598774E-1,-4.264542E-2,-1.8950945E-1,1.6154389E-1,2.2749253E-2,-2.544727E-1,-3.837883E-2,-2.81439E-1,-2.829843E-2,2.1929778E-1,-6.9222994E-2,-3.5357285E-1,2.3109768E-1,-4.3268693E-3],"categories":[],"categories_nodes":[],"categories_segments":[],"categories_sizes":[],"default_left":[0,0,0,0,0,0,0,0,0,0,0,0,0,0,0,0,0,0,0,0,0,0,0,0,0,0,0,0,0,0,0,0,0,0,0,0,0,0,0,0,0,0,0,0,0,0,0,0,0],"id":10,"left_children":[1,3,5,7,-1,9,11,13,15,17,19,-1,-1,-1,21,23,25,27,29,31,-1,33,35,-1,37,39,41,-1,-1,43,45,47,-1,-1,-1,-1,-1,-1,-1,-1,-1,-1,-1,-1,-1,-1,-1,-1,-1],"loss_changes":[1.2127296E2,1.3378372E1,1.5881508E1,1.3447376E1,0E0,1.6409907E0,1.4067612E0,8.07633E0,4.4165745E0,1.131554E0,1.3620508E0,0E0,0E0,0E0,8.477669E-1,1.5006382E0,5.4837995E0,1.3284862E0,2.2811682E0,1.4689316E0,0E0,2.8006363E-1,1.419121E-2,0E0,4.6874204E0,3.9459229E0,5.1202774E-1,0E0,0E0,1.5858531E0,1.2696059E0,9.0649813E-1,0E0,0E0,0E0,0E0,0E0,0E0,0E0,0E0,0E0,0E0,0E0,0E0,0E0,0E0,0E0,0E0,0E0],"parents":[2147483647,0,0,1,1,2,2,3,3,5,5,6,6,7,7,8,8,9,9,10,10,14,14,15,15,16,16,17,17,18,18,19,19,21,21,22,22,24,24,25,25,26,26,29,29,30,30,31,31],"right_children":[2,4,6,8,-1,10,12,14,16,18,20,-1,-1,-1,22,24,26,28,30,32,-1,34,36,-1,38,40,42,-1,-1,44,46,48,-1,-1,-1,-1,-1,-1,-1,-1,-1,-1,-1,-1,-1,-1,-1,-1,-1],"split_conditions":[2E0,1.8E1,2.3E1,4E0,-3.015536E-1,1.5340476E0,1.7203695E-1,1E0,2E0,6.300531E-1,1E1,2.7487036E-2,3.002984E-1,2.283898E-1,2E0,5E0,1E0,1.7E1,6E0,8E0,2.3309688E-1,3E0,3E0,1.2832443E-1,9E0,3.4E1,3E0,2.4054395E-1,-9.344076E-2,4E0,1E0,1E0,-1.5565492E-1,-2.548415E-1,-1.12965696E-1,-1.1598774E-1,-4.264542E-2,-1.8950945E-1,1.6154389E-1,2.2749253E-2,-2.544727E-1,-3.837883E-2,-2.81439E-1,-2.829843E-2,2.1929778E-1,-6.9222994E-2,-3.5357285E-1,2.3109768E-1,-4.3268693E-3],"split_indices":[3,2,1,1,0,4,4,3,0,4,1,0,0,0,0,1,2,0,0,1,0,1,0,0,1,0,0,0,0,2,2,2,0,0,0,0,0,0,0,0,0,0,0,0,0,0,0,0,0],"split_type":[0,0,0,0,0,0,0,0,0,0,0,0,0,0,0,0,0,0,0,0,0,0,0,0,0,0,0,0,0,0,0,0,0,0,0,0,0,0,0,0,0,0,0,0,0,0,0,0,0],"sum_hessian":[2.979783E2,1.775315E2,1.204468E2,1.3488145E2,4.2650043E1,3.0339636E1,9.010716E1,6.1798847E1,7.308261E1,1.8922823E1,1.1416814E1,1.9503304E0,8.815683E1,2.8169785E0,5.898187E1,2.7798128E1,4.528448E1,2.974631E0,1.5948191E1,6.568491E0,4.848323E0,5.3240902E1,5.7409678E0,1.6093401E1,1.1704726E1,3.488562E1,1.0398861E1,1.9670812E0,1.0075499E0,9.442929E0,6.5052624E0,4.817919E0,1.7505724E0,4.9614574E1,3.626327E0,3.6760716E0,2.0648959E0,5.678641E0,6.0260854E0,3.0463137E1,4.422483E0,1.2196512E0,9.17921E0,7.10911E0,2.333819E0,5.09328E0,1.4119827E0,1.8719552E0,2.9459634E0],"tree_param":{"num_deleted":"0","num_feature":"6","num_nodes":"49","size_leaf_vector":"1"}},{"base_weights":[1.453219E-3,-4.5432946E-1,7.306127E-1,-3.1052524E-1,-9.270798E-1,1.20333955E-1,2.9624334E-1,-6.411639E-1,-6.245526E-2,-2.9839975E-1,1.8118775E-1,4.8718415E-2,2.1099739E-1,2.1348797E-1,-7.191719E-1,3.2451957E-2,-7.44032E-1,3.63264E-1,-7.668219E-2,-7.668889E-1,-2.7809417E-1,2.6389197E-1,-1.21291116E-1,-3.0074766E-1,-4.4116008E-1,8.672741E-2,2.316959E-1,2.0896628E-1,-2.7270103E-1,-2.3868518E-1,-9.530002E-2,-9.7973205E-2,-3.484466E-2,2.4540685E-2,3.2098478E-1,-2.0127107E-1,3.954003E-2,2.0606644E-1,-2.4896695E-1,1.0079955E-1,-6.891799E-2,-9.324926E-2,1.9421239E-1,-3.024315E-1,1.2956755E-2],"categories":[],"categories_nodes":[],"categories_segments":[],"categories_sizes":[],"default_left":[0,0,0,0,0,0,0,0,0,0,0,0,0,0,0,0,0,0,0,0,0,0,0,0,0,0,0,0,0,0,0,0,0,0,0,0,0,0,0,0,0,0,0,0,0],"id":11,"left_children":[1,3,5,7,9,11,-1,13,15,-1,-1,17,-1,-1,19,21,23,25,27,29,31,33,35,-1,37,39,-1,41,43,-1,-1,-1,-1,-1,-1,-1,-1,-1,-1,-1,-1,-1,-1,-1,-1],"loss_changes":[8.252271E1,1.0100016E1,1.4853294E1,9.693042E0,4.236416E0,1.1945058E0,0E0,5.8683186E0,4.4814262E0,0E0,0E0,1.1041077E0,0E0,0E0,8.072777E-1,2.2182515E0,2.2030115E-1,8.3249843E-1,1.1955245E0,3.0460167E-1,1.1553556E-2,3.5582113E0,5.3190684E0,0E0,3.062096E0,5.402939E-1,0E0,2.215982E0,2.9456587E0,0E0,0E0,0E0,0E0,0E0,0E0,0E0,0E0,0E0,0E0,0E0,0E0,0E0,0E0,0E0,0E0],"parents":[2147483647,0,0,1,1,2,2,3,3,4,4,5,5,7,7,8,8,11,11,14,14,15,15,16,16,17,17,18,18,19,19,20,20,21,21,22,22,24,24,25,25,27,27,28,28],"right_children":[2,4,6,8,10,12,-1,14,16,-1,-1,18,-1,-1,20,22,24,26,28,30,32,34,36,-1,38,40,-1,42,44,-1,-1,-1,-1,-1,-1,-1,-1,-1,-1,-1,-1,-1,-1,-1,-1],"split_conditions":[1.7203695E-1,3.5E1,2.3E1,4E0,4.18E2,6E0,2.9624334E-1,1E0,1.2E1,-2.9839975E-1,1.8118775E-1,4E0,2.1099739E-1,2.1348797E-1,2E0,3E0,1.6E1,6E0,8.159298E-1,3E0,3E0,8E0,6E0,-3.0074766E-1,1.9E1,1E0,2.316959E-1,7E0,1.3633801E0,-2.3868518E-1,-9.530002E-2,-9.7973205E-2,-3.484466E-2,2.4540685E-2,3.2098478E-1,-2.0127107E-1,3.954003E-2,2.0606644E-1,-2.4896695E-1,1.0079955E-1,-6.891799E-2,-9.324926E-2,1.9421239E-1,-3.024315E-1,1.2956755E-2],"split_indices":[4,1,1,1,1,3,0,3,2,0,0,0,0,0,0,0,2,1,4,1,0,2,0,0,1,2,0,0,4,0,0,0,0,0,0,0,0,0,0,0,0,0,0,0,0],"split_type":[0,0,0,0,0,0,0,0,0,0,0,0,0,0,0,0,0,0,0,0,0,0,0,0,0,0,0,0,0,0,0,0,0,0,0,0,0,0,0,0,0,0,0,0,0],"sum_hessian":[2.4631058E2,1.5180025E2,9.451032E1,1.1766501E2,3.4135242E1,2.84308E1,6.607952E1,4.975917E1,6.790584E1,3.302761E1,1.1076337E0,2.6285421E1,2.1453786E0,2.2700572E0,4.7489117E1,6.04419E1,7.4639397E0,6.951633E0,1.9333788E1,4.218658E1,5.3025336E0,2.3838987E1,3.660291E1,2.7808802E0,4.683059E0,4.8708076E0,2.0808253E0,7.8411784E0,1.149261E1,3.8926105E1,3.260474E0,3.2984526E0,2.0040812E0,2.0344595E1,3.4943929E0,1.1020334E1,2.5582577E1,1.0036314E0,3.679428E0,2.6900735E0,2.180734E0,3.7207212E0,4.120457E0,2.79483E0,8.697781E0],"tree_param":{"num_deleted":"0","num_feature":"6","num_nodes":"45","size_leaf_vector":"1"}},{"base_weights":[2.2205487E-3,-3.8805577E-1,6.866424E-1,-2.5025654E-1,-8.5647184E-1,1.6462159E-1,2.9750666E-1,-5.7525784E-1,-3.3458807E-2,-9.259729E-1,1.6932346E-1,6.934867E-2,2.289426E-1,1.9872646E-1,-6.493166E-1,2.0404782E-2,-2.2111231E-1,-2.68071E-1,-2.9552904E-1,1.5794289E-1,-5.1624036E-1,-7.0223075E-1,-2.3058707E-1,-2.6079707E-2,5.243068E-1,-2.1496831E-1,7.910739E-2,1.8794876E-2,2.3716767E-1,-4.009115E-1,8.956131E-2,-2.2039813E-1,-7.9637796E-2,-8.196564E-2,-2.8420245E-2,2.31048E-2,-1.8582714E-1,2.7558863E-1,-1.5639457E-1,4.5624778E-2,-5.609272E-2],"categories":[],"categories_nodes":[],"categories_segments":[],"categories_sizes":[],"default_left":[0,0,0,0,0,0,0,0,0,0,0,0,0,0,0,0,0,0,0,0,0,0,0,0,0,0,0,0,0,0,0,0,0,0,0,0,0,0,0,0,0],"id":12,"left_children":[1,3,5,7,9,11,-1,13,15,17,-1,19,-1,-1,21,23,-1,25,-1,27,29,31,33,35,37,-1,-1,39,-1,-1,-1,-1,-1,-1,-1,-1,-1,-1,-1,-1,-1],"loss_changes":[5.5925255E1,8.392422E0,1.1943974E1,7.339786E0,3.475029E0,1.6145086E0,0E0,4.2551937E0,2.4295895E0,8.593426E-1,0E0,1.447322E0,0E0,0E0,7.216759E-1,1.4227228E0,0E0,1.0845617E0,0E0,2.0654192E0,2.86722E0,2.995472E-1,8.652568E-3,3.47495E0,2.5932097E0,0E0,0E0,5.878223E-1,0E0,0E0,0E0,0E0,0E0,0E0,0E0,0E0,0E0,0E0,0E0,0E0,0E0],"parents":[2147483647,0,0,1,1,2,2,3,3,4,4,5,5,7,7,8,8,9,9,11,11,14,14,15,15,17,17,19,19,20,20,21,21,22,22,23,23,24,24,27,27],"right_children":[2,4,6,8,10,12,-1,14,16,18,-1,20,-1,-1,22,24,-1,26,-1,28,30,32,34,36,38,-1,-1,40,-1,-1,-1,-1,-1,-1,-1,-1,-1,-1,-1,-1,-1],"split_conditions":[3.9124358E-1,1.2E1,3.6E1,4E0,1.58E2,1.3E1,2.9750666E-1,1E0,3.4E1,1.8E1,1.6932346E-1,1.6E1,2.289426E-1,1.9872646E-1,2E0,8E0,-2.2111231E-1,1.5E1,-2.9552904E-1,1.1E1,1.7E1,3E0,3E0,4E0,3E0,-2.1496831E-1,7.910739E-2,1E0,2.3716767E-1,-4.009115E-1,8.956131E-2,-2.2039813E-1,-7.9637796E-2,-8.196564E-2,-2.8420245E-2,2.31048E-2,-1.8582714E-1,2.7558863E-1,-1.5639457E-1,4.5624778E-2,-5.609272E-2],"split_indices":[4,2,1,1,0,2,0,3,0,1,0,1,0,0,0,2,0,2,0,1,0,1,0,2,0,0,0,2,0,0,0,0,0,0,0,0,0,0,0,0,0],"split_type":[0,0,0,0,0,0,0,0,0,0,0,0,0,0,0,0,0,0,0,0,0,0,0,0,0,0,0,0,0,0,0,0,0,0,0,0,0,0,0,0,0],"sum_hessian":[2.0737123E2,1.3234021E2,7.503104E1,1.0344337E2,2.8896837E1,2.8241495E1,4.678954E1,4.0730648E1,6.2712715E1,2.788136E1,1.0154768E0,2.5325956E1,2.9155378E0,1.8510543E0,3.8879597E1,5.915503E1,3.5576866E0,2.7553382E0,2.5126022E1,2.2632198E1,2.6937592E0,3.391657E1,4.9630275E0,5.5027077E1,4.127952E0,1.3061802E0,1.449158E0,1.9395697E1,3.2365003E0,1.0234342E0,1.6703249E0,3.0937479E1,2.9790888E0,3.0079668E0,1.9550607E0,4.7622665E1,7.4044127E0,3.0857248E0,1.0422274E0,1.1929371E1,7.466326E0],"tree_param":{"num_deleted":"0","num_feature":"6","num_nodes":"41","size_leaf_vector":"1"}},{"base_weights":[1.9746493E-3,-3.2690758E-1,6.187871E-1,-2.1147023E-1,-8.54216E-1,1.3222556E-1,2.9445782E-1,-5.0555223E-1,-4.8596513E-2,-2.8206256E-1,1.21580094E-1,5.152851E-2,2.1442601E-1,1.8436222E-1,-5.751158E-1,1.1965621E-2,-6.017156E-1,2.0327161E-1,-2.0165978E-2,-6.314665E-1,-1.8998662E-1,2.2356504E-1,-1.1329939E-1,-2.6195174E-1,-2.6115468E-1,9.053644E-2,-2.4984139E-1,-2.0001765E-1,-6.601762E-2,-6.801605E-2,-2.3146026E-2,3.5814386E-2,2.430224E-1,6.2892227E-3,-2.2058651E-1,1.7667978E-1,-2.139328E-1,-6.9633895E-3,2.1751654E-1],"categories":[],"categories_nodes":[],"categories_segments":[],"categories_sizes":[],"default_left":[0,0,0,0,0,0,0,0,0,0,0,0,0,0,0,0,0,0,0,0,0,0,0,0,0,0,0,0,0,0,0,0,0,0,0,0,0,0,0],"id":13,"left_children":[1,3,5,7,9,11,-1,13,15,-1,-1,17,-1,-1,19,21,23,-1,25,27,29,31,33,-1,35,37,-1,-1,-1,-1,-1,-1,-1,-1,-1,-1,-1,-1,-1],"loss_changes":[3.6805286E1,7.02287E0,1.100625E1,4.6893597E0,2.647338E0,1.2842894E0,0E0,3.0783758E0,2.1659293E0,0E0,0E0,1.1699693E0,0E0,0E0,6.0583496E-1,1.5908855E0,3.617084E-1,0E0,2.2422125E0,2.702465E-1,6.12922E-3,1.2659104E0,3.169142E0,0E0,2.0551963E0,1.6119205E0,0E0,0E0,0E0,0E0,0E0,0E0,0E0,0E0,0E0,0E0,0E0,0E0,0E0],"parents":[2147483647,0,0,1,1,2,2,3,3,4,4,5,5,7,7,8,8,11,11,14,14,15,15,16,16,18,18,19,19,20,20,21,21,22,22,24,24,25,25],"right_children":[2,4,6,8,10,12,-1,14,16,-1,-1,18,-1,-1,20,22,24,-1,26,28,30,32,34,-1,36,38,-1,-1,-1,-1,-1,-1,-1,-1,-1,-1,-1,-1,-1],"split_conditions":[1.3875E-1,3.5E1,3.6E1,4E0,2.28E2,1.3E1,2.9445782E-1,1E0,1.2E1,-2.8206256E-1,1.21580094E-1,6.420643E-1,2.1442601E-1,1.8436222E-1,2E0,2E0,1.6E1,2.0327161E-1,1.6E1,3E0,3E0,9E0,1E0,-2.6195174E-1,1.9E1,1.1E1,-2.4984139E-1,-2.0001765E-1,-6.601762E-2,-6.801605E-2,-2.3146026E-2,3.5814386E-2,2.430224E-1,6.2892227E-3,-2.2058651E-1,1.7667978E-1,-2.139328E-1,-6.9633895E-3,2.1751654E-1],"split_indices":[5,1,1,1,2,2,0,3,2,0,0,4,0,0,0,0,2,0,1,1,0,1,2,0,1,1,0,0,0,0,0,0,0,0,0,0,0,0,0],"split_type":[0,0,0,0,0,0,0,0,0,0,0,0,0,0,0,0,0,0,0,0,0,0,0,0,0,0,0,0,0,0,0,0,0,0,0,0,0,0,0],"sum_hessian":[1.7943597E2,1.1734046E2,6.2095516E1,9.741549E1,1.9924974E1,2.7103981E1,3.499153E1,3.39721E1,6.344339E1,1.8888817E1,1.0361573E0,2.476216E1,2.341823E0,1.5283775E0,3.244372E1,5.8064194E1,5.379199E0,1.6760341E0,2.3086124E1,2.7744612E1,4.6991096E0,2.1299702E1,3.6764492E1,2.1230326E0,3.2561665E0,2.1100306E1,1.9858184E0,2.4982899E1,2.7617114E0,2.7835639E0,1.9155458E0,1.910887E1,2.1908307E0,3.1032143E1,5.73235E0,1.0250527E0,2.2311137E0,1.8709707E1,2.3905988E0],"tree_param":{"num_deleted":"0","num_feature":"6","num_nodes":"39","size_leaf_vector":"1"}},{"base_weights":[3.935981E-3,-2.7186897E-1,5.5231327E-1,-1.7198455E-1,-8.379762E-1,1.1538288E-1,2.9103056E-1,-4.3432334E-1,-4.408023E-2,-2.8224814E-1,9.841171E-2,4.775714E-2,1.998861E-1,1.706379E-1,-4.9894804E-1,1.3122943E-1,-1.4826111E-1,2.0364E-1,-1.6909169E-1,-5.5636275E-1,-1.557295E-1,8.759251E-2,-1.0080916E-1,-3.886184E-2,-7.124701E-1,4.7614238E-1,-3.6813177E-2,-4.0089747E-1,1.19803645E-1,-1.7792612E-1,-5.4363813E-2,-5.6058433E-2,-1.882762E-2,-1.5222189E-1,7.439159E-2,-1.866744E-1,1.3523288E-2,-2.515422E-1,-1.1137324E-2,6.789087E-3,2.8706047E-1,-8.399545E-2,1.015936E-1,-1.060411E-1,1.3564253E-1],"categories":[],"categories_nodes":[],"categories_segments":[],"categories_sizes":[],"default_left":[0,0,0,0,0,0,0,0,0,0,0,0,0,0,0,0,0,0,0,0,0,0,0,0,0,0,0,0,0,0,0,0,0,0,0,0,0,0,0,0,0,0,0,0,0],"id":14,"left_children":[1,3,5,7,9,11,-1,13,15,-1,-1,17,-1,-1,19,21,23,25,27,29,31,-1,33,35,37,39,41,-1,43,-1,-1,-1,-1,-1,-1,-1,-1,-1,-1,-1,-1,-1,-1,-1,-1],"loss_changes":[2.4164272E1,5.8673964E0,9.647411E0,3.0553255E0,2.1898394E0,9.8404765E-1,0E0,2.2232804E0,1.1647604E0,0E0,0E0,8.918028E-1,0E0,0E0,4.777341E-1,9.2108047E-1,2.429134E0,1.0141368E0,3.921276E0,2.2520256E-1,4.171893E-3,0E0,1.6186208E0,1.7124225E0,5.140557E-1,1.5483853E0,9.1727996E-1,0E0,1.7104602E0,0E0,0E0,0E0,0E0,0E0,0E0,0E0,0E0,0E0,0E0,0E0,0E0,0E0,0E0,0E0,0E0],"parents":[2147483647,0,0,1,1,2,2,3,3,4,4,5,5,7,7,8,8,11,11,14,14,15,15,16,16,17,17,18,18,19,19,20,20,22,22,23,23,24,24,25,25,26,26,28,28],"right_children":[2,4,6,8,10,12,-1,14,16,-1,-1,18,-1,-1,20,22,24,26,28,30,32,-1,34,36,38,40,42,-1,44,-1,-1,-1,-1,-1,-1,-1,-1,-1,-1,-1,-1,-1,-1,-1,-1],"split_conditions":[3.9124358E-1,1.8E1,3.6E1,4E0,2.15E2,1.3E1,2.9103056E-1,1E0,2E0,-2.8224814E-1,9.841171E-2,1E0,1.998861E-1,1.706379E-1,2E0,5E0,1E0,4.9610728E-1,4.861111E-1,3E0,3E0,8.759251E-2,8E0,5E0,1.1E1,6.5198314E-1,1.5340476E0,-4.0089747E-1,2E0,-1.7792612E-1,-5.4363813E-2,-5.6058433E-2,-1.882762E-2,-1.5222189E-1,7.439159E-2,-1.866744E-1,1.3523288E-2,-2.515422E-1,-1.1137324E-2,6.789087E-3,2.8706047E-1,-8.399545E-2,1.015936E-1,-1.060411E-1,1.3564253E-1],"split_indices":[4,2,1,1,2,2,0,3,0,0,0,2,0,0,0,1,2,5,5,1,0,0,1,0,2,4,4,0,2,0,0,0,0,0,0,0,0,0,0,0,0,0,0,0,0],"split_type":[0,0,0,0,0,0,0,0,0,0,0,0,0,0,0,0,0,0,0,0,0,0,0,0,0,0,0,0,0,0,0,0,0,0,0,0,0,0,0,0,0,0,0,0,0],"sum_hessian":[1.577761E2,1.0531328E2,5.2462814E1,9.062681E1,1.4686465E1,2.626774E1,2.6195072E1,2.8918234E1,6.1708576E1,1.36734915E1,1.0129731E0,2.4363686E1,1.9040542E0,1.2780855E0,2.764015E1,2.2905266E1,3.880331E1,1.4209807E1,1.0153878E1,2.3147024E1,4.493125E0,1.337877E1,9.526496E0,3.339663E1,5.4066777E0,6.20152E0,8.008287E0,1.2952006E0,8.858678E0,2.055401E1,2.5930145E0,2.6094398E0,1.8836852E0,4.1886783E0,5.3378177E0,3.3941255E0,3.0002506E1,4.3529673E0,1.0537103E0,3.729871E0,2.4716487E0,5.0147142E0,2.9935734E0,3.6282275E0,5.23045E0],"tree_param":{"num_deleted":"0","num_feature":"6","num_nodes":"45","size_leaf_vector":"1"}},{"base_weights":[2.0577672E-3,-1.4223762E-1,7.7497154E-1,-7.3849045E-2,-7.622889E-1,-3.6642754E-1,2.8634143E-1,-3.150634E-1,1.55982105E-2,-2.9856634E-1,1.7463288E-1,-1.9662453E-1,6.223115E-2,1.577406E-1,-3.654486E-1,-4.2710766E-2,1.8832971E-1,-4.7960186E-1,-5.39505E-2,-1.4424755E-1,2.235376E-1,3.0755955E-1,3.8418494E-2,-1.5483229E-1,-4.4524256E-2,3.0405367E-2,-1.7330202E-1,1.9599271E-3,-1.7223553E-1,2.4175389E-2,1.8204004E-1,-8.3053395E-2,5.770195E-2],"categories":[],"categories_nodes":[],"categories_segments":[],"categories_sizes":[],"default_left":[0,0,0,0,0,0,0,0,0,0,0,0,0,0,0,0,0,0,0,0,0,0,0,0,0,0,0,0,0,0,0,0,0],"id":15,"left_children":[1,3,5,7,9,11,-1,13,15,-1,-1,-1,-1,-1,17,19,21,23,25,27,29,-1,31,-1,-1,-1,-1,-1,-1,-1,-1,-1,-1],"loss_changes":[1.5877797E1,5.031438E0,4.9383907E0,2.360355E0,4.2781343E0,7.605299E-1,0E0,1.445318E0,8.197401E-1,0E0,0E0,0E0,0E0,0E0,9.87416E-1,1.6831287E0,2.5354812E0,1.7400217E-1,7.717802E-1,2.9085283E0,8.9627683E-1,0E0,9.4830483E-1,0E0,0E0,0E0,0E0,0E0,0E0,0E0,0E0,0E0,0E0],"parents":[2147483647,0,0,1,1,2,2,3,3,4,4,5,5,7,7,8,8,14,14,15,15,16,16,17,17,18,18,19,19,20,20,22,22],"right_children":[2,4,6,8,10,12,-1,14,16,-1,-1,-1,-1,-1,18,20,22,24,26,28,30,-1,32,-1,-1,-1,-1,-1,-1,-1,-1,-1,-1],"split_conditions":[3.6E1,3.5E1,1.7203695E-1,4E0,3.8285643E-1,2.89E2,2.8634143E-1,1E0,1.3E1,-2.9856634E-1,1.7463288E-1,-1.9662453E-1,6.223115E-2,1.577406E-1,2E0,6.5198314E-1,1.5E1,3E0,1E0,1E1,1.1E1,3.0755955E-1,1.8E1,-1.5483229E-1,-4.4524256E-2,3.0405367E-2,-1.7330202E-1,1.9599271E-3,-1.7223553E-1,2.4175389E-2,1.8204004E-1,-8.3053395E-2,5.770195E-2],"split_indices":[0,1,4,1,5,1,0,3,0,0,0,0,0,0,0,4,1,1,2,1,1,0,0,0,0,0,0,0,0,0,0,0,0],"split_type":[0,0,0,0,0,0,0,0,0,0,0,0,0,0,0,0,0,0,0,0,0,0,0,0,0,0,0,0,0,0,0,0,0],"sum_hessian":[1.4037779E2,1.18981155E2,2.1396639E1,1.0816968E2,1.0811478E1,2.7661204E0,1.8630518E1,2.8578657E1,7.959103E1,9.436266E0,1.3752117E0,1.7451755E0,1.020945E0,1.0822155E0,2.7496443E1,6.006695E1,1.952407E1,1.972738E1,7.7690625E0,4.3815605E1,1.6251347E1,2.0790753E0,1.7444994E1,1.7265863E1,2.461516E0,6.6142044E0,1.1548581E0,3.3166866E1,1.0648739E1,1.2717944E1,3.5334032E0,5.461036E0,1.1983958E1],"tree_param":{"num_deleted":"0","num_feature":"6","num_nodes":"33","size_leaf_vector":"1"}},{"base_weights":[4.0081474E-3,-1.0967513E-1,7.414202E-1,-5.3791646E-2,-7.364088E-1,-3.27402E-1,2.81242E-1,-2.5753003E-1,1.5697703E-2,-2.9597247E-1,1.6163886E-1,-1.820746E-1,5.3381465E-2,-3.046023E-1,1.7225916E-2,1.3421002E-1,-4.439298E-2,-3.35714E-1,-1.3733512E-1,1.8360323E-1,-1.4159575E-1,-2.166506E-1,1.127223E-1,-1.0761378E-1,-3.6305238E-2,-1.952742E-2,-4.9618125E-2,2.5278548E-2,1.5199083E-1,-1.7502727E-2,-1.3674833E-1,1.3153839E-2,2.1473159E-1],"categories":[],"categories_nodes":[],"categories_segments":[],"categories_sizes":[],"default_left":[0,0,0,0,0,0,0,0,0,0,0,0,0,0,0,0,0,0,0,0,0,0,0,0,0,0,0,0,0,0,0,0,0],"id":16,"left_children":[1,3,5,7,9,11,-1,13,15,-1,-1,-1,-1,17,-1,19,21,23,25,27,-1,29,31,-1,-1,-1,-1,-1,-1,-1,-1,-1,-1],"loss_changes":[1.097243E1,3.9333289E0,3.9702606E0,1.4938083E0,3.468937E0,5.9542644E-1,0E0,4.1510093E-1,5.714565E-1,0E0,0E0,0E0,0E0,7.614064E-2,0E0,8.940438E-1,1.4708009E0,5.0971746E-2,1.3249367E-4,7.805406E-1,0E0,9.5161235E-1,1.1568455E0,0E0,0E0,0E0,0E0,0E0,0E0,0E0,0E0,0E0,0E0],"parents":[2147483647,0,0,1,1,2,2,3,3,4,4,5,5,7,7,8,8,13,13,15,15,16,16,17,17,18,18,19,19,21,21,22,22],"right_children":[2,4,6,8,10,12,-1,14,16,-1,-1,-1,-1,18,-1,20,22,24,26,28,-1,30,32,-1,-1,-1,-1,-1,-1,-1,-1,-1,-1],"split_conditions":[3.6E1,3.5E1,1.7203695E-1,4E0,3.8285643E-1,2.89E2,2.81242E-1,2E0,4E0,-2.9597247E-1,1.6163886E-1,-1.820746E-1,5.3381465E-2,2E0,1.7225916E-2,1.8E1,9E0,3E0,3E0,8E0,-1.4159575E-1,1E0,1.3633801E0,-1.0761378E-1,-3.6305238E-2,-1.952742E-2,-4.9618125E-2,2.5278548E-2,1.5199083E-1,-1.7502727E-2,-1.3674833E-1,1.3153839E-2,2.1473159E-1],"split_indices":[0,1,4,1,5,1,0,3,0,0,0,0,0,0,0,1,0,1,1,2,0,2,4,0,0,0,0,0,0,0,0,0,0],"split_type":[0,0,0,0,0,0,0,0,0,0,0,0,0,0,0,0,0,0,0,0,0,0,0,0,0,0,0,0,0,0,0,0,0],"sum_hessian":[1.2891685E2,1.12434616E2,1.6482235E1,1.0422693E2,8.207694E0,2.4508696E0,1.4031366E1,2.5819563E1,7.8407364E1,7.050824E0,1.1568704E0,1.4486114E0,1.0022582E0,2.249093E1,3.3286312E0,2.596503E1,5.244233E1,1.8114567E1,4.3763657E0,2.4653381E1,1.3116503E0,2.483494E1,2.7607391E1,1.5755978E1,2.3585885E0,2.1529384E0,2.223427E0,1.9819263E1,4.8341184E0,1.5692326E1,9.142613E0,2.5740227E1,1.8671643E0],"tree_param":{"num_deleted":"0","num_feature":"6","num_nodes":"33","size_leaf_vector":"1"}},{"base_weights":[3.8098902E-3,-8.4850974E-2,7.024416E-1,-3.9976984E-2,-7.058914E-1,-2.9350615E-1,2.750552E-1,-9.073477E-2,1.5799223E-1,-2.5242996E-1,1.18153775E-2,-1.6161439E-1,3.1199208E-2,-1.623451E-1,1.5659796E-1,2.2254075E-1,5.1994253E-2,-1.0265956E-1,-4.980181E-1,4.6799114E-1,-1.7232361E-1,-1.0422142E-1,3.6838734E-1,-4.9096357E-2,8.242588E-2,-4.2831466E-2,-2.1236861E-1,6.607541E-2,2.4794158E-1,-1.0791007E-1,3.0200208E-2,1.858386E-2,-1.4465499E-1,1.9130987E-1,4.1445317E-3],"categories":[],"categories_nodes":[],"categories_segments":[],"categories_sizes":[],"default_left":[0,0,0,0,0,0,0,0,0,0,0,0,0,0,0,0,0,0,0,0,0,0,0,0,0,0,0,0,0,0,0,0,0,0,0],"id":17,"left_children":[1,3,5,7,9,11,-1,13,15,-1,-1,-1,-1,17,19,-1,21,23,25,27,29,31,33,-1,-1,-1,-1,-1,-1,-1,-1,-1,-1,-1,-1],"loss_changes":[7.601057E0,3.0075815E0,3.219975E0,1.0458336E0,7.685995E-1,3.6846346E-1,0E0,1.4837792E0,1.28034E0,0E0,0E0,0E0,0E0,1.237975E0,2.0263026E0,0E0,9.8308474E-1,1.3315461E0,6.0380006E-1,7.0848227E-1,5.4614174E-1,8.8245726E-1,6.1553186E-1,0E0,0E0,0E0,0E0,0E0,0E0,0E0,0E0,0E0,0E0,0E0,0E0],"parents":[2147483647,0,0,1,1,2,2,3,3,4,4,5,5,7,7,8,8,13,13,14,14,16,16,17,17,18,18,19,19,20,20,21,21,22,22],"right_children":[2,4,6,8,10,12,-1,14,16,-1,-1,-1,-1,18,20,-1,22,24,26,28,30,32,34,-1,-1,-1,-1,-1,-1,-1,-1,-1,-1,-1,-1],"split_conditions":[3.6E1,3.5E1,1.7203695E-1,6.5198314E-1,2E0,2E0,2.750552E-1,1.3E1,4.0625E-1,-2.5242996E-1,1.18153775E-2,-1.6161439E-1,3.1199208E-2,1.1E1,2E1,2.2254075E-1,3E0,8E0,3E0,1.8E1,2.6E1,8E0,6E0,-4.9096357E-2,8.242588E-2,-4.2831466E-2,-2.1236861E-1,6.607541E-2,2.4794158E-1,-1.0791007E-1,3.0200208E-2,1.858386E-2,-1.4465499E-1,1.9130987E-1,4.1445317E-3],"split_indices":[0,1,4,4,3,3,0,0,5,0,0,0,0,1,0,0,2,1,0,0,0,1,0,0,0,0,0,0,0,0,0,0,0,0,0],"split_type":[0,0,0,0,0,0,0,0,0,0,0,0,0,0,0,0,0,0,0,0,0,0,0,0,0,0,0,0,0,0,0,0,0,0,0],"sum_hessian":[1.2075165E2,1.0793282E2,1.2818824E1,1.016522E2,6.280626E0,2.2054446E0,1.06133795E1,8.133914E1,2.0313059E1,5.2049837E0,1.075642E0,1.1443088E0,1.0611358E0,6.334303E1,1.799611E1,2.1996527E0,1.8113405E1,5.4889103E1,8.453922E0,9.0271845E0,8.968926E0,1.2575154E1,5.5382514E0,4.7740047E1,7.149059E0,3.7636619E0,4.6902604E0,6.292766E0,2.7344186E0,5.1300893E0,3.8388374E0,9.315695E0,3.259459E0,2.6937406E0,2.844511E0],"tree_param":{"num_deleted":"0","num_feature":"6","num_nodes":"35","size_leaf_vector":"1"}},{"base_weights":[6.7399684E-3,-6.1182182E-2,6.5996456E-1,-2.503022E-2,-6.3662696E-1,-7.6690204E-2,2.673306E-1,-5.6346294E-2,2.7797496E-1,-2.8545964E-1,1.5067217E-1,1.57662E-1,-6.903628E-2,2.2861062E-1,6.519442E-2,-1.20044135E-1,-2.825798E-2,-1.6101174E-1,2.389653E-1,3.4129862E-3,-6.184145E-2,1.17323205E-1,-4.693086E-2],"categories":[],"categories_nodes":[],"categories_segments":[],"categories_sizes":[],"default_left":[0,0,0,0,0,0,0,0,0,0,0,0,0,0,0,0,0,0,0,0,0,0,0],"id":18,"left_children":[1,3,5,7,9,-1,-1,11,13,-1,-1,-1,15,-1,17,-1,19,-1,21,-1,-1,-1,-1],"loss_changes":[5.1819715E0,2.18683E0,2.5556183E0,9.7088104E-1,2.7078886E0,0E0,0E0,7.1612716E-1,9.3890435E-1,0E0,0E0,0E0,1.217217E0,0E0,9.399805E-1,0E0,5.8107185E-1,0E0,4.6500188E-1,0E0,0E0,0E0,0E0],"parents":[2147483647,0,0,1,1,2,2,3,3,4,4,7,7,8,8,12,12,14,14,16,16,18,18],"right_children":[2,4,6,8,10,-1,-1,12,14,-1,-1,-1,16,-1,18,-1,20,-1,22,-1,-1,-1,-1],"split_conditions":[3.8E1,3.5E1,1.7203695E-1,1.5340476E0,3.8285643E-1,-7.6690204E-2,2.673306E-1,1E0,6.938776E-1,-2.8545964E-1,1.5067217E-1,1.57662E-1,2E0,2.2861062E-1,1.921928E0,-1.20044135E-1,4E0,-1.6101174E-1,8E0,3.4129862E-3,-6.184145E-2,1.17323205E-1,-4.693086E-2],"split_indices":[0,1,4,4,5,0,0,3,5,0,0,0,1,0,4,0,2,0,0,0,0,0,0],"split_type":[0,0,0,0,0,0,0,0,0,0,0,0,0,0,0,0,0,0,0,0,0,0,0],"sum_hessian":[1.1488409E2,1.0488455E2,9.999535E0,9.966656E1,5.2179923E0,1.9941558E0,8.005379E0,9.106852E1,8.598037E0,4.2165728E0,1.0014199E0,1.0811201E0,8.99874E1,1.8372055E0,6.7608314E0,8.900945E0,8.108646E1,1.0467074E0,5.714124E0,6.707671E1,1.4009741E1,4.134505E0,1.5796193E0],"tree_param":{"num_deleted":"0","num_feature":"6","num_nodes":"23","size_leaf_vector":"1"}},{"base_weights":[7.527263E-3,-4.5620933E-2,6.269779E-1,-1.6791282E-2,-5.6782854E-1,-5.1517777E-2,2.576605E-1,-4.0825788E-2,2.306214E-1,-2.2949573E-1,2.3399837E-2,-8.260782E-2,9.2325814E-2,2.0921272E-1,3.721944E-2,-5.4803457E-2,-1.6136129E-1,2.92627E-1,-1.5649249E-1,-1.1735263E-1,2.2754577E-1,-2.492318E-2,1.19393475E-1,3.6355004E-2,2.1109265E-1,-9.884261E-2,2.9625945E-2,2.2728981E-2,-1.2216639E-1,1.695338E-1,-3.8213763E-2],"categories":[],"categories_nodes":[],"categories_segments":[],"categories_sizes":[],"default_left":[0,0,0,0,0,0,0,0,0,0,0,0,0,0,0,0,0,0,0,0,0,0,0,0,0,0,0,0,0,0,0],"id":19,"left_children":[1,3,5,7,9,-1,-1,11,13,-1,-1,15,17,-1,19,21,-1,23,25,27,29,-1,-1,-1,-1,-1,-1,-1,-1,-1,-1],"loss_changes":[3.6776288E0,1.5412905E0,1.7821708E0,5.9603935E-1,7.420162E-1,0E0,0E0,5.1258993E-1,7.76121E-1,0E0,0E0,8.517284E-1,1.1497817E0,0E0,2.4259634E-1,8.87221E-1,0E0,8.0404854E-1,4.975009E-1,2.944759E-1,5.067943E-1,0E0,0E0,0E0,0E0,0E0,0E0,0E0,0E0,0E0,0E0],"parents":[2147483647,0,0,1,1,2,2,3,3,4,4,7,7,8,8,11,11,12,12,14,14,15,15,17,17,18,18,19,19,20,20],"right_children":[2,4,6,8,10,-1,-1,12,14,-1,-1,16,18,-1,20,22,-1,24,26,28,30,-1,-1,-1,-1,-1,-1,-1,-1,-1,-1],"split_conditions":[1.46E2,3.5E1,1.7203695E-1,1.5340476E0,1.7203695E-1,-5.1517777E-2,2.576605E-1,1.2E1,6.938776E-1,-2.2949573E-1,2.3399837E-2,1E1,2E1,2.0921272E-1,2E0,8E0,-1.6136129E-1,1.8E1,2.6E1,7E0,8E0,-2.492318E-2,1.19393475E-1,3.6355004E-2,2.1109265E-1,-9.884261E-2,2.9625945E-2,2.2728981E-2,-1.2216639E-1,1.695338E-1,-3.8213763E-2],"split_indices":[1,1,4,4,4,0,0,0,5,0,0,0,1,0,4,0,0,0,1,1,0,0,0,0,0,0,0,0,0,0,0],"split_type":[0,0,0,0,0,0,0,0,0,0,0,0,0,0,0,0,0,0,0,0,0,0,0,0,0,0,0,0,0,0,0],"sum_hessian":[1.09836205E2,1.0201019E2,7.826012E0,9.765129E1,4.358906E0,1.819282E0,6.00673E0,8.97661E1,7.8851933E0,3.1980937E0,1.1608125E0,6.861484E1,2.1151257E1,1.5466611E0,6.338532E0,6.57214E1,2.8934371E0,1.162054E1,9.530717E0,3.7093918E0,2.6291404E0,6.2627186E1,3.0942156E0,9.113805E0,2.5067346E0,5.507443E0,4.023274E0,2.6695302E0,1.0398617E0,1.0439978E0,1.5851426E0],"tree_param":{"num_deleted":"0","num_feature":"6","num_nodes":"31","size_leaf_vector":"1"}},{"base_weights":[1.02934735E-2,-3.337082E-2,5.75159E-1,-7.5942334E-3,-6.044505E-1,-4.8024323E-2,2.4975939E-1,-2.2100696E-2,3.400657E-1,-2.1398325E-1,-4.1698042E-2,-8.034042E-5,-2.099203E-1,1.5390985E-1,-2.4407176E-2,-2.0718167E-2,3.903461E-1,-1.9556912E-2,4.0789444E-2,2.4352567E-1,-1.4101516E-1],"categories":[],"categories_nodes":[],"categories_segments":[],"categories_sizes":[],"default_left":[0,0,0,0,0,0,0,0,0,0,0,0,0,0,0,0,0,0,0,0,0],"id":20,"left_children":[1,3,5,7,9,-1,-1,11,13,-1,-1,15,-1,-1,-1,17,19,-1,-1,-1,-1],"loss_changes":[2.6740854E0,1.4801466E0,1.6051898E0,4.993334E-1,1.2086201E-1,0E0,0E0,1.410818E0,3.3091044E-1,0E0,0E0,7.540225E-1,0E0,0E0,0E0,6.2815696E-1,2.0850396E0,0E0,0E0,0E0,0E0],"parents":[2147483647,0,0,1,1,2,2,3,3,4,4,7,7,8,8,11,11,15,15,16,16],"right_children":[2,4,6,8,10,-1,-1,12,14,-1,-1,16,-1,-1,-1,18,20,-1,-1,-1,-1],"split_conditions":[3.6E1,3.5E1,1.7203695E-1,1.6E1,1.21E2,-4.8024323E-2,2.4975939E-1,1.2E1,2.4E1,-2.1398325E-1,-4.1698042E-2,8E0,-2.099203E-1,1.5390985E-1,-2.4407176E-2,1.3E1,1.4E1,-1.9556912E-2,4.0789444E-2,2.4352567E-1,-1.4101516E-1],"split_indices":[0,1,4,2,1,0,0,2,1,0,0,2,0,0,0,1,1,0,0,0,0],"split_type":[0,0,0,0,0,0,0,0,0,0,0,0,0,0,0,0,0,0,0,0,0],"sum_hessian":[1.06640396E2,9.986195E1,6.7784395E0,9.651873E1,3.3432279E0,1.8555816E0,4.9228578E0,9.355162E1,2.9671059E0,2.278156E0,1.065072E0,9.15759E1,1.9757279E0,1.949556E0,1.01755E0,8.787764E1,3.6982515E0,6.8904366E1,1.8973278E1,2.5203624E0,1.177889E0],"tree_param":{"num_deleted":"0","num_feature":"6","num_nodes":"21","size_leaf_vector":"1"}},{"base_weights":[8.523504E-3,-2.448611E-2,5.438604E-1,1.2108433E-2,-2.4943943E-1,-1.9497154E-2,2.3393615E-1,-9.080035E-3,3.5631713E-1,-4.6904165E-1,3.624939E-1,2.1416068E-2,-3.3192173E-1,2.1350871E-1,6.1892416E-2,-6.612929E-1,-1.351326E-1,2.0678593E-1,-8.2371034E-2,-2.6183415E-2,5.715551E-1,-1.7817363E-1,1.4914317E-1,4.5299374E-2,-6.5305945E-3,-8.896663E-2,-2.4660154E-1,5.2471682E-2,-3.2405558E-1,-1.3826371E-2,1.3175935E-1,2.682488E-1,-1.927809E-2,-1.19689174E-1,-2.0924654E-2],"categories":[],"categories_nodes":[],"categories_segments":[],"categories_sizes":[],"default_left":[0,0,0,0,0,0,0,0,0,0,0,0,0,0,0,0,0,0,0,0,0,0,0,0,0,0,0,0,0,0,0,0,0,0,0],"id":21,"left_children":[1,3,5,7,9,-1,-1,11,13,15,17,19,21,-1,23,25,27,-1,-1,29,31,-1,-1,-1,-1,-1,-1,-1,33,-1,-1,-1,-1,-1,-1],"loss_changes":[1.8767638E0,8.285565E-1,9.3662834E-1,6.392481E-1,2.0617754E0,0E0,0E0,8.2549775E-1,4.876594E-1,6.036563E-1,1.080677E0,2.028406E0,1.8667365E0,0E0,3.216958E-2,1.427691E-1,3.6134177E-1,0E0,0E0,6.84618E-1,1.322361E0,0E0,0E0,0E0,0E0,0E0,0E0,0E0,4.0418506E-2,0E0,0E0,0E0,0E0,0E0,0E0],"parents":[2147483647,0,0,1,1,2,2,3,3,4,4,7,7,8,8,9,9,10,10,11,11,12,12,14,14,15,15,16,16,19,19,20,20,28,28],"right_children":[2,4,6,8,10,-1,-1,12,14,16,18,20,22,-1,24,26,28,-1,-1,30,32,-1,-1,-1,-1,-1,-1,-1,34,-1,-1,-1,-1,-1,-1],"split_conditions":[1.53E2,2.1E1,1.7203695E-1,1.8E1,1.7203695E-1,-1.9497154E-2,2.3393615E-1,1.6E1,1.9E1,2.6E1,4E0,1.3E1,1.6E1,2.1350871E-1,2E1,2.4E1,2.8E1,2.0678593E-1,-8.2371034E-2,8E0,1.5E1,-1.7817363E-1,1.4914317E-1,4.5299374E-2,-6.5305945E-3,-8.896663E-2,-2.4660154E-1,5.2471682E-2,3.2E1,-1.3826371E-2,1.3175935E-1,2.682488E-1,-1.927809E-2,-1.19689174E-1,-2.0924654E-2],"split_indices":[1,1,4,0,4,0,0,1,0,0,3,1,2,0,0,1,0,0,0,2,1,0,0,0,0,0,0,0,0,0,0,0,0,0,0],"split_type":[0,0,0,0,0,0,0,0,0,0,0,0,0,0,0,0,0,0,0,0,0,0,0,0,0,0,0,0,0,0,0,0,0,0,0],"sum_hessian":[1.0445069E2,9.928302E1,5.1676683E0,8.62056E1,1.3077422E1,1.6455541E0,3.522114E0,8.212392E1,4.081684E0,9.795615E0,3.2818067E0,7.588899E1,6.234922E0,1.2072542E0,2.87443E0,5.5942273E0,4.2013874E0,2.11494E0,1.1668669E0,7.072231E1,5.166676E0,4.953287E0,1.281635E0,1.0021675E0,1.8722625E0,2.5812712E0,3.0129564E0,1.6188755E0,2.5825121E0,6.868558E1,2.0367343E0,3.1580052E0,2.008671E0,1.5554969E0,1.0270151E0],"tree_param":{"num_deleted":"0","num_feature":"6","num_nodes":"35","size_leaf_vector":"1"}},{"base_weights":[1.2290766E-2,-1.4053891E-2,4.883493E-1,4.2121783E-3,-4.4664687E-1,-1.5894307E-2,2.2102322E-1,-1.5400619E-2,2.1150142E-1,-1.9744919E-1,1.6644273E-2,1.1739971E-2,-1.6164628E-1,1.9286571E-1,3.8800925E-2,-4.1216876E-2,2.1914713E-1,-3.293311E-2,-1.7528504E-1,5.380646E-2,-1.5730323E-1,-5.3322256E-2,1.9168539E-2,8.533928E-2,-8.8567205E-2,-9.0017855E-2,4.284339E-2,-1.6768482E-1,7.2552614E-2],"categories":[],"categories_nodes":[],"categories_segments":[],"categories_sizes":[],"default_left":[0,0,0,0,0,0,0,0,0,0,0,0,0,0,0,0,0,0,0,0,0,0,0,0,0,0,0,0,0],"id":22,"left_children":[1,3,5,7,9,-1,-1,11,13,-1,-1,15,17,-1,19,21,23,25,-1,-1,27,-1,-1,-1,-1,-1,-1,-1,-1],"loss_changes":[1.2987025E0,7.807995E-1,7.690687E-1,3.9180773E-1,4.616694E-1,0E0,0E0,3.521522E-1,5.955584E-1,0E0,0E0,8.367873E-1,7.358506E-1,0E0,2.2148567E-1,8.849443E-1,6.0429126E-1,5.921165E-1,0E0,0E0,6.899054E-1,0E0,0E0,0E0,0E0,0E0,0E0,0E0,0E0],"parents":[2147483647,0,0,1,1,2,2,3,3,4,4,7,7,8,8,11,11,12,12,14,14,15,15,16,16,17,17,20,20],"right_children":[2,4,6,8,10,-1,-1,12,14,-1,-1,16,18,-1,20,22,24,26,-1,-1,28,-1,-1,-1,-1,-1,-1,-1,-1],"split_conditions":[1.53E2,3.5E1,1.7203695E-1,1.5340476E0,1.7203695E-1,-1.5894307E-2,2.2102322E-1,4E0,6.938776E-1,-1.9744919E-1,1.6644273E-2,3E0,5E0,1.9286571E-1,8E0,5E0,2E0,8E0,-1.7528504E-1,5.380646E-2,3E0,-5.3322256E-2,1.9168539E-2,8.533928E-2,-8.8567205E-2,-9.0017855E-2,4.284339E-2,-1.6768482E-1,7.2552614E-2],"split_indices":[1,1,4,4,4,0,0,2,5,0,0,2,0,0,1,0,0,1,0,0,2,0,0,0,0,0,0,0,0],"split_type":[0,0,0,0,0,0,0,0,0,0,0,0,0,0,0,0,0,0,0,0,0,0,0,0,0,0,0,0,0],"sum_hessian":[1.0200435E2,9.757511E1,4.4292417E0,9.45721E1,3.0030072E0,1.6405889E0,2.788653E0,8.724323E1,7.328867E0,1.8942995E0,1.1087077E0,7.436259E1,1.2880648E1,1.316891E0,6.011976E0,5.9875877E1,1.4486711E1,1.0699931E1,2.1807165E0,3.5517423E0,2.4602337E0,2.5745523E1,3.4130352E1,1.3251006E1,1.2357038E0,3.9653504E0,6.734581E0,1.0267174E0,1.4335163E0],"tree_param":{"num_deleted":"0","num_feature":"6","num_nodes":"29","size_leaf_vector":"1"}},{"base_weights":[8.465605E-3,-4.5770627E-2,2.0337166E-1,-1.637312E-2,-3.629103E-1,7.8355455E-1,2.1520148E-3,-3.5716273E-2,1.3586755E-1,-5.4471695E-1,9.874717E-2,2.6356712E-1,7.152197E-2,-1.8945369E-1,3.4860262E-1,1.5417132E-1,-5.1178318E-2,-2.8773582E-2,-2.3239036E-1,1.1178151E-2,-6.1074215E-1,1.416496E-1,1.8463498E-1,-3.35023E-2,-1.22799955E-1,-1.1084372E-1,1.3725069E-1,-2.533812E-1,-3.618122E-2,1.3614008E-1,-8.01141E-2,-1.700194E-2,1.8625757E-1,8.151552E-2,-1.0256313E-1],"categories":[],"categories_nodes":[],"categories_segments":[],"categories_sizes":[],"default_left":[0,0,0,0,0,0,0,0,0,0,0,0,0,0,0,0,0,0,0,0,0,0,0,0,0,0,0,0,0,0,0,0,0,0,0],"id":23,"left_children":[1,3,5,7,9,11,13,15,-1,17,-1,-1,-1,19,21,-1,23,-1,-1,25,27,29,-1,31,-1,33,-1,-1,-1,-1,-1,-1,-1,-1,-1],"loss_changes":[1.0602434E0,7.267719E-1,2.5463724E0,6.785405E-1,1.012218E0,8.1487656E-2,1.2083653E0,6.2975687E-1,0E0,5.055423E-1,0E0,0E0,0E0,9.981405E-1,2.7068508E-1,0E0,4.2928588E-1,0E0,0E0,5.3687143E-1,3.3388257E-1,7.5250375E-1,0E0,1.0627791E0,0E0,7.836329E-1,0E0,0E0,0E0,0E0,0E0,0E0,0E0,0E0,0E0],"parents":[2147483647,0,0,1,1,2,2,3,3,4,4,5,5,6,6,7,7,9,9,13,13,14,14,16,16,19,19,20,20,21,21,23,23,25,25],"right_children":[2,4,6,8,10,12,14,16,-1,18,-1,-1,-1,20,22,-1,24,-1,-1,26,28,30,-1,32,-1,34,-1,-1,-1,-1,-1,-1,-1,-1,-1],"split_conditions":[6.5198314E-1,1.2E1,1E0,8E0,1.68E2,1E0,2E0,1E0,1.3586755E-1,1.8E1,9.874717E-2,2.6356712E-1,7.152197E-2,8E0,1.1E1,1.5417132E-1,6.5002245E-1,-2.8773582E-2,-2.3239036E-1,6E0,1.0640672E0,6E0,1.8463498E-1,1.3875E-1,-1.22799955E-1,3E0,1.3725069E-1,-2.533812E-1,-3.618122E-2,1.3614008E-1,-8.01141E-2,-1.700194E-2,1.8625757E-1,8.151552E-2,-1.0256313E-1],"split_indices":[4,2,4,2,1,2,2,3,0,1,0,0,0,1,2,0,4,0,0,0,4,0,0,5,0,1,0,0,0,0,0,0,0,0,0],"split_type":[0,0,0,0,0,0,0,0,0,0,0,0,0,0,0,0,0,0,0,0,0,0,0,0,0,0,0,0,0,0,0,0,0,0,0],"sum_hessian":[9.841709E1,7.7591095E1,2.0825998E1,7.197128E1,5.619806E0,4.6176777E0,1.620832E1,7.000938E1,1.9619052E0,4.619241E0,1.0005646E0,3.411555E0,1.2061226E0,1.0728207E1,5.4801135E0,1.0335584E0,6.897582E1,2.0448327E0,2.5744088E0,7.926707E0,2.8014998E0,3.9486053E0,1.5315084E0,6.677387E1,2.2019498E0,6.815146E0,1.1115608E0,1.4069834E0,1.3945165E0,2.1761584E0,1.7724468E0,6.537244E1,1.4014373E0,2.4997594E0,4.315387E0],"tree_param":{"num_deleted":"0","num_feature":"6","num_nodes":"35","size_leaf_vector":"1"}},{"base_weights":[1.2834253E-2,-1.6225594E-3,1.7949553E-1,-4.1272E-2,1.4839658E-1,-6.5757073E-3,-5.023816E-1,2.0498975E-1,-2.113459E-3,-2.2058949E-2,1.0971953E-1,-2.317918E-2,-2.2126207E-1,8.4538326E-2,-1.995783E-1,1.6843745E-3,-2.563099E-1,-8.555779E-3,1.3947894E-1,-1.5702328E-2,6.1584182E-2,-1.0572757E-1,-3.390041E-2,6.2486004E-2,-4.603083E-2],"categories":[],"categories_nodes":[],"categories_segments":[],"categories_sizes":[],"default_left":[0,0,0,0,0,0,0,0,0,0,0,0,0,0,0,0,0,0,0,0,0,0,0,0,0],"id":24,"left_children":[1,3,-1,5,7,9,11,-1,13,15,-1,-1,-1,17,-1,19,21,23,-1,-1,-1,-1,-1,-1,-1],"loss_changes":[8.241254E-1,5.765829E-1,0E0,1.2228227E0,1.6330312E0,4.2477825E-1,4.778427E-1,0E0,1.022351E0,3.9168686E-1,0E0,0E0,0E0,5.619689E-1,0E0,7.2422135E-1,4.9438387E-2,4.6050397E-1,0E0,0E0,0E0,0E0,0E0,0E0,0E0],"parents":[2147483647,0,0,1,1,3,3,4,4,5,5,6,6,8,8,9,9,13,13,15,15,16,16,17,17],"right_children":[2,4,-1,6,8,10,12,-1,14,16,-1,-1,-1,18,-1,20,22,24,-1,-1,-1,-1,-1,-1,-1],"split_conditions":[4.18E2,6.5198314E-1,1.7949553E-1,1.2E1,1E0,8E0,1.8E1,2.0498975E-1,1.3E1,4E0,1.0971953E-1,-2.317918E-2,-2.2126207E-1,1.1E1,-1.995783E-1,3E0,6E0,4E0,1.3947894E-1,-1.5702328E-2,6.1584182E-2,-1.0572757E-1,-3.390041E-2,6.2486004E-2,-4.603083E-2],"split_indices":[1,4,0,2,4,2,1,0,0,2,0,0,0,1,0,2,2,0,0,0,0,0,0,0,0],"split_type":[0,0,0,0,0,0,0,0,0,0,0,0,0,0,0,0,0,0,0,0,0,0,0,0,0],"sum_hessian":[9.625093E1,9.490476E1,1.346166E0,7.5638664E1,1.9266098E1,7.128879E1,4.3498793E0,3.4533248E0,1.5812774E1,6.934564E1,1.9431432E0,2.0223868E0,2.3274925E0,1.475703E1,1.0557438E0,6.3865173E1,5.4804683E0,1.26409E1,2.1161299E0,5.1059223E1,1.2805949E1,2.4069498E0,3.0735183E0,4.887752E0,7.753148E0],"tree_param":{"num_deleted":"0","num_feature":"6","num_nodes":"25","size_leaf_vector":"1"}},{"base_weights":[1.0989491E-2,-1.466481E-3,1.6560948E-1,-2.0857662E-2,2.1379761E-1,5.6661246E-3,-1.7318544E-1,1.7185788E-1,7.334393E-2,-2.9540343E-2,2.051095E-1,-3.8501686E-1,3.706564E-1,6.2361486E-2,-4.588381E-2,-4.6148486E-2,1.4339443E-1,2.2468649E-1,4.9992617E-2,-2.2868362E-1,-2.014159E-1,2.0513174E-1,-8.871973E-2,-3.827044E-3,-1.9602117E-1,-5.3998414E-2,9.587925E-2,-1.2348696E-1,-2.9142508E-3],"categories":[],"categories_nodes":[],"categories_segments":[],"categories_sizes":[],"default_left":[0,0,0,0,0,0,0,0,0,0,0,0,0,0,0,0,0,0,0,0,0,0,0,0,0,0,0,0,0],"id":25,"left_children":[1,3,-1,5,7,9,11,-1,13,15,17,19,21,-1,-1,23,-1,-1,25,27,-1,-1,-1,-1,-1,-1,-1,-1,-1],"loss_changes":[6.407742E-1,3.9609256E-1,0E0,3.5240644E-1,3.534699E-1,5.3302985E-1,1.6323761E0,0E0,2.3830849E-1,5.671007E-1,9.2308545E-1,2.8504682E-1,1.0648625E0,0E0,0E0,1.2797947E0,0E0,0E0,6.7329043E-1,3.1060278E-1,0E0,0E0,0E0,0E0,0E0,0E0,0E0,0E0,0E0],"parents":[2147483647,0,0,1,1,3,3,4,4,5,5,6,6,8,8,9,9,10,10,11,11,12,12,15,15,18,18,19,19],"right_children":[2,4,-1,6,8,10,12,-1,14,16,18,20,22,-1,-1,24,-1,-1,26,28,-1,-1,-1,-1,-1,-1,-1,-1,-1],"split_conditions":[4.18E2,1.5340476E0,1.6560948E-1,2.1E1,6.938776E-1,1.3E1,1.7203695E-1,1.7185788E-1,8E0,1.6E1,1.5E1,3.5E1,1.032256E0,6.2361486E-2,-4.588381E-2,1.4E1,1.4339443E-1,2.2468649E-1,1.8E1,2.6E1,-2.014159E-1,2.0513174E-1,-8.871973E-2,-3.827044E-3,-1.9602117E-1,-5.3998414E-2,9.587925E-2,-1.2348696E-1,-2.9142508E-3],"split_indices":[1,4,0,1,5,0,4,0,1,2,0,1,4,0,0,1,0,0,0,0,0,0,0,0,0,0,0,0,0],"split_type":[0,0,0,0,0,0,0,0,0,0,0,0,0,0,0,0,0,0,0,0,0,0,0,0,0,0,0,0,0],"sum_hessian":[9.396146E1,9.2821785E1,1.139671E0,8.597976E1,6.8420267E0,7.4048935E1,1.1930827E1,1.0581888E0,5.783838E0,6.3662827E1,1.0386107E1,8.796537E0,3.1342897E0,3.6784308E0,2.105407E0,6.2525803E1,1.1370236E0,1.4553324E0,8.930775E0,6.8536124E0,1.9429249E0,2.1146114E0,1.0196785E0,6.023464E1,2.2911663E0,4.998858E0,3.9319167E0,3.2546618E0,3.5989504E0],"tree_param":{"num_deleted":"0","num_feature":"6","num_nodes":"29","size_leaf_vector":"1"}},{"base_weights":[1.2061321E-2,-6.8276464E-3,3.2225466E-1,6.7899902E-3,-1.7130733E-1,-1.3265361E-1,2.075925E-1,2.6911607E-2,-1.2202066E-1,1.2223634E-1,-1.6682485E-1,-1.5480269E-2,2.7787906E-1,-2.2988956E-1,2.2945665E-1,1.2541784E-2,-3.6445308E-1,2.6502228E-1,1.9143138E-2,-1.407116E-1,-1.0007189E-1,1.7410485E-1,-8.7210976E-2,-3.5016832E-4,1.2777182E-1,-2.216694E-1,1.5626784E-2,-5.4926686E-2,1.4506592E-1,-7.7761345E-2,4.5489088E-2],"categories":[],"categories_nodes":[],"categories_segments":[],"categories_sizes":[],"default_left":[0,0,0,0,0,0,0,0,0,0,0,0,0,0,0,0,0,0,0,0,0,0,0,0,0,0,0,0,0,0,0],"id":26,"left_children":[1,3,5,7,-1,9,-1,11,13,-1,-1,15,17,19,21,23,25,-1,27,29,-1,-1,-1,-1,-1,-1,-1,-1,-1,-1,-1],"loss_changes":[5.481135E-1,6.861513E-1,9.947465E-1,2.3058678E-1,0E0,9.6897036E-1,0E0,8.1998104E-1,5.0881946E-1,0E0,0E0,6.552331E-1,1.7271316E0,4.2787492E-2,7.756467E-1,3.5500264E-1,8.1507045E-1,0E0,9.1702807E-1,2.7993244E-1,0E0,0E0,0E0,0E0,0E0,0E0,0E0,0E0,0E0,0E0,0E0],"parents":[2147483647,0,0,1,1,2,2,3,3,5,5,7,7,8,8,11,11,12,12,13,13,14,14,15,15,16,16,18,18,19,19],"right_children":[2,4,6,8,-1,10,-1,12,14,-1,-1,16,18,20,22,24,26,-1,28,30,-1,-1,-1,-1,-1,-1,-1,-1,-1,-1,-1],"split_conditions":[1.6E1,1.3E1,2E0,2E1,-1.7130733E-1,2E1,2.075925E-1,1.3E1,1.7203695E-1,1.2223634E-1,-1.6682485E-1,1.1E1,1.5E1,2.8E1,6.6319686E-1,8E0,1.2E1,2.6502228E-1,1.8E1,2.6E1,-1.0007189E-1,1.7410485E-1,-8.7210976E-2,-3.5016832E-4,1.2777182E-1,-2.216694E-1,1.5626784E-2,-5.4926686E-2,1.4506592E-1,-7.7761345E-2,4.5489088E-2],"split_indices":[2,2,3,1,0,1,0,1,4,0,0,1,1,0,4,2,0,0,0,0,0,0,0,0,0,0,0,0,0,0,0],"split_type":[0,0,0,0,0,0,0,0,0,0,0,0,0,0,0,0,0,0,0,0,0,0,0,0,0,0,0,0,0,0,0],"sum_hessian":[9.217146E1,8.780277E1,4.3686886E0,8.6698166E1,1.10461E0,2.2461746E0,2.122514E0,7.566894E1,1.102923E1,1.003667E0,1.2425076E0,6.5537125E1,1.013181E1,8.703918E0,2.3253117E0,6.1558147E1,3.9789767E0,2.3103943E0,7.821416E0,5.946484E0,2.7574346E0,1.3194886E0,1.005823E0,6.0547306E1,1.0108436E0,1.6878359E0,2.291141E0,5.870713E0,1.9507028E0,4.312059E0,1.6344249E0],"tree_param":{"num_deleted":"0","num_feature":"6","num_nodes":"31","size_leaf_vector":"1"}},{"base_weights":[1.1838479E-2,-3.5993087E-3,2.9226288E-1,8.474276E-3,-1.362057E-1,-1.1862044E-1,1.9316952E-1,4.7051724E-2,-5.1066346E-2,9.6784905E-2,-1.5158914E-1,-1.0900671E-1,1.2382509E-1,8.5567206E-2,-4.6342576E-1,1.3324258E-2,-1.4879128E-1,6.7512386E-2,3.6097598E-1,-7.1601644E-2,1.5591243E-1,-8.3637494E-1,5.2303642E-2,-3.2538936E-2,4.9546696E-2,3.2624636E-2,-1.0469143E-1,2.1814208E-1,1.2213078E-2,3.0481536E-2,1.6036722E-1,-2.962218E-1,-8.997031E-2],"categories":[],"categories_nodes":[],"categories_segments":[],"categories_sizes":[],"default_left":[0,0,0,0,0,0,0,0,0,0,0,0,0,0,0,0,0,0,0,0,0,0,0,0,0,0,0,0,0,0,0,0,0],"id":27,"left_children":[1,3,5,7,-1,9,-1,11,13,-1,-1,15,17,19,21,23,-1,25,27,-1,29,31,-1,-1,-1,-1,-1,-1,-1,-1,-1,-1,-1],"loss_changes":[3.9731753E-1,4.8102763E-1,7.6820564E-1,2.0094281E-1,0E0,6.838365E-1,0E0,6.4817286E-1,1.9814531E0,0E0,0E0,8.5863817E-1,4.5604724E-1,6.4691204E-1,2.2231069E0,2.8879958E-1,0E0,5.5834734E-1,7.5293726E-1,0E0,4.0980542E-1,1.6436195E-1,0E0,0E0,0E0,0E0,0E0,0E0,0E0,0E0,0E0,0E0,0E0],"parents":[2147483647,0,0,1,1,2,2,3,3,5,5,7,7,8,8,11,11,12,12,13,13,14,14,15,15,17,17,18,18,20,20,21,21],"right_children":[2,4,6,8,-1,10,-1,12,14,-1,-1,16,18,20,22,24,-1,26,28,-1,30,32,-1,-1,-1,-1,-1,-1,-1,-1,-1,-1,-1],"split_conditions":[1.6E1,1.2E1,2E0,1E0,-1.362057E-1,2.1E1,1.9316952E-1,5E0,3E0,9.6784905E-2,-1.5158914E-1,4E0,6.5198314E-1,2E0,1.921928E0,2E0,-1.4879128E-1,6.5002245E-1,5E-1,-7.1601644E-2,8E0,4.861111E-1,5.2303642E-2,-3.2538936E-2,4.9546696E-2,3.2624636E-2,-1.0469143E-1,2.1814208E-1,1.2213078E-2,3.0481536E-2,1.6036722E-1,-2.962218E-1,-8.997031E-2],"split_indices":[2,2,3,2,0,1,0,0,0,0,0,0,4,2,4,0,0,4,5,0,2,5,0,0,0,0,0,0,0,0,0,0,0],"split_type":[0,0,0,0,0,0,0,0,0,0,0,0,0,0,0,0,0,0,0,0,0,0,0,0,0,0,0,0,0,0,0,0,0],"sum_hessian":[9.053464E1,8.674629E1,3.7883494E0,8.543731E1,1.3089774E0,2.052583E0,1.7357666E0,5.197289E1,3.3464424E1,1.0360336E0,1.0165492E0,1.6998968E1,3.4973923E1,2.5731043E1,7.733379E0,1.3649514E1,3.349453E0,2.9300943E1,5.6729784E0,4.160652E0,2.157039E1,4.683316E0,3.050063E0,7.732631E0,5.916883E0,2.7333519E1,1.9674246E0,2.0540857E0,3.618893E0,1.9973957E1,1.5964344E0,2.998589E0,1.684727E0],"tree_param":{"num_deleted":"0","num_feature":"6","num_nodes":"33","size_leaf_vector":"1"}},{"base_weights":[5.5797966E-3,-7.4838693E-3,2.615943E-1,2.794363E-3,-1.1842709E-1,-3.2940384E-2,1.7914687E-1,3.1336885E-2,-1.10599376E-1,-1.1104002E-2,6.2370694E-1,-1.07272705E-2,-2.5136462E-1,1.4592193E-2,-3.294266E-1,2.4717425E-1,3.2621115E-2,-1.3117845E-1,1.9448015E-1,-2.90686E-3,5.2840017E-2,-1.9284272E-1,5.6001106E-3,-9.179914E-2,-1.789272E-2],"categories":[],"categories_nodes":[],"categories_segments":[],"categories_sizes":[],"default_left":[0,0,0,0,0,0,0,0,0,0,0,0,0,0,0,0,0,0,0,0,0,0,0,0,0],"id":28,"left_children":[1,3,5,7,-1,-1,-1,9,11,13,15,17,-1,19,21,-1,-1,23,-1,-1,-1,-1,-1,-1,-1],"loss_changes":[2.9937854E-1,3.417663E-1,6.0710347E-1,2.765126E-1,0E0,0E0,0E0,1.7209661E0,1.2393074E0,5.3323317E-1,3.8215637E-1,1.3648868E0,0E0,2.3993753E-1,5.4301375E-1,0E0,0E0,1.6263112E-1,0E0,0E0,0E0,0E0,0E0,0E0,0E0],"parents":[2147483647,0,0,1,1,2,2,3,3,7,7,8,8,9,9,10,10,11,11,13,13,14,14,17,17],"right_children":[2,4,6,8,-1,-1,-1,10,12,14,16,18,-1,20,22,-1,-1,24,-1,-1,-1,-1,-1,-1,-1],"split_conditions":[1.6E1,1.2E1,2E0,1.6E1,-1.1842709E-1,-3.2940384E-2,1.7914687E-1,1.3E1,3.785673E-1,1.1E1,1.5E1,1.3875E-1,-2.5136462E-1,7E0,1.2E1,2.4717425E-1,3.2621115E-2,1.8E1,1.9448015E-1,-2.90686E-3,5.2840017E-2,-1.9284272E-1,5.6001106E-3,-9.179914E-2,-1.789272E-2],"split_indices":[2,2,3,1,0,0,0,1,5,1,0,5,0,0,0,0,0,0,0,0,0,0,0,0,0],"split_type":[0,0,0,0,0,0,0,0,0,0,0,0,0,0,0,0,0,0,0,0,0,0,0,0,0],"sum_hessian":[8.792866E1,8.458339E1,3.3452735E0,8.33637E1,1.219689E0,1.9071969E0,1.4380767E0,6.717789E1,1.618581E1,6.36023E1,3.575589E0,1.51237335E1,1.0620756E0,5.973447E1,3.8678315E0,2.1426532E0,1.4329358E0,1.3463764E1,1.6599692E0,5.274607E1,6.9883976E0,1.5898565E0,2.2779748E0,2.9578629E0,1.0505901E1],"tree_param":{"num_deleted":"0","num_feature":"6","num_nodes":"25","size_leaf_vector":"1"}},{"base_weights":[4.8885806E-3,-6.2740357E-3,2.3554654E-1,4.304835E-3,-9.699566E-2,-2.6751028E-2,1.6578229E-1,1.3341343E-2,-1.02628656E-1,-9.995065E-3,9.389287E-2,1.8638207E-2,-2.2403117E-1,2.1854919E-1,-1.3008571E-2,6.004997E-4,9.35847E-2,-9.8185025E-2,4.435331E-3,-4.804032E-2,2.2949232E-2],"categories":[],"categories_nodes":[],"categories_segments":[],"categories_sizes":[],"default_left":[0,0,0,0,0,0,0,0,0,0,0,0,0,0,0,0,0,0,0,0,0],"id":29,"left_children":[1,3,5,7,-1,-1,-1,9,-1,11,13,15,17,-1,19,-1,-1,-1,-1,-1,-1],"loss_changes":[2.2800659E-1,2.8612357E-1,4.7007504E-1,2.6481125E-1,0E0,0E0,0E0,1.5505853E-1,0E0,3.993137E-1,1.2654191E0,2.8137478E-1,1.9432229E-1,0E0,2.3383476E-1,0E0,0E0,0E0,0E0,0E0,0E0],"parents":[2147483647,0,0,1,1,2,2,3,3,7,7,9,9,10,10,11,11,12,12,14,14],"right_children":[2,4,6,8,-1,-1,-1,10,-1,12,14,16,18,-1,20,-1,-1,-1,-1,-1,-1],"split_conditions":[1.6E1,3.4E1,2E0,1.2E1,-9.699566E-2,-2.6751028E-2,1.6578229E-1,1.3E1,-1.02628656E-1,1E1,1.5E1,9E0,1.2E1,2.1854919E-1,1.8E1,6.004997E-4,9.35847E-2,-9.8185025E-2,4.435331E-3,-4.804032E-2,2.2949232E-2],"split_indices":[2,0,3,2,0,0,0,1,0,1,1,1,0,0,0,0,0,0,0,0,0],"split_type":[0,0,0,0,0,0,0,0,0,0,0,0,0,0,0,0,0,0,0,0,0],"sum_hessian":[8.6981E1,8.389379E1,3.0872128E0,8.213945E1,1.7543347E0,1.8802863E0,1.2069265E0,8.0988205E1,1.1512449E0,6.347494E1,1.751327E1,5.6790546E1,6.6843925E0,1.6865652E0,1.5826704E1,5.4695076E1,2.0954719E0,4.4081006E0,2.276292E0,5.6879783E0,1.0138725E1],"tree_param":{"num_deleted":"0","num_feature":"6","num_nodes":"21","size_leaf_vector":"1"}},{"base_weights":[5.348829E-3,-6.32813E-3,1.8554546E-1,3.485095E-2,-7.1165636E-2,-6.477595E-2,1.5814276E-1,-7.8372285E-3,2.1783547E-1,8.523231E-2,-3.994465E-1,1.14863105E-1,-1.8247995E-1,1.2876758E-2,-9.127789E-2,2.1882403E-1,-5.293849E-3,5.752775E-2,7.854616E-2,-2.7865323E-1,-4.0743805E-2,-1.17216855E-1,7.852739E-2,1.3877802E-1,-7.6593444E-2,1.1921093E-1,-5.78415E-2,-6.708861E-2,1.5357251E-1,-1.02528585E-2,-1.1969968E-1,1.1477068E-1,-1.0373241E-2,-1.7065197E-2,1.2472939E-1,-2.7629614E-3,5.135425E-2,9.4632015E-2,-4.7802877E-2],"categories":[],"categories_nodes":[],"categories_segments":[],"categories_sizes":[],"default_left":[0,0,0,0,0,0,0,0,0,0,0,0,0,0,0,0,0,0,0,0,0,0,0,0,0,0,0,0,0,0,0,0,0,0,0,0,0,0,0],"id":30,"left_children":[1,3,5,7,9,11,-1,13,15,17,19,-1,-1,21,-1,-1,23,25,-1,-1,27,29,31,33,-1,35,-1,-1,37,-1,-1,-1,-1,-1,-1,-1,-1,-1,-1],"loss_changes":[1.8544702E-1,2.2465555E-1,4.9270064E-1,4.044784E-1,1.7104046E0,1.2025087E0,0E0,2.6655686E-1,1.12118E0,9.716196E-2,1.996259E0,0E0,0E0,3.5886222E-1,0E0,0E0,3.16695E-1,3.4894606E-1,0E0,0E0,2.984263E-1,3.1704444E-1,9.695049E-1,3.2723656E-1,0E0,1.18734896E-1,0E0,0E0,2.6278463E-1,0E0,0E0,0E0,0E0,0E0,0E0,0E0,0E0,0E0,0E0],"parents":[2147483647,0,0,1,1,2,2,3,3,4,4,5,5,7,7,8,8,9,9,10,10,13,13,16,16,17,17,20,20,21,21,22,22,23,23,25,25,28,28],"right_children":[2,4,6,8,10,12,-1,14,16,18,20,-1,-1,22,-1,-1,24,26,-1,-1,28,30,32,34,-1,36,-1,-1,38,-1,-1,-1,-1,-1,-1,-1,-1,-1,-1],"split_conditions":[1.1E1,1E0,2E0,6.5198314E-1,2E0,1.8E1,1.5814276E-1,6.5002245E-1,5E-1,8E0,4.861111E-1,1.14863105E-1,-1.8247995E-1,5E0,-9.127789E-2,2.1882403E-1,8E0,5E0,7.854616E-2,-2.7865323E-1,2E0,4E0,1E1,5E0,-7.6593444E-2,4E0,-5.78415E-2,-6.708861E-2,6E0,-1.02528585E-2,-1.1969968E-1,1.1477068E-1,-1.0373241E-2,-1.7065197E-2,1.2472939E-1,-2.7629614E-3,5.135425E-2,9.4632015E-2,-4.7802877E-2],"split_indices":[2,2,3,4,0,1,0,4,5,1,5,0,0,0,0,0,0,1,0,0,2,0,0,0,0,1,0,0,0,0,0,0,0,0,0,0,0,0,0],"split_type":[0,0,0,0,0,0,0,0,0,0,0,0,0,0,0,0,0,0,0,0,0,0,0,0,0,0,0,0,0,0,0,0,0,0,0,0,0,0,0],"sum_hessian":[8.657597E1,8.221333E1,4.3626413E0,5.0562786E1,3.1650547E1,2.9853547E0,1.3772866E0,4.1774456E1,8.78833E0,2.1938894E1,9.711653E0,1.7990589E0,1.1862957E0,3.994001E1,1.8344473E0,1.9799043E0,6.808426E0,2.01097E1,1.8291951E0,3.2805467E0,6.431106E0,1.3132037E1,2.6807972E1,4.6016607E0,2.2067652E0,1.6554405E1,3.555294E0,3.2352931E0,3.195813E0,1.1008993E1,2.1230443E0,6.62273E0,2.0185242E1,3.1623936E0,1.4392669E0,5.0063043E0,1.1548101E1,2.1009486E0,1.0948644E0],"tree_param":{"num_deleted":"0","num_feature":"6","num_nodes":"39","size_leaf_vector":"1"}},{"base_weights":[3.0060094E-3,-6.517248E-3,2.2428957E-1,2.684018E-3,-1.0598009E-1,1.14120424E-1,-7.0483186E-3,1.2451977E-2,-8.697218E-2,1.5921165E-3,2.4881347E-1,1.4383881E-2,-1.4288777E-1,1.5376633E-1,-5.9645213E-2,-1.9985926E-3,2.476866E-2,-6.3829206E-2,-1.4400168E-2],"categories":[],"categories_nodes":[],"categories_segments":[],"categories_sizes":[],"default_left":[0,0,0,0,0,0,0,0,0,0,0,0,0,0,0,0,0,0,0],"id":31,"left_children":[1,3,5,7,-1,-1,-1,9,-1,11,13,15,17,-1,-1,-1,-1,-1,-1],"loss_changes":[1.8121697E-1,2.6497084E-1,1.4617178E-1,2.3683904E-1,0E0,0E0,0E0,2.0476636E-1,0E0,1.4514491E-1,5.1565236E-1,1.0391003E-1,3.2146618E-2,0E0,0E0,0E0,0E0,0E0,0E0],"parents":[2147483647,0,0,1,1,2,2,3,3,7,7,9,9,10,10,11,11,12,12],"right_children":[2,4,6,8,-1,-1,-1,10,-1,12,14,16,18,-1,-1,-1,-1,-1,-1],"split_conditions":[1.6E1,1.2E1,1.8E1,3.4E1,-1.0598009E-1,1.14120424E-1,-7.0483186E-3,8E0,-8.697218E-2,4E0,4E0,1.3E1,6E0,1.5376633E-1,-5.9645213E-2,-1.9985926E-3,2.476866E-2,-6.3829206E-2,-1.4400168E-2],"split_indices":[2,2,2,0,0,0,0,2,0,2,0,1,2,0,0,0,0,0,0],"split_type":[0,0,0,0,0,0,0,0,0,0,0,0,0,0,0,0,0,0,0],"sum_hessian":[8.4299576E1,8.1751816E1,2.5477595E0,8.0605156E1,1.1466594E0,1.2346661E0,1.3130933E0,7.892765E1,1.6775032E0,7.642306E1,2.5045962E0,7.1034355E1,5.3887E0,1.4847524E0,1.0198438E0,5.4968502E1,1.6065855E1,2.38792E0,3.0007799E0],"tree_param":{"num_deleted":"0","num_feature":"6","num_nodes":"19","size_leaf_vector":"1"}},{"base_weights":[1.5798756E-3,-1.4469631E-2,1.4165434E-1,6.8401485E-3,-2.1187194E-1,3.1262137E-2,1.3439615E-1,-1.7452989E-2,1.6311881E-1,7.104433E-2,-1.972962E-1,1.8388389E-1,-1.03179E-1,5.413395E-3,-1.918929E-1,4.5913998E-2,-1.378587E-2,7.280449E-2,1.0711237E-1,2.0559218E-2,-9.814495E-2,-4.3728757E-1,-2.133896E-2,-3.6203943E-2,4.615975E-2,-5.0390675E-4,3.616428E-2,-3.0827956E-2,-1.6446403E-1,-2.9531404E-2,3.3383958E-2],"categories":[],"categories_nodes":[],"categories_segments":[],"categories_sizes":[],"default_left":[0,0,0,0,0,0,0,0,0,0,0,0,0,0,0,0,0,0,0,0,0,0,0,0,0,0,0,0,0,0,0],"id":32,"left_children":[1,3,5,7,9,11,-1,13,-1,15,-1,17,-1,19,21,-1,-1,23,-1,25,-1,27,29,-1,-1,-1,-1,-1,-1,-1,-1],"loss_changes":[1.9321811E-1,3.2620022E-1,2.8473943E-1,9.309218E-1,9.9931693E-1,4.9666357E-1,0E0,2.7450308E-1,0E0,6.0022257E-2,0E0,9.0026185E-2,0E0,3.169264E-1,3.2435453E-1,0E0,0E0,9.590412E-2,0E0,1.3327208E-1,0E0,6.3072324E-2,6.9797456E-2,0E0,0E0,0E0,0E0,0E0,0E0,0E0,0E0],"parents":[2147483647,0,0,1,1,2,2,3,3,4,4,5,5,7,7,9,9,11,11,13,13,14,14,17,17,19,19,21,21,22,22],"right_children":[2,4,6,8,10,12,-1,14,-1,16,-1,18,-1,20,22,-1,-1,24,-1,26,-1,28,30,-1,-1,-1,-1,-1,-1,-1,-1],"split_conditions":[1.0640672E0,1E0,9E0,6.5198314E-1,3E0,7E0,1.3439615E-1,2.3E1,1.6311881E-1,3E0,-1.972962E-1,3E0,-1.03179E-1,6.300531E-1,2.6E1,4.5913998E-2,-1.378587E-2,1.921928E0,1.0711237E-1,1.3E1,-9.814495E-2,2.4E1,3.2E1,-3.6203943E-2,4.615975E-2,-5.0390675E-4,3.616428E-2,-3.0827956E-2,-1.6446403E-1,-2.9531404E-2,3.3383958E-2],"split_indices":[4,4,0,4,0,0,0,1,0,1,0,2,0,4,0,0,0,4,0,0,0,1,0,0,0,0,0,0,0,0,0],"split_type":[0,0,0,0,0,0,0,0,0,0,0,0,0,0,0,0,0,0,0,0,0,0,0,0,0,0,0,0,0,0,0],"sum_hessian":[8.403458E1,7.6200356E1,7.8342137E0,6.964722E1,6.5531387E0,6.569012E0,1.2652016E0,6.755786E1,2.0893624E0,4.5231466E0,2.029992E0,5.031982E0,1.5370305E0,6.0585056E1,6.9728E0,2.4781272E0,2.0450194E0,3.9308302E0,1.1011516E0,5.8843353E1,1.7417051E0,2.217834E0,4.754966E0,1.0162971E0,2.9145334E0,4.8941284E1,9.902071E0,1.0319839E0,1.1858501E0,3.1698718E0,1.585094E0],"tree_param":{"num_deleted":"0","num_feature":"6","num_nodes":"31","size_leaf_vector":"1"}},{"base_weights":[-1.4837163E-4,-8.624738E-3,2.0595074E-1,-5.3524366E-4,-9.6224554E-2,9.587405E-2,-7.6693675E-4,1.9774696E-2,-1.2925772E-1,5.513765E-3,1.13216765E-1,-2.0343898E-1,5.235845E-2,2.330517E-2,-2.3795298E-1,-1.4079684E-1,-8.057447E-2,-2.0517264E-3,1.4289993E-1,-1.5957346E-2,-1.1520717E-1,-7.214477E-2,3.238749E-2],"categories":[],"categories_nodes":[],"categories_segments":[],"categories_sizes":[],"default_left":[0,0,0,0,0,0,0,0,0,0,0,0,0,0,0,0,0,0,0,0,0,0,0],"id":33,"left_children":[1,3,5,7,-1,-1,-1,9,11,13,-1,15,-1,17,19,21,-1,-1,-1,-1,-1,-1,-1],"loss_changes":[1.4850062E-1,2.0593747E-1,8.037567E-2,2.1319212E-1,0E0,0E0,0E0,3.572427E-1,2.8592998E-1,3.0342928E-1,0E0,5.156398E-4,0E0,8.9087343E-1,1.0837099E-1,1.9682547E-1,0E0,0E0,0E0,0E0,0E0,0E0,0E0],"parents":[2147483647,0,0,1,1,2,2,3,3,7,7,8,8,9,9,11,11,13,13,14,14,15,15],"right_children":[2,4,6,8,-1,-1,-1,10,12,14,-1,16,-1,18,20,22,-1,-1,-1,-1,-1,-1,-1],"split_conditions":[1.6E1,1.2E1,1.8E1,2E1,-9.6224554E-2,9.587405E-2,-7.6693675E-4,1.8E1,1.7203695E-1,1.6E1,1.13216765E-1,2.8E1,5.235845E-2,1.3E1,2E0,2.6E1,-8.057447E-2,-2.0517264E-3,1.4289993E-1,-1.5957346E-2,-1.1520717E-1,-7.214477E-2,3.238749E-2],"split_indices":[2,2,2,1,0,0,0,0,4,1,0,0,0,1,3,0,0,0,0,0,0,0,0],"split_type":[0,0,0,0,0,0,0,0,0,0,0,0,0,0,0,0,0,0,0,0,0,0,0],"sum_hessian":[8.298782E1,8.062986E1,2.3579621E0,7.9569336E1,1.0605301E0,1.1814215E0,1.1765406E0,6.9456764E1,1.0112568E1,6.776967E1,1.6870966E0,8.393329E0,1.7192397E0,6.3997322E1,3.7723458E0,5.890394E0,2.502934E0,6.09281E1,3.069223E0,2.2678895E0,1.5044563E0,4.2289486E0,1.6614457E0],"tree_param":{"num_deleted":"0","num_feature":"6","num_nodes":"23","size_leaf_vector":"1"}},{"base_weights":[7.0752535E-4,-2.0773547E-2,7.292902E-2,7.213356E-3,-1.5742019E-1,3.0938682E-1,-1.9949721E-2,-6.274518E-4,6.3221E-2,-1.0464247E-1,-9.506819E-2,-4.255777E-2,2.1238466E-1,-1.7333226E-1,1.161978E-1,1.378451E-2,-1.019953E-1,-1.2603626E-1,1.7099103E-2,5.7458628E-2,-1.6655362E-1,2.3681547E-2,1.1441875E-1,-1.3853022E-3,8.8624544E-2,-7.166611E-2,-7.071255E-2,-1.0538068E-2,5.4644603E-2,1.504312E-1,-8.554873E-2,5.868792E-3,-4.0523775E-2,-4.2107634E-2,2.7691592E-2,8.5233875E-2,1.3822163E-2],"categories":[],"categories_nodes":[],"categories_segments":[],"categories_sizes":[],"default_left":[0,0,0,0,0,0,0,0,0,0,0,0,0,0,0,0,0,0,0,0,0,0,0,0,0,0,0,0,0,0,0,0,0,0,0,0,0],"id":34,"left_children":[1,3,5,7,9,11,13,15,-1,-1,17,-1,-1,19,21,23,-1,25,-1,27,-1,29,-1,31,-1,33,-1,-1,-1,35,-1,-1,-1,-1,-1,-1,-1],"loss_changes":[1.309025E-1,2.4994422E-1,4.3093964E-1,8.783032E-2,9.9343926E-2,1.092319E0,3.2974696E-1,2.6837087E-1,0E0,0E0,5.309706E-2,0E0,0E0,6.8166244E-1,1.98362E-1,2.2546902E-1,0E0,3.3265114E-2,0E0,6.991276E-2,0E0,3.2995188E-1,0E0,1.4542301E-1,0E0,9.24831E-2,0E0,0E0,0E0,6.8574876E-2,0E0,0E0,0E0,0E0,0E0,0E0,0E0],"parents":[2147483647,0,0,1,1,2,2,3,3,4,4,5,5,6,6,7,7,10,10,13,13,14,14,15,15,17,17,19,19,21,21,23,23,25,25,29,29],"right_children":[2,4,6,8,10,12,14,16,-1,-1,18,-1,-1,20,22,24,-1,26,-1,28,-1,30,-1,32,-1,34,-1,-1,-1,36,-1,-1,-1,-1,-1,-1,-1],"split_conditions":[3.9124358E-1,1.9E1,1E0,1.8E1,2E1,7E0,1.0640672E0,1.7E1,6.3221E-2,-1.0464247E-1,3.2E1,-4.255777E-2,2.1238466E-1,3E0,9E0,1.1E1,-1.019953E-1,2.8E1,1.7099103E-2,4E0,-1.6655362E-1,7E0,1.1441875E-1,4E0,8.8624544E-2,2.6E1,-7.071255E-2,-1.0538068E-2,5.4644603E-2,1.8122592E0,-8.554873E-2,5.868792E-3,-4.0523775E-2,-4.2107634E-2,2.7691592E-2,8.5233875E-2,1.3822163E-2],"split_indices":[4,1,4,1,0,0,4,0,0,0,0,0,0,0,0,2,0,0,0,1,0,0,0,2,0,0,0,0,0,4,0,0,0,0,0,0,0],"split_type":[0,0,0,0,0,0,0,0,0,0,0,0,0,0,0,0,0,0,0,0,0,0,0,0,0,0,0,0,0,0,0,0,0,0,0,0,0],"sum_hessian":[8.240076E1,6.405965E1,1.8341106E1,5.3956013E1,1.0103639E1,4.51511E0,1.3825996E1,5.2914383E1,1.0416285E0,1.3538498E0,8.749789E0,2.4196687E0,2.095441E0,6.3730526E0,7.4529433E0,5.1679035E1,1.2353483E0,7.411589E0,1.3382E0,4.5017095E0,1.8713434E0,6.332947E0,1.1199969E0,4.998188E1,1.6971536E0,6.060531E0,1.3510581E0,2.9956498E0,1.5060596E0,4.8538475E0,1.4790989E0,4.394932E1,6.0325584E0,4.3726835E0,1.6878473E0,1.3727957E0,3.481052E0],"tree_param":{"num_deleted":"0","num_feature":"6","num_nodes":"37","size_leaf_vector":"1"}},{"base_weights":[1.076606E-3,-9.120033E-3,1.1977886E-1,-9.644501E-4,-2.0803073E-1,6.334794E-2,-2.0466097E-2,-1.0592761E-2,7.157239E-2,3.1770352E-2,-1.2649876E-1,2.2956298E-3,-2.7170444E-1,-8.097773E-3,7.976334E-2,6.5133763E-3,-1.4278142E-1,6.422589E-4,-4.614358E-2],"categories":[],"categories_nodes":[],"categories_segments":[],"categories_sizes":[],"default_left":[0,0,0,0,0,0,0,0,0,0,0,0,0,0,0,0,0,0,0],"id":35,"left_children":[1,3,5,7,9,-1,-1,11,-1,-1,-1,13,15,17,-1,-1,-1,-1,-1],"loss_changes":[1.0108279E-1,1.2472104E-1,1.2789041E-1,1.754525E-1,2.4775189E-1,0E0,0E0,2.4641883E-1,0E0,0E0,0E0,1.955463E-1,2.1671182E-1,1.0310188E-1,0E0,0E0,0E0,0E0,0E0],"parents":[2147483647,0,0,1,1,2,2,3,3,4,4,7,7,11,11,12,12,13,13],"right_children":[2,4,6,8,10,-1,-1,12,-1,-1,-1,14,16,18,-1,-1,-1,-1,-1],"split_conditions":[1.5340476E0,1.032256E0,7.222222E-1,3.2E1,7E0,6.334794E-2,-2.0466097E-2,1.2E1,7.157239E-2,3.1770352E-2,-1.2649876E-1,8E0,1.8E1,2.4E1,7.976334E-2,6.5133763E-3,-1.4278142E-1,6.422589E-4,-4.614358E-2],"split_indices":[4,4,5,0,0,0,0,2,0,0,0,2,1,1,0,0,0,0,0],"split_type":[0,0,0,0,0,0,0,0,0,0,0,0,0,0,0,0,0,0,0],"sum_hessian":[8.161184E1,7.600602E1,5.6058226E0,7.397769E1,2.0283277E0,3.689344E0,1.9164786E0,7.2037895E1,1.9397959E0,1.0255557E0,1.0027721E0,6.959396E1,2.4439285E0,6.788639E1,1.707575E0,1.3697492E0,1.0741792E0,6.435013E1,3.5362673E0],"tree_param":{"num_deleted":"0","num_feature":"6","num_nodes":"19","size_leaf_vector":"1"}},{"base_weights":[-2.6021773E-4,-8.2263E-3,2.0545213E-1,1.8107116E-3,-9.5560245E-2,7.900588E-2,1.2902592E-2,1.00418255E-2,-9.362984E-2,-9.205681E-3,7.758414E-2,1.0942894E-2,-2.5818416E-1,1.6238217E-1,4.751228E-3,-3.5687631E-3,5.1632263E-2,-1.5764016E-1,4.3318546E-3,-4.1523777E-2,2.7429461E-2],"categories":[],"categories_nodes":[],"categories_segments":[],"categories_sizes":[],"default_left":[0,0,0,0,0,0,0,0,0,0,0,0,0,0,0,0,0,0,0,0,0],"id":36,"left_children":[1,3,5,7,-1,-1,-1,9,-1,11,13,15,17,-1,19,-1,-1,-1,-1,-1,-1],"loss_changes":[1.3666855E-1,2.5054812E-1,1.7917857E-2,2.0658118E-1,0E0,0E0,0E0,1.0172005E-1,0E0,3.106356E-1,5.82922E-1,2.1451963E-1,3.452836E-1,0E0,2.1110924E-1,0E0,0E0,0E0,0E0,0E0,0E0],"parents":[2147483647,0,0,1,1,2,2,3,3,7,7,9,9,10,10,11,11,12,12,14,14],"right_children":[2,4,6,8,-1,-1,-1,10,-1,12,14,16,18,-1,20,-1,-1,-1,-1,-1,-1],"split_conditions":[1.6E1,3.4E1,1.8E1,1.2E1,-9.5560245E-2,7.900588E-2,1.2902592E-2,1.3E1,-9.362984E-2,1.1E1,1.5E1,7E0,1.2E1,1.6238217E-1,1.8E1,-3.5687631E-3,5.1632263E-2,-1.5764016E-1,4.3318546E-3,-4.1523777E-2,2.7429461E-2],"split_indices":[2,0,2,2,0,0,0,1,0,1,1,0,0,0,0,0,0,0,0,0,0],"split_type":[0,0,0,0,0,0,0,0,0,0,0,0,0,0,0,0,0,0,0,0,0],"sum_hessian":[8.136814E1,7.9258896E1,2.1092403E0,7.773858E1,1.5203158E0,1.0970237E0,1.0122166E0,7.669554E1,1.0430418E0,6.0358814E1,1.6336725E1,5.672444E1,3.6343749E0,1.3446033E0,1.4992121E1,5.049495E1,6.229491E0,1.3668531E0,2.2675216E0,5.4288507E0,9.563271E0],"tree_param":{"num_deleted":"0","num_feature":"6","num_nodes":"21","size_leaf_vector":"1"}},{"base_weights":[-8.0818887E-4,-7.57259E-3,1.7503718E-1,6.494004E-4,-7.8203276E-2,6.748364E-2,1.0966304E-2,7.6459553E-3,-8.127862E-2,4.405868E-2,-2.8503688E-2,2.083401E-2,1.16233446E-1,3.2118615E-2,-3.482366E-1,-9.499913E-3,2.0074543E-2,-1.144247E-1,2.3867412E-2,-1.9579606E-1,1.7204901E-2],"categories":[],"categories_nodes":[],"categories_segments":[],"categories_sizes":[],"default_left":[0,0,0,0,0,0,0,0,0,0,0,0,0,0,0,0,0,0,0,0,0],"id":37,"left_children":[1,3,5,7,-1,-1,-1,9,-1,11,13,15,-1,17,19,-1,-1,-1,-1,-1,-1],"loss_changes":[9.906315E-2,1.668233E-1,1.31004825E-2,1.5134524E-1,0E0,0E0,0E0,1.03348576E-1,0E0,3.032109E-1,7.7734953E-1,9.312335E-2,0E0,7.001613E-1,8.2570827E-1,0E0,0E0,0E0,0E0,0E0,0E0],"parents":[2147483647,0,0,1,1,2,2,3,3,7,7,9,9,10,10,11,11,13,13,14,14],"right_children":[2,4,6,8,-1,-1,-1,10,-1,12,14,16,-1,18,20,-1,-1,-1,-1,-1,-1],"split_conditions":[1.6E1,3.4E1,1.8E1,1.2E1,-7.8203276E-2,6.748364E-2,1.0966304E-2,4E0,-8.127862E-2,8E0,1E0,2E0,1.16233446E-1,5E0,1.921928E0,-9.499913E-3,2.0074543E-2,-1.144247E-1,2.3867412E-2,-1.9579606E-1,1.7204901E-2],"split_indices":[2,0,2,2,0,0,0,0,0,2,2,2,0,0,4,0,0,0,0,0,0],"split_type":[0,0,0,0,0,0,0,0,0,0,0,0,0,0,0,0,0,0,0,0,0],"sum_hessian":[8.11678E1,7.9082596E1,2.0852048E0,7.756052E1,1.5220808E0,1.0738428E0,1.0113622E0,7.6559975E1,1.0005368E0,3.8032204E1,3.852777E1,3.6616356E1,1.4158484E0,3.3143257E1,5.384514E0,1.726224E1,1.9354116E1,2.6863155E0,3.0456942E1,2.7279E0,2.656614E0],"tree_param":{"num_deleted":"0","num_feature":"6","num_nodes":"21","size_leaf_vector":"1"}},{"base_weights":[-3.8568994E-3,-2.5583401E-2,7.179456E-2,1.8947061E-2,-1.0416075E-1,-1.6299278E-2,3.4684545E-1,5.598442E-3,7.062147E-2,-3.3054247E-1,-2.1228872E-2,9.3826644E-2,-1.718163E-1,1.7056882E-1,5.239653E-2,-1.5654933E-2,1.1124816E-1,-1.0317847E-1,-4.609291E-1,7.824826E-2,-1.0247709E-1,-4.31443E-2,1.6642326E-1,-2.6968312E-1,-1.7567843E-3,1.05150275E-1,-8.200941E-2,9.2334915E-3,-9.121309E-2,7.312527E-2,1.0690757E-2,-4.8933208E-2,4.4110143E-3,5.7849446E-3,-2.184137E-1,-5.714302E-3,1.14398584E-1,-1.2927681E-1,1.4212851E-2,2.2160892E-1,-2.696782E-2,-2.42782E-2,-1.23505704E-1,9.176723E-3,-2.9321019E-2,1.288396E-2,-1.7376807E-2,5.7688247E-2,1.264294E-2,-2.0937089E-2,-5.2481256E-2,1.9341558E-2,1.3682728E-1],"categories":[],"categories_nodes":[],"categories_segments":[],"categories_sizes":[],"default_left":[0,0,0,0,0,0,0,0,0,0,0,0,0,0,0,0,0,0,0,0,0,0,0,0,0,0,0,0,0,0,0,0,0,0,0,0,0,0,0,0,0,0,0,0,0,0,0,0,0,0,0,0,0],"id":38,"left_children":[1,3,5,7,9,11,13,15,-1,17,19,21,23,-1,25,27,29,31,33,35,37,-1,39,41,-1,-1,-1,43,-1,-1,45,-1,-1,-1,-1,-1,47,49,-1,51,-1,-1,-1,-1,-1,-1,-1,-1,-1,-1,-1,-1,-1],"loss_changes":[1.3547151E-1,2.2556922E-1,4.515608E-1,1.1897699E-1,4.298261E-1,2.7119774E-1,2.6458782E-1,9.2094846E-2,0E0,1.3535124E-1,1.5429488E-1,1.8551776E-1,1.04442134E-1,0E0,3.9087698E-1,2.4954653E-1,8.883076E-2,2.7387735E-2,4.8003036E-1,3.2791372E-2,4.78706E-2,0E0,1.2796004E-1,7.614988E-2,0E0,0E0,0E0,7.749809E-2,0E0,0E0,1.3437131E-2,0E0,0E0,0E0,0E0,0E0,2.8415382E-2,1.24705285E-2,0E0,2.1279776E-1,0E0,0E0,0E0,0E0,0E0,0E0,0E0,0E0,0E0,0E0,0E0,0E0,0E0],"parents":[2147483647,0,0,1,1,2,2,3,3,4,4,5,5,6,6,7,7,9,9,10,10,11,11,12,12,14,14,15,15,16,16,17,17,18,18,19,19,20,20,22,22,23,23,27,27,30,30,36,36,37,37,39,39],"right_children":[2,4,6,8,10,12,14,16,-1,18,20,22,24,-1,26,28,30,32,34,36,38,-1,40,42,-1,-1,-1,44,-1,-1,46,-1,-1,-1,-1,-1,48,50,-1,52,-1,-1,-1,-1,-1,-1,-1,-1,-1,-1,-1,-1,-1],"split_conditions":[3.9124358E-1,1E1,1.1E1,9E0,1.2E1,1E0,1E0,5E0,7.062147E-2,3E0,1.9E1,6.5198314E-1,1.921928E0,1.7056882E-1,1.3E1,4E0,6E0,1.6E1,1.1E1,1.3E1,3.2E1,-4.31443E-2,5E0,3E0,-1.7567843E-3,1.05150275E-1,-8.200941E-2,5E0,-9.121309E-2,7.312527E-2,8E0,-4.8933208E-2,4.4110143E-3,5.7849446E-3,-2.184137E-1,-5.714302E-3,1.6E1,2.4E1,1.4212851E-2,6E0,-2.696782E-2,-2.42782E-2,-1.23505704E-1,9.176723E-3,-2.9321019E-2,1.288396E-2,-1.7376807E-2,5.7688247E-2,1.264294E-2,-2.0937089E-2,-5.2481256E-2,1.9341558E-2,1.3682728E-1],"split_indices":[4,1,1,1,0,2,4,0,0,0,1,4,4,0,0,0,1,2,1,0,0,0,3,0,0,0,0,1,0,0,1,0,0,0,0,0,1,1,0,0,0,0,0,0,0,0,0,0,0,0,0,0,0],"split_type":[0,0,0,0,0,0,0,0,0,0,0,0,0,0,0,0,0,0,0,0,0,0,0,0,0,0,0,0,0,0,0,0,0,0,0,0,0,0,0,0,0,0,0,0,0,0,0,0,0,0,0,0,0],"sum_hessian":[8.030408E1,6.2901184E1,1.7402897E1,4.0632988E1,2.2268192E1,1.3893727E1,3.5091693E0,3.9239044E1,1.3939472E0,5.1699386E0,1.7098253E1,8.366123E0,5.5276046E0,1.4707612E0,2.0384083E0,3.337656E1,5.862484E0,2.5371187E0,2.63282E0,7.703416E0,9.394838E0,1.7281415E0,6.6379814E0,3.0839906E0,2.443614E0,1.0247314E0,1.0136768E0,3.1616026E1,1.7605331E0,1.9150534E0,3.9474306E0,1.4276228E0,1.1094959E0,1.2726703E0,1.3601495E0,2.2150013E0,5.488415E0,8.086042E0,1.3087955E0,5.5734143E0,1.064567E0,1.998028E0,1.0859625E0,2.6949797E1,4.666229E0,2.9395857E0,1.0078447E0,1.8416739E0,3.646741E0,4.6093984E0,3.4766438E0,4.100462E0,1.4729522E0],"tree_param":{"num_deleted":"0","num_feature":"6","num_nodes":"53","size_leaf_vector":"1"}},{"base_weights":[-4.07974E-3,-2.2050397E-2,5.935224E-2,-1.3105886E-2,-8.63085E-2,-1.6291473E-2,3.0795965E-1,-3.7643935E-3,-6.600402E-2,7.4790515E-2,-1.459719E-1,1.5528241E-1,1.3968959E-2,-2.7271645E-2,5.32858E-2,-3.5454843E-2,1.3300245E-1,-7.299704E-2,1.0014538E-2,-3.642409E-2,4.144115E-2,9.048653E-2,-7.185051E-2,2.0614724E-1,-2.2529501E-2,-7.659981E-4,5.805543E-3,-6.0361316E-3,-3.5731595E-2,1.8307222E-2,6.6234805E-2,1.3723994E-2,1.181787E-1],"categories":[],"categories_nodes":[],"categories_segments":[],"categories_sizes":[],"default_left":[0,0,0,0,0,0,0,0,0,0,0,0,0,0,0,0,0,0,0,0,0,0,0,0,0,0,0,0,0,0,0,0,0],"id":39,"left_children":[1,3,5,7,-1,9,11,13,-1,15,17,-1,-1,19,21,-1,23,-1,25,27,-1,29,-1,31,-1,-1,-1,-1,-1,-1,-1,-1,-1],"loss_changes":[9.306264E-2,1.4699398E-1,3.4427905E-1,1.19842455E-1,0E0,1.855112E-1,2.0928976E-1,8.29283E-2,0E0,1.206858E-1,1.0019167E-1,0E0,0E0,7.1167715E-2,2.1845175E-1,0E0,1.3191397E-1,0E0,4.5241273E-4,5.4471802E-2,0E0,5.0849512E-2,0E0,1.6049853E-1,0E0,0E0,0E0,0E0,0E0,0E0,0E0,0E0,0E0],"parents":[2147483647,0,0,1,1,2,2,3,3,5,5,6,6,7,7,9,9,10,10,13,13,14,14,16,16,18,18,19,19,21,21,23,23],"right_children":[2,4,6,8,-1,10,12,14,-1,16,18,-1,-1,20,22,-1,24,-1,26,28,-1,30,-1,32,-1,-1,-1,-1,-1,-1,-1,-1,-1],"split_conditions":[3.9124358E-1,4E1,1.1E1,1.2E1,-8.63085E-2,1E0,1E0,3E0,-6.600402E-2,6.5198314E-1,2E0,1.5528241E-1,1.3968959E-2,3E1,2E0,-3.5454843E-2,8E0,-7.299704E-2,6E0,1E0,4.144115E-2,8E0,-7.185051E-2,5E0,-2.2529501E-2,-7.659981E-4,5.805543E-3,-6.0361316E-3,-3.5731595E-2,1.8307222E-2,6.6234805E-2,1.3723994E-2,1.181787E-1],"split_indices":[4,1,1,2,0,2,4,2,0,4,2,0,0,0,0,0,0,0,1,2,0,1,0,0,0,0,0,0,0,0,0,0,0],"split_type":[0,0,0,0,0,0,0,0,0,0,0,0,0,0,0,0,0,0,0,0,0,0,0,0,0,0,0,0,0,0,0,0,0],"sum_hessian":[7.949192E1,6.2451435E1,1.7040485E1,6.1432285E1,1.0191485E0,1.3781623E1,3.2588623E0,5.9752754E1,1.6795331E0,8.344249E0,5.4373736E0,1.2645156E0,1.9943466E0,4.268612E1,1.7066635E1,1.6950196E0,6.6492295E0,3.0031796E0,2.4341943E0,4.1186947E1,1.4991736E0,1.5755708E1,1.3109263E0,4.926881E0,1.7223488E0,1.3472949E0,1.0868993E0,3.5441666E1,5.7452817E0,1.4047621E1,1.7080871E0,3.3278732E0,1.5990074E0],"tree_param":{"num_deleted":"0","num_feature":"6","num_nodes":"33","size_leaf_vector":"1"}},{"base_weights":[-2.3070655E-3,-1.1434763E-2,1.6368505E-1,-3.460484E-3,-7.755296E-2,-2.8676936E-2,1.0626971E-1,-9.12488E-3,4.9728945E-2,1.1429129E-2,-6.1495893E-2,-3.940458E-3,4.931016E-2,-2.4700385E-1,1.2022331E-3,-5.1581776E-3,4.1054524E-2,-1.112079E-1,3.9879143E-2,2.425946E-2,-2.5733821E-2],"categories":[],"categories_nodes":[],"categories_segments":[],"categories_sizes":[],"default_left":[0,0,0,0,0,0,0,0,0,0,0,0,0,0,0,0,0,0,0,0,0],"id":40,"left_children":[1,3,5,7,-1,-1,-1,9,-1,11,13,15,-1,17,19,-1,-1,-1,-1,-1,-1],"loss_changes":[1.226627E-1,1.498346E-1,2.4238023E-1,7.352302E-2,0E0,0E0,0E0,7.997042E-2,0E0,1.2693822E-1,2.4352416E-1,9.527189E-2,0E0,2.977472E-1,1.2213189E-1,0E0,0E0,0E0,0E0,0E0,0E0],"parents":[2147483647,0,0,1,1,2,2,3,3,7,7,9,9,10,10,11,11,13,13,14,14],"right_children":[2,4,6,8,-1,-1,-1,10,-1,12,14,16,-1,18,20,-1,-1,-1,-1,-1,-1],"split_conditions":[1.1E1,3.4E1,2E0,3E1,-7.755296E-2,-2.8676936E-2,1.0626971E-1,1E1,4.9728945E-2,7E0,1.2E1,1.5340476E0,4.931016E-2,3E0,1.9E1,-5.1581776E-3,4.1054524E-2,-1.112079E-1,3.9879143E-2,2.425946E-2,-2.5733821E-2],"split_indices":[2,0,0,0,0,0,0,1,0,0,0,4,0,3,1,0,0,0,0,0,0],"split_type":[0,0,0,0,0,0,0,0,0,0,0,0,0,0,0,0,0,0,0,0,0],"sum_hessian":[7.872341E1,7.550272E1,3.220687E0,7.412439E1,1.378338E0,1.5754018E0,1.645285E0,7.263903E1,1.4853568E0,5.272705E1,1.9911978E1,4.879737E1,3.9296813E0,4.2873163E0,1.5624661E1,4.5401295E1,3.396075E0,3.2527077E0,1.0346085E0,8.192153E0,7.4325085E0],"tree_param":{"num_deleted":"0","num_feature":"6","num_nodes":"21","size_leaf_vector":"1"}},{"base_weights":[-8.342319E-4,-7.0634815E-3,4.9406704E-2,-5.24292E-4,-6.384705E-2,-1.2137523E-2,7.301827E-2,6.4495034E-3,-2.299994E-1,9.170153E-2,6.276485E-4,-7.1935277E-3,2.111221E-1,-3.1452343E-2,-9.2090376E-2,-7.081257E-2,8.628086E-2,2.3092944E-3,-6.72624E-2,1.2198124E-1,-1.0492268E-2,3.7010037E-3,-5.245673E-2,3.9284833E-2,4.3215607E-3],"categories":[],"categories_nodes":[],"categories_segments":[],"categories_sizes":[],"default_left":[0,0,0,0,0,0,0,0,0,0,0,0,0,0,0,0,0,0,0,0,0,0,0,0,0],"id":41,"left_children":[1,3,-1,5,-1,7,9,11,13,-1,15,17,19,-1,-1,21,23,-1,-1,-1,-1,-1,-1,-1,-1],"loss_changes":[8.307585E-2,1.04192704E-1,0E0,6.59109E-2,0E0,2.712131E-1,1.7707932E-1,1.7561175E-1,1.8520832E-2,0E0,6.136385E-2,1.9373861E-1,2.0323999E-1,0E0,0E0,4.9501337E-2,1.2744863E-2,0E0,0E0,0E0,0E0,0E0,0E0,0E0,0E0],"parents":[2147483647,0,0,1,1,3,3,5,5,6,6,7,7,8,8,10,10,11,11,12,12,15,15,16,16],"right_children":[2,4,-1,6,-1,8,10,12,14,-1,16,18,20,-1,-1,22,24,-1,-1,-1,-1,-1,-1,-1,-1],"split_conditions":[1.6E1,3.4E1,4.9406704E-2,1.8E1,-6.384705E-2,1.6E1,2E1,1.3E1,2E0,9.170153E-2,2.6E1,1.1E1,1.5E1,-3.1452343E-2,-9.2090376E-2,2.3E1,2.8E1,2.3092944E-3,-6.72624E-2,1.2198124E-1,-1.0492268E-2,3.7010037E-3,-5.245673E-2,3.9284833E-2,4.3215607E-3],"split_indices":[2,0,0,0,0,1,0,1,3,0,0,0,1,0,0,0,0,0,0,0,0,0,0,0,0],"split_type":[0,0,0,0,0,0,0,0,0,0,0,0,0,0,0,0,0,0,0,0,0,0,0,0,0],"sum_hessian":[7.844305E1,7.652062E1,1.9224267E0,7.5135315E1,1.3853022E0,6.560973E1,9.525586E0,6.1346325E1,4.2634053E0,1.49579E0,8.029796E0,5.8417217E1,2.9291112E0,2.5229595E0,1.7404457E0,4.4726152E0,3.5571806E0,5.556871E1,2.8485036E0,1.2689385E0,1.6601728E0,2.9758234E0,1.4967917E0,1.686921E0,1.8702598E0],"tree_param":{"num_deleted":"0","num_feature":"6","num_nodes":"25","size_leaf_vector":"1"}},{"base_weights":[-5.6405616E-4,-6.2571443E-3,5.711564E-2,2.2851576E-3,-7.430743E-2,2.1139244E-2,-2.505491E-2,-3.907722E-2,5.3984843E-2,4.540034E-2,-1.8857203E-1,2.1984646E-2,-8.7042406E-2,1.3522463E-1,-1.1325738E-2,6.0920812E-2,-3.3434268E-2,-4.9133113E-1,-2.8603692E-3,-1.8668784E-2,3.6197223E-2,4.9849853E-2,-3.704556E-2,-5.2299976E-2,9.636572E-3,1.2182462E-2,5.602668E-2,-1.870548E-1,-2.2494791E-2,-6.1808642E-2,5.925138E-2],"categories":[],"categories_nodes":[],"categories_segments":[],"categories_sizes":[],"default_left":[0,0,0,0,0,0,0,0,0,0,0,0,0,0,0,0,0,0,0,0,0,0,0,0,0,0,0,0,0,0,0],"id":42,"left_children":[1,3,-1,5,-1,7,9,11,13,15,17,19,-1,21,23,25,-1,27,29,-1,-1,-1,-1,-1,-1,-1,-1,-1,-1,-1,-1],"loss_changes":[8.743888E-2,1.6145235E-1,0E0,3.987779E-2,0E0,9.2538446E-2,3.7276706E-1,2.626571E-1,1.6072688E-1,6.2535405E-2,5.4475325E-1,1.2696877E-1,0E0,1.2817365E-1,1.2993173E-1,4.733078E-2,0E0,1.5617067E-1,3.2672414E-1,0E0,0E0,0E0,0E0,0E0,0E0,0E0,0E0,0E0,0E0,0E0,0E0],"parents":[2147483647,0,0,1,1,3,3,5,5,6,6,7,7,8,8,9,9,10,10,11,11,13,13,14,14,15,15,17,17,18,18],"right_children":[2,4,-1,6,-1,8,10,12,14,16,18,20,-1,22,24,26,-1,28,30,-1,-1,-1,-1,-1,-1,-1,-1,-1,-1,-1,-1],"split_conditions":[3.6E1,3.1E1,5.711564E-2,1E0,-7.430743E-2,5E0,2E0,4E0,1.1E1,1.4E1,4.861111E-1,2E0,-8.7042406E-2,5E0,1.3E1,8E0,-3.3434268E-2,9E0,2E0,-1.8668784E-2,3.6197223E-2,4.9849853E-2,-3.704556E-2,-5.2299976E-2,9.636572E-3,1.2182462E-2,5.602668E-2,-1.870548E-1,-2.2494791E-2,