{"learner":{"attributes":{"scikit_learn":"{\"_estimator_type\": \"classifier\"}"},"feature_names":["SYSCALL_TOTAL_COUNT","SYSCALL_ARGUMENT_SIMILAR","SYSCALL_KIND_SIMILAR","SYSCALL_KIND","SYSCALL_TOP1","SYSCALL_TOP2","SYSCALL_TOP3","SYSCALL_TOP4","SYSCALL_TOP5","SYSCALL_TOP6"],"feature_types":["int","float","float","int","int","int","int","int","int","int"],"gradient_booster":{"model":{"gbtree_model_param":{"num_parallel_tree":"1","num_trees":"100"},"iteration_indptr":[0,1,2,3,4,5,6,7,8,9,10,11,12,13,14,15,16,17,18,19,20,21,22,23,24,25,26,27,28,29,30,31,32,33,34,35,36,37,38,39,40,41,42,43,44,45,46,47,48,49,50,51,52,53,54,55,56,57,58,59,60,61,62,63,64,65,66,67,68,69,70,71,72,73,74,75,76,77,78,79,80,81,82,83,84,85,86,87,88,89,90,91,92,93,94,95,96,97,98,99,100],"tree_info":[0,0,0,0,0,0,0,0,0,0,0,0,0,0,0,0,0,0,0,0,0,0,0,0,0,0,0,0,0,0,0,0,0,0,0,0,0,0,0,0,0,0,0,0,0,0,0,0,0,0,0,0,0,0,0,0,0,0,0,0,0,0,0,0,0,0,0,0,0,0,0,0,0,0,0,0,0,0,0,0,0,0,0,0,0,0,0,0,0,0,0,0,0,0,0,0,0,0,0,0],"trees":[{"base_weights":[-5.4958694E-2,-1.4236971E0,3.3153949E0,-1.4254951E-1,-9.901004E-1,3.316545E-1,-6.199389E-1,2.3329754E0,-1.3571297E0,-7.0027635E-2,1.1843188E-2,-4.24099E-3,2.4528287E-1,5.495541E-2,-1.3829511E-1],"categories":[],"categories_nodes":[],"categories_segments":[],"categories_sizes":[],"default_left":[0,0,0,0,0,0,0,0,0,0,0,0,0,0,0],"id":0,"left_children":[1,3,5,-1,7,-1,9,11,13,-1,-1,-1,-1,-1,-1],"loss_changes":[1.2771569E6,1.253125E2,4.030625E2,0E0,1.1348684E3,0E0,4.0439806E0,2.9052612E1,5.477466E1,0E0,0E0,0E0,0E0,0E0,0E0],"parents":[2147483647,0,0,1,1,2,2,4,4,6,6,7,7,8,8],"right_children":[2,4,6,-1,8,-1,10,12,14,-1,-1,-1,-1,-1,-1],"split_conditions":[9.96E-1,9.8E-1,4E0,-1.4254951E-1,2E0,3.316545E-1,6.13E2,8.1E1,6.4E1,-7.0027635E-2,1.1843188E-2,-4.24099E-3,2.4528287E-1,5.495541E-2,-1.3829511E-1],"split_indices":[1,1,3,0,3,0,5,0,4,0,0,0,0,0,0],"split_type":[0,0,0,0,0,0,0,0,0,0,0,0,0,0,0],"sum_hessian":[2.7681197E5,1.968717E5,7.994026E4,1.9601314E5,8.585562E2,7.992005E4,2.0211231E1,7.473945E1,7.838168E2,1.9158562E1,1.0526682E0,4.210673E0,7.052877E1,5.052808E0,7.78764E2],"tree_param":{"num_deleted":"0","num_feature":"10","num_nodes":"15","size_leaf_vector":"1"}},{"base_weights":[-5.869088E-2,-1.366008E0,2.6616025E0,-1.3685468E-1,-1.0416884E0,2.6624557E-1,-5.953486E-1,1.9874802E0,-1.2415261E0,-6.759015E-2,1.1781069E-2,-5.4375324E-3,2.1083522E-1,1.9066612E-1,-1.3475122E-1],"categories":[],"categories_nodes":[],"categories_segments":[],"categories_sizes":[],"default_left":[0,0,0,0,0,0,0,0,0,0,0,0,0,0,0],"id":1,"left_children":[1,3,5,-1,7,-1,9,11,13,-1,-1,-1,-1,-1,-1],"loss_changes":[9.755946E5,1.24E2,2.791875E2,0E0,9.7116846E2,0E0,3.8715725E0,2.7450409E1,5.3215234E2,0E0,0E0,0E0,0E0,0E0,0E0],"parents":[2147483647,0,0,1,1,2,2,4,4,6,6,7,7,8,8],"right_children":[2,4,6,-1,8,-1,10,12,14,-1,-1,-1,-1,-1,-1],"split_conditions":[9.96E-1,9.75E-1,4E0,-1.3685468E-1,2E0,2.6624557E-1,6.13E2,8.1E1,1.07E2,-6.759015E-2,1.1781069E-2,-5.4375324E-3,2.1083522E-1,1.9066612E-1,-1.3475122E-1],"split_indices":[1,1,3,0,3,0,5,0,0,0,0,0,0,0,0],"split_type":[0,0,0,0,0,0,0,0,0,0,0,0,0,0,0],"sum_hessian":[2.742892E5,1.852647E5,8.902447E4,1.837619E5,1.502806E3,8.90048E4,1.9671404E1,8.193371E1,1.4208724E3,1.8613802E1,1.057602E0,5.194107E0,7.67396E1,3.520992E1,1.3856625E3],"tree_param":{"num_deleted":"0","num_feature":"10","num_nodes":"15","size_leaf_vector":"1"}},{"base_weights":[-5.9741456E-2,-1.3177524E0,2.2729344E0,-1.3203435E-1,-9.9049526E-1,2.2736387E-1,-5.7221055E-1,1.756206E0,-1.1902962E0,-6.530201E-2,1.1719055E-2,4.922144E-3,1.8915586E-1,1.6930841E-1,-1.2991616E-1],"categories":[],"categories_nodes":[],"categories_segments":[],"categories_sizes":[],"default_left":[0,0,0,0,0,0,0,0,0,0,0,0,0,0,0],"id":2,"left_children":[1,3,5,-1,7,-1,9,11,13,-1,-1,-1,-1,-1,-1],"loss_changes":[7.835918E5,1.209375E2,2.1346875E2,0E0,8.335427E2,0E0,3.710537E0,2.2607147E1,4.698844E2,0E0,0E0,0E0,0E0,0E0,0E0],"parents":[2147483647,0,0,1,1,2,2,4,4,6,6,7,7,8,8],"right_children":[2,4,6,-1,8,-1,10,12,14,-1,-1,-1,-1,-1,-1],"split_conditions":[9.96E-1,9.75E-1,4E0,-1.3203435E-1,2E0,2.2736387E-1,6.13E2,1.07E2,1.07E2,-6.530201E-2,1.1719055E-2,4.922144E-3,1.8915586E-1,1.6930841E-1,-1.2991616E-1],"split_indices":[1,1,3,0,3,0,5,0,0,0,0,0,0,0,0],"split_type":[0,0,0,0,0,0,0,0,0,0,0,0,0,0,0],"sum_hessian":[2.6698403E5,1.7345081E5,9.353323E4,1.7202812E5,1.4226829E3,9.35141E4,1.9130753E1,8.5907E1,1.3367759E3,1.8068281E1,1.0624703E0,8.3151045E0,7.7591896E1,3.8046455E1,1.2987295E3],"tree_param":{"num_deleted":"0","num_feature":"10","num_nodes":"15","size_leaf_vector":"1"}},{"base_weights":[-5.9724484E-2,-1.2769341E0,2.0137787E0,-1.2795806E0,-9.4621426E-1,2.014397E-1,-5.5038446E-1,-1.2431682E0,-1.2854867E-1,1.5829023E0,-1.1461147E0,-6.314813E-2,1.1657148E-2,-1.273825E-1,-1.0673181E-1,-5.427144E-3,1.6761005E-1,1.5217207E-1,-1.2578963E-1],"categories":[],"categories_nodes":[],"categories_segments":[],"categories_sizes":[],"default_left":[0,0,0,0,0,0,0,0,0,0,0,0,0,0,0,0,0,0,0],"id":3,"left_children":[1,3,5,7,9,-1,11,13,-1,15,17,-1,-1,-1,-1,-1,-1,-1,-1],"loss_changes":[6.4776544E5,1.173125E2,1.726875E2,2.5E0,7.241614E2,0E0,3.5596972E0,9.674609E1,0E0,1.8307709E1,4.17771E2,0E0,0E0,0E0,0E0,0E0,0E0,0E0,0E0],"parents":[2147483647,0,0,1,1,2,2,3,3,4,4,6,6,7,7,9,9,10,10],"right_children":[2,4,6,8,10,-1,12,14,-1,16,18,-1,-1,-1,-1,-1,-1,-1,-1],"split_conditions":[9.96E-1,9.75E-1,4E0,8.3E-2,2E0,2.014397E-1,6.13E2,6.67E-1,-1.2854867E-1,8.1E1,1.07E2,-6.314813E-2,1.1657148E-2,-1.273825E-1,-1.0673181E-1,-5.427144E-3,1.6761005E-1,1.5217207E-1,-1.2578963E-1],"split_indices":[1,1,3,2,3,0,5,1,0,0,0,0,0,0,0,0,0,0,0],"split_type":[0,0,0,0,0,0,0,0,0,0,0,0,0,0,0,0,0,0,0],"sum_hessian":[2.5661342E5,1.616989E5,9.4914516E4,1.6035831E5,1.3405939E3,9.489592E4,1.8593458E1,2.2970023E4,1.373883E5,8.806298E1,1.2525309E3,1.7526184E1,1.0672728E0,1.9453701E4,3.5163228E3,5.19301E0,8.2869965E1,4.0225353E1,1.2123055E3],"tree_param":{"num_deleted":"0","num_feature":"10","num_nodes":"19","size_leaf_vector":"1"}},{"base_weights":[-5.9269864E-2,-1.242083E0,1.828531E0,-1.2447864E0,-9.0765035E-1,1.8290964E-1,-5.2975017E-1,-1.2066624E0,-1.2509868E-1,1.442937E0,-1.1075276E0,-6.11156E-2,1.1595354E-2,-1.2387627E-1,-1.0248468E-1,2.987229E-3,1.555048E-1,1.381371E-1,-1.2222846E-1],"categories":[],"categories_nodes":[],"categories_segments":[],"categories_sizes":[],"default_left":[0,0,0,0,0,0,0,0,0,0,0,0,0,0,0,0,0,0,0],"id":4,"left_children":[1,3,5,7,9,-1,11,13,-1,15,17,-1,-1,-1,-1,-1,-1,-1,-1],"loss_changes":[5.4561775E5,1.13234375E2,1.4484375E2,5.015625E0,6.32636E2,0E0,3.4180517E0,9.952344E1,0E0,1.6319595E1,3.735448E2,0E0,0E0,0E0,0E0,0E0,0E0,0E0,0E0],"parents":[2147483647,0,0,1,1,2,2,3,3,4,4,6,6,7,7,9,9,10,10],"right_children":[2,4,6,8,10,-1,12,14,-1,16,18,-1,-1,-1,-1,-1,-1,-1,-1],"split_conditions":[9.96E-1,9.75E-1,4E0,8.3E-2,2E0,1.8290964E-1,6.13E2,6.67E-1,-1.2509868E-1,1.07E2,1.07E2,-6.11156E-2,1.1595354E-2,-1.2387627E-1,-1.0248468E-1,2.987229E-3,1.555048E-1,1.381371E-1,-1.2222846E-1],"split_indices":[1,1,3,2,3,0,5,1,0,0,0,0,0,0,0,0,0,0,0],"split_type":[0,0,0,0,0,0,0,0,0,0,0,0,0,0,0,0,0,0,0],"sum_hessian":[2.4431183E5,1.5020612E5,9.41057E4,1.4894762E5,1.2584955E3,9.408764E4,1.8062881E1,2.1382863E4,1.2756476E5,8.8879265E1,1.1696162E3,1.6990871E1,1.0720091E0,1.8075324E4,3.307539E3,8.395092E0,8.048417E1,4.1821705E1,1.1277946E3],"tree_param":{"num_deleted":"0","num_feature":"10","num_nodes":"19","size_leaf_vector":"1"}},{"base_weights":[-5.8622714E-2,-1.2120655E0,1.6897428E0,-1.2148306E0,-8.733237E-1,1.6902745E-1,-5.1020384E-1,-1.1745282E0,-1.2214068E-1,1.3059449E0,-1.0764694E0,-5.9193272E-2,1.153368E-2,-1.2084565E-1,-9.851711E-2,-4.080522E-5,1.419564E-1,1.2874739E-1,-1.19492866E-1],"categories":[],"categories_nodes":[],"categories_segments":[],"categories_sizes":[],"default_left":[0,0,0,0,0,0,0,0,0,0,0,0,0,0,0,0,0,0,0],"id":5,"left_children":[1,3,5,7,9,-1,11,13,-1,15,17,-1,-1,-1,-1,-1,-1,-1,-1],"loss_changes":[4.6566794E5,1.0909375E2,1.24609375E2,7.875E0,5.5834E2,0E0,3.2847404E0,1.0386133E2,0E0,1.651094E1,3.406283E2,0E0,0E0,0E0,0E0,0E0,0E0,0E0,0E0],"parents":[2147483647,0,0,1,1,2,2,3,3,4,4,6,6,7,7,9,9,10,10],"right_children":[2,4,6,8,10,-1,12,14,-1,16,18,-1,-1,-1,-1,-1,-1,-1,-1],"split_conditions":[9.96E-1,9.75E-1,4E0,8.3E-2,2E0,1.6902745E-1,6.13E2,6.67E-1,-1.2214068E-1,1.07E2,1.07E2,-5.9193272E-2,1.153368E-2,-1.2084565E-1,-9.851711E-2,-4.080522E-5,1.419564E-1,1.2874739E-1,-1.19492866E-1],"split_indices":[1,1,3,2,5,0,5,1,0,0,0,0,0,0,0,0,0,0,0],"split_type":[0,0,0,0,0,0,0,0,0,0,0,0,0,0,0,0,0,0,0],"sum_hessian":[2.3087253E5,1.3910647E5,9.176606E4,1.379288E5,1.1776803E3,9.174852E4,1.754167E1,1.9852504E4,1.1807629E5,9.116158E1,1.0865187E3,1.646499E1,1.076679E0,1.6744629E4,3.1078752E3,8.888853E0,8.227273E1,4.2429817E1,1.0440889E3],"tree_param":{"num_deleted":"0","num_feature":"10","num_nodes":"19","size_leaf_vector":"1"}},{"base_weights":[-5.791055E-2,-1.186016E0,1.5821744E0,-1.1888475E0,-8.424971E-1,1.5826854E-1,-4.916557E-1,-1.1459204E0,-1.19587876E-1,1.2114979E0,-1.0461459E0,-5.7371527E-2,1.1472129E-2,-1.18204415E-1,-9.476632E-2,-3.954998E-5,1.317868E-1,1.1864548E-1,-1.1678095E-1],"categories":[],"categories_nodes":[],"categories_segments":[],"categories_sizes":[],"default_left":[0,0,0,0,0,0,0,0,0,0,0,0,0,0,0,0,0,0,0],"id":6,"left_children":[1,3,5,7,9,-1,11,13,-1,15,17,-1,-1,-1,-1,-1,-1,-1,-1],"loss_changes":[4.013248E5,1.0496875E2,1.0921875E2,1.1046875E1,4.935501E2,0E0,3.1590176E0,1.0945117E2,0E0,1.4220627E1,3.072362E2,0E0,0E0,0E0,0E0,0E0,0E0,0E0,0E0],"parents":[2147483647,0,0,1,1,2,2,3,3,4,4,6,6,7,7,9,9,10,10],"right_children":[2,4,6,8,10,-1,12,14,-1,16,18,-1,-1,-1,-1,-1,-1,-1,-1],"split_conditions":[9.96E-1,9.75E-1,4E0,8.3E-2,2E0,1.5826854E-1,6.13E2,6.67E-1,-1.19587876E-1,1.07E2,1.07E2,-5.7371527E-2,1.1472129E-2,-1.18204415E-1,-9.476632E-2,-3.954998E-5,1.317868E-1,1.1864548E-1,-1.1678095E-1],"split_indices":[1,1,3,2,5,0,5,1,0,0,0,0,0,0,0,0,0,0,0],"split_type":[0,0,0,0,0,0,0,0,0,0,0,0,0,0,0,0,0,0,0],"sum_hessian":[2.1686994E5,1.2849341E5,8.837653E4,1.2739409E5,1.0993146E3,8.83595E4,1.7031881E1,1.8391113E4,1.0900298E5,9.023438E1,1.00908026E3,1.59506E1,1.0812818E0,1.5472654E4,2.91846E3,8.888749E0,8.1345634E1,4.310157E1,9.659787E2],"tree_param":{"num_deleted":"0","num_feature":"10","num_nodes":"19","size_leaf_vector":"1"}},{"base_weights":[-5.719425E-2,-1.1632546E0,1.4966409E0,-1.1661572E0,-8.144972E-1,1.49714E-1,-4.7402748E-1,-1.1201664E0,-1.1737231E-1,1.1627045E0,-1.0156943E0,-5.5641986E-2,1.1410709E-2,-1.15884654E-1,-9.118275E-2,-5.3763664E-3,1.2361516E-1,1.078191E-1,-1.139813E-1],"categories":[],"categories_nodes":[],"categories_segments":[],"categories_sizes":[],"default_left":[0,0,0,0,0,0,0,0,0,0,0,0,0,0,0,0,0,0,0],"id":7,"left_children":[1,3,5,7,9,-1,11,13,-1,15,17,-1,-1,-1,-1,-1,-1,-1,-1],"loss_changes":[3.4847153E5,1.0090625E2,9.7078125E1,1.4578125E1,4.3892456E2,0E0,3.0402393E0,1.16072266E2,0E0,1.0777359E1,2.7361566E2,0E0,0E0,0E0,0E0,0E0,0E0,0E0,0E0],"parents":[2147483647,0,0,1,1,2,2,3,3,4,4,6,6,7,7,9,9,10,10],"right_children":[2,4,6,8,10,-1,12,14,-1,16,18,-1,-1,-1,-1,-1,-1,-1,-1],"split_conditions":[9.96E-1,9.75E-1,4E0,8.3E-2,2E0,1.49714E-1,6.13E2,6.67E-1,-1.1737231E-1,8.1E1,1.07E2,-5.5641986E-2,1.1410709E-2,-1.15884654E-1,-9.118275E-2,-5.3763664E-3,1.2361516E-1,1.078191E-1,-1.139813E-1],"split_indices":[1,1,3,2,3,0,5,1,0,0,0,0,0,0,0,0,0,0,0],"split_type":[0,0,0,0,0,0,0,0,0,0,0,0,0,0,0,0,0,0,0],"sum_hessian":[2.0272031E5,1.1842637E5,8.4293945E4,1.1740238E5,1.02398676E3,8.4277414E4,1.6535074E1,1.700637E4,1.00396016E5,8.574789E1,9.3823883E2,1.5449257E1,1.0858178E0,1.4266429E4,2.7399412E3,5.1876383E0,8.056025E1,4.3900517E1,8.943383E2],"tree_param":{"num_deleted":"0","num_feature":"10","num_nodes":"19","size_leaf_vector":"1"}},{"base_weights":[-5.65048E-2,-1.1432406E0,1.4272553E0,-1.1462178E0,-7.8892916E-1,1.4277491E-1,-4.5725054E-1,-1.0967228E0,-1.1544001E-1,1.0649142E0,-9.938804E-1,-5.3997327E-2,1.1349423E-2,-1.1383208E-1,-8.772735E-2,-1.5062601E-3,1.1667249E-1,1.02541365E-1,-1.1223656E-1],"categories":[],"categories_nodes":[],"categories_segments":[],"categories_sizes":[],"default_left":[0,0,0,0,0,0,0,0,0,0,0,0,0,0,0,0,0,0,0],"id":8,"left_children":[1,3,5,7,9,-1,11,13,-1,15,17,-1,-1,-1,-1,-1,-1,-1,-1],"loss_changes":[3.0437384E5,9.6859375E1,8.73125E1,1.8421875E1,3.905221E2,0E0,2.9278383E0,1.23552734E2,0E0,1.2053627E1,2.5280939E2,0E0,0E0,0E0,0E0,0E0,0E0,0E0,0E0],"parents":[2147483647,0,0,1,1,2,2,3,3,4,4,6,6,7,7,9,9,10,10],"right_children":[2,4,6,8,10,-1,12,14,-1,16,18,-1,-1,-1,-1,-1,-1,-1,-1],"split_conditions":[9.96E-1,9.75E-1,4E0,8.3E-2,2E0,1.4277491E-1,6.13E2,6.67E-1,-1.1544001E-1,1.07E2,1.07E2,-5.3997327E-2,1.1349423E-2,-1.1383208E-1,-8.772735E-2,-1.5062601E-3,1.1667249E-1,1.02541365E-1,-1.1223656E-1],"split_indices":[1,1,3,2,5,0,5,1,0,0,0,0,0,0,0,0,0,0,0],"split_type":[0,0,0,0,0,0,0,0,0,0,0,0,0,0,0,0,0,0,0],"sum_hessian":[1.8872398E5,1.0893926E5,7.978472E4,1.0798714E5,9.521187E2,7.9768664E4,1.6052383E1,1.5702539E4,9.22846E4,8.6428566E1,8.656902E2,1.4962097E1,1.0902865E0,1.31299375E4,2.5726016E3,8.913884E0,7.751469E1,4.3435436E1,8.222547E2],"tree_param":{"num_deleted":"0","num_feature":"10","num_nodes":"19","size_leaf_vector":"1"}},{"base_weights":[-5.5854723E-2,-1.1255325E0,1.3700618E0,-1.1285913E0,-7.650654E-1,1.3705555E-1,-4.412642E-1,-1.0751429E0,-1.1374755E-1,3.9536163E-1,-1.0967684E0,-5.2431095E-2,1.1288277E-2,-1.12002626E-1,-8.436944E-2,1.0331541E-1,-1.4312978E-2,8.993076E-3,-1.10197864E-1],"categories":[],"categories_nodes":[],"categories_segments":[],"categories_sizes":[],"default_left":[0,0,0,0,0,0,0,0,0,0,0,0,0,0,0,0,0,0,0],"id":9,"left_children":[1,3,5,7,9,-1,11,13,-1,15,17,-1,-1,-1,-1,-1,-1,-1,-1],"loss_changes":[2.6712797E5,9.307031E1,7.921875E1,2.2632812E1,3.5667688E2,0E0,2.82132E0,1.3174414E2,0E0,7.703334E1,6.3623047E0,0E0,0E0,0E0,0E0,0E0,0E0,0E0,0E0],"parents":[2147483647,0,0,1,1,2,2,3,3,4,4,6,6,7,7,9,9,10,10],"right_children":[2,4,6,8,10,-1,12,14,-1,16,18,-1,-1,-1,-1,-1,-1,-1,-1],"split_conditions":[9.96E-1,9.75E-1,4E0,8.3E-2,3E0,1.3705555E-1,6.13E2,6.67E-1,-1.1374755E-1,2E0,2E0,-5.2431095E-2,1.1288277E-2,-1.12002626E-1,-8.436944E-2,1.0331541E-1,-1.4312978E-2,8.993076E-3,-1.10197864E-1],"split_indices":[1,1,3,2,3,0,5,1,0,3,5,0,0,0,0,0,0,0,0],"split_type":[0,0,0,0,0,0,0,0,0,0,0,0,0,0,0,0,0,0,0],"sum_hessian":[1.7509453E5,1.0004678E5,7.504774E4,9.916268E4,8.8410236E2,7.503216E4,1.5584601E1,1.4481315E4,8.468137E4,1.956842E2,6.8841815E2,1.4489913E1,1.0946879E0,1.2064865E4,2.4164507E3,8.117173E1,1.1451247E2,1.5877291E0,6.868304E2],"tree_param":{"num_deleted":"0","num_feature":"10","num_nodes":"19","size_leaf_vector":"1"}},{"base_weights":[-5.525946E-2,-1.1097245E0,1.3222979E0,-1.1129192E0,-7.399161E-1,1.322796E-1,-4.2601487E-1,-1.0550542E0,-1.1225957E-1,3.6964774E-1,-1.0787307E0,-5.0937593E-2,1.1227274E-2,-1.1036008E-1,-8.10852E-2,9.729486E-2,-1.3168211E-2,8.9235725E-3,-1.0843314E-1],"categories":[],"categories_nodes":[],"categories_segments":[],"categories_sizes":[],"default_left":[0,0,0,0,0,0,0,0,0,0,0,0,0,0,0,0,0,0,0],"id":10,"left_children":[1,3,5,7,9,-1,11,13,-1,15,17,-1,-1,-1,-1,-1,-1,-1,-1],"loss_changes":[2.3535623E5,9.196094E1,7.2421875E1,2.7242188E1,3.2590424E2,0E0,2.720243E0,1.4051758E2,0E0,6.690242E1,6.206604E0,0E0,0E0,0E0,0E0,0E0,0E0,0E0,0E0],"parents":[2147483647,0,0,1,1,2,2,3,3,4,4,6,6,7,7,9,9,10,10],"right_children":[2,4,6,8,10,-1,12,14,-1,16,18,-1,-1,-1,-1,-1,-1,-1,-1],"split_conditions":[9.96E-1,9.75E-1,4E0,8.3E-2,3E0,1.322796E-1,6.13E2,6.67E-1,-1.1225957E-1,2E0,2E0,-5.0937593E-2,1.1227274E-2,-1.1036008E-1,-8.10852E-2,9.729486E-2,-1.3168211E-2,8.9235725E-3,-1.0843314E-1],"split_indices":[1,1,3,2,3,0,5,1,0,3,5,0,0,0,0,0,0,0,0],"split_type":[0,0,0,0,0,0,0,0,0,0,0,0,0,0,0,0,0,0,0],"sum_hessian":[1.6198545E5,9.175476E4,7.02307E4,9.0929055E4,8.2569946E2,7.021557E4,1.5132232E1,1.3342481E4,7.758657E4,1.9272752E2,6.329719E2,1.4033211E1,1.0990217E0,1.1071183E4,2.2712996E3,7.892926E1,1.1379826E2,1.5954719E0,6.3137646E2],"tree_param":{"num_deleted":"0","num_feature":"10","num_nodes":"19","size_leaf_vector":"1"}},{"base_weights":[-5.4709714E-2,-1.0955592E0,1.2819742E0,-1.0989041E0,-7.156808E-1,1.2824802E-1,-4.114546E-1,-1.0361418E0,-1.1094697E-1,3.4600276E-1,-1.0620942E0,-4.9511775E-2,1.1166421E-2,-1.08874224E-1,-7.785659E-2,1.18913405E-1,5.551899E-4,8.85434E-3,-1.06812194E-1],"categories":[],"categories_nodes":[],"categories_segments":[],"categories_sizes":[],"default_left":[0,0,0,0,0,0,0,0,0,0,0,0,0,0,0,0,0,0,0],"id":11,"left_children":[1,3,5,7,9,-1,11,13,-1,15,17,-1,-1,-1,-1,-1,-1,-1,-1],"loss_changes":[2.0803803E5,9.108594E1,6.664844E1,3.2242188E1,2.9831143E2,0E0,2.624216E0,1.4975586E2,0E0,6.00655E1,6.062744E0,0E0,0E0,0E0,0E0,0E0,0E0,0E0,0E0],"parents":[2147483647,0,0,1,1,2,2,3,3,4,4,6,6,7,7,9,9,10,10],"right_children":[2,4,6,8,10,-1,12,14,-1,16,18,-1,-1,-1,-1,-1,-1,-1,-1],"split_conditions":[9.96E-1,9.75E-1,4E0,8.3E-2,3E0,1.2824802E-1,6.13E2,6.67E-1,-1.1094697E-1,8.3E-2,2E0,-4.9511775E-2,1.1166421E-2,-1.08874224E-1,-7.785659E-2,1.18913405E-1,5.551899E-4,8.85434E-3,-1.06812194E-1],"split_indices":[1,1,3,2,3,0,5,1,0,2,5,0,0,0,0,0,0,0,0],"split_type":[0,0,0,0,0,0,0,0,0,0,0,0,0,0,0,0,0,0,0],"sum_hessian":[1.4948903E5,8.404694E4,6.544209E4,8.327581E4,7.711267E2,6.5427395E4,1.4695548E1,1.2284417E4,7.09914E4,1.8971478E2,5.814119E2,1.359226E1,1.1032877E0,1.0147604E4,2.1368142E3,4.022948E1,1.494853E2,1.6031466E0,5.798088E2],"tree_param":{"num_deleted":"0","num_feature":"10","num_nodes":"19","size_leaf_vector":"1"}},{"base_weights":[-5.419805E-2,-1.082739E0,1.2476184E0,-1.0862975E0,-6.88648E-1,1.2481358E-1,-3.975403E-1,-1.0181363E0,-1.0978563E-1,3.2328105E-1,-1.046601E0,-4.814911E-2,1.1105723E-2,-1.07519604E-1,-7.467053E-2,9.1802955E-2,-1.5753862E-2,8.785383E-3,-1.0530945E-1],"categories":[],"categories_nodes":[],"categories_segments":[],"categories_sizes":[],"default_left":[0,0,0,0,0,0,0,0,0,0,0,0,0,0,0,0,0,0,0],"id":12,"left_children":[1,3,5,7,9,-1,11,13,-1,15,17,-1,-1,-1,-1,-1,-1,-1,-1],"loss_changes":[1.8438792E5,9.292969E1,6.1640625E1,3.7671875E1,2.75922E2,0E0,2.5328913E0,1.5933398E2,0E0,6.278665E1,5.928589E0,0E0,0E0,0E0,0E0,0E0,0E0,0E0,0E0],"parents":[2147483647,0,0,1,1,2,2,3,3,4,4,6,6,7,7,9,9,10,10],"right_children":[2,4,6,8,10,-1,12,14,-1,16,18,-1,-1,-1,-1,-1,-1,-1,-1],"split_conditions":[9.96E-1,9.75E-1,4E0,8.3E-2,3E0,1.2481358E-1,6.13E2,6.67E-1,-1.0978563E-1,2E0,2E0,-4.814911E-2,1.1105723E-2,-1.07519604E-1,-7.467053E-2,9.1802955E-2,-1.5753862E-2,8.785383E-3,-1.0530945E-1],"split_indices":[1,1,3,2,3,0,5,1,0,3,5,0,0,0,0,0,0,0,0],"split_type":[0,0,0,0,0,0,0,0,0,0,0,0,0,0,0,0,0,0,0],"sum_hessian":[1.3766844E5,7.6908125E4,6.076031E4,7.618506E4,7.2306433E2,6.0746035E4,1.4274634E1,1.130451E4,6.4880555E4,1.8944446E2,5.336199E2,1.3167149E1,1.1074859E0,9.291946E3,2.0125636E3,7.6559E1,1.1288545E2,1.6107533E0,5.320091E2],"tree_param":{"num_deleted":"0","num_feature":"10","num_nodes":"19","size_leaf_vector":"1"}},{"base_weights":[-5.3733733E-2,-1.0711474E0,1.2181178E0,-1.0748888E0,-6.657747E-1,1.2186173E0,-4.431188E-2,-1.0008042E0,-1.0875533E-1,3.0328473E-1,-1.0320309E0,1.2186497E-1,4.3924242E-2,-1.0627451E-1,-7.151808E-2,1.1247362E-1,-2.9576963E-3,8.716709E-3,-1.0390305E-1,-7.138139E-3,1.1872948E-2],"categories":[],"categories_nodes":[],"categories_segments":[],"categories_sizes":[],"default_left":[0,0,0,0,0,0,0,0,0,0,0,0,0,0,0,0,0,0,0,0,0],"id":13,"left_children":[1,3,5,7,9,11,-1,13,-1,15,17,-1,19,-1,-1,-1,-1,-1,-1,-1,-1],"loss_changes":[1.6380756E5,9.235156E1,5.7484375E1,4.3585938E1,2.5318997E2,1.0625E0,0E0,1.6913672E2,0E0,5.706961E1,5.802368E0,0E0,3.6177388E-1,0E0,0E0,0E0,0E0,0E0,0E0,0E0,0E0],"parents":[2147483647,0,0,1,1,2,2,3,3,4,4,5,5,7,7,9,9,10,10,12,12],"right_children":[2,4,6,8,10,12,-1,14,-1,16,18,-1,20,-1,-1,-1,-1,-1,-1,-1,-1],"split_conditions":[9.96E-1,9.75E-1,2E0,8.3E-2,3E0,4E0,-4.431188E-2,6.67E-1,-1.0875533E-1,8.3E-2,2E0,1.2186497E-1,1.495E3,-1.0627451E-1,-7.151808E-2,1.1247362E-1,-2.9576963E-3,8.716709E-3,-1.0390305E-1,-7.138139E-3,1.1872948E-2],"split_indices":[1,1,7,2,3,3,0,1,0,2,5,0,0,0,0,0,0,0,0,0,0],"split_type":[0,0,0,0,0,0,0,0,0,0,0,0,0,0,0,0,0,0,0,0,0],"sum_hessian":[1.2655E5,7.030938E4,5.6240613E4,6.963366E4,6.7572644E2,5.6229035E4,1.1578175E1,1.0399455E4,5.9234203E4,1.8628438E2,4.8944205E2,5.6226746E4,2.29125E0,8.501408E3,1.8980475E3,3.9997326E1,1.4628705E2,1.6182913E0,4.8782373E2,1.2617613E0,1.0294887E0],"tree_param":{"num_deleted":"0","num_feature":"10","num_nodes":"21","size_leaf_vector":"1"}},{"base_weights":[-5.3300444E-2,-1.0605032E0,1.1926119E0,-1.064498E0,-6.3979006E-1,1.1931299E0,-4.3168675E-2,-9.8394185E-1,-1.0783904E-1,8.696254E-1,-8.6287224E-1,1.1931638E-1,4.3780465E-2,-1.051202E-1,-6.8394E-2,-7.114924E-3,9.8498665E-2,8.3885916E-2,-1.0298039E-1,-7.1098367E-3,1.1825799E-2],"categories":[],"categories_nodes":[],"categories_segments":[],"categories_sizes":[],"default_left":[0,0,0,0,0,0,0,0,0,0,0,0,0,0,0,0,0,0,0,0,0],"id":14,"left_children":[1,3,5,7,9,11,-1,13,-1,15,17,-1,19,-1,-1,-1,-1,-1,-1,-1,-1],"loss_changes":[1.4580556E5,9.435156E1,5.3992188E1,4.996875E1,2.3537476E2,9.765625E-1,0E0,1.7904004E2,0E0,1.1628258E1,1.8210086E2,0E0,3.5886884E-1,0E0,0E0,0E0,0E0,0E0,0E0,0E0,0E0],"parents":[2147483647,0,0,1,1,2,2,3,3,4,4,5,5,7,7,9,9,10,10,12,12],"right_children":[2,4,6,8,10,12,-1,14,-1,16,18,-1,20,-1,-1,-1,-1,-1,-1,-1,-1],"split_conditions":[9.96E-1,9.75E-1,2E0,8.3E-2,2E0,4E0,-4.3168675E-2,6.67E-1,-1.0783904E-1,1.07E2,1.07E2,1.1931638E-1,1.18E-1,-1.051202E-1,-6.8394E-2,-7.114924E-3,9.8498665E-2,8.3885916E-2,-1.0298039E-1,-7.1098367E-3,1.1825799E-2],"split_indices":[1,1,7,2,3,3,0,1,0,0,0,0,2,0,0,0,0,0,0,0,0],"split_type":[0,0,0,0,0,0,0,0,0,0,0,0,0,0,0,0,0,0,0,0,0],"sum_hessian":[1.16150086E5,6.4229535E4,5.192055E4,6.359509E4,6.3444543E2,5.190931E4,1.1243181E1,9.565502E3,5.402959E4,7.42296E1,5.602159E2,5.190702E4,2.2898827E0,7.7727734E3,1.7927285E3,8.945303E0,6.52843E1,4.285375E1,5.173621E2,1.2575647E0,1.0323181E0],"tree_param":{"num_deleted":"0","num_feature":"10","num_nodes":"21","size_leaf_vector":"1"}},{"base_weights":[-5.2895665E-2,-1.0508282E0,1.1704301E0,-1.0549694E0,-6.208131E-1,1.1709692E0,-4.207205E-2,-9.67369E-1,-1.07022285E-1,2.8177866E-1,-1.0046818E0,1.1710049E-1,4.3634493E-2,-1.0404029E-1,-6.5296195E-2,8.287599E-2,-1.6067384E-2,9.440136E-3,-1.01301216E-1,-7.069848E-3,1.1765092E-2],"categories":[],"categories_nodes":[],"categories_segments":[],"categories_sizes":[],"default_left":[0,0,0,0,0,0,0,0,0,0,0,0,0,0,0,0,0,0,0,0,0],"id":15,"left_children":[1,3,5,7,9,11,-1,13,-1,15,17,-1,19,-1,-1,-1,-1,-1,-1,-1,-1],"loss_changes":[1.3000606E5,9.133984E1,5.090625E1,5.6875E1,2.1632521E2,9.0625E-1,0E0,1.8891016E2,0E0,5.0350914E1,5.8584595E0,0E0,3.5497147E-1,0E0,0E0,0E0,0E0,0E0,0E0,0E0,0E0],"parents":[2147483647,0,0,1,1,2,2,3,3,4,4,5,5,7,7,9,9,10,10,12,12],"right_children":[2,4,6,8,10,12,-1,14,-1,16,18,-1,20,-1,-1,-1,-1,-1,-1,-1,-1],"split_conditions":[9.96E-1,9.75E-1,2E0,8.3E-2,3E0,4E0,-4.207205E-2,6.67E-1,-1.07022285E-1,2E0,2E0,1.1710049E-1,1.18E-1,-1.0404029E-1,-6.5296195E-2,8.287599E-2,-1.6067384E-2,9.440136E-3,-1.01301216E-1,-7.069848E-3,1.1765092E-2],"split_indices":[1,1,7,2,3,3,0,1,0,3,5,0,2,0,0,0,0,0,0,0,0],"split_type":[0,0,0,0,0,0,0,0,0,0,0,0,0,0,0,0,0,0,0,0,0],"sum_hessian":[1.06452664E5,5.862881E4,4.7823855E4,5.8040793E4,5.880156E2,4.7812934E4,1.0920512E1,8.798639E3,4.9242156E4,1.7704594E2,4.109697E2,4.7810645E4,2.288484E0,7.10259E3,1.696049E3,7.1362305E1,1.0568363E2,1.5370309E0,4.0943268E2,1.2516317E0,1.0368524E0],"tree_param":{"num_deleted":"0","num_feature":"10","num_nodes":"21","size_leaf_vector":"1"}},{"base_weights":[-5.253429E-2,-1.0417936E0,1.1510371E0,-1.0461677E0,-5.9924424E-1,1.1516004E0,-4.101939E-2,-9.50926E-1,-1.0629272E-1,2.6495054E-1,-9.9180996E-1,1.15163825E-1,4.3484844E-2,-1.0302035E-1,-6.222521E-2,1.0291737E-1,-5.960397E-3,9.369034E-3,-1.0008003E-1,-7.0421146E-3,1.1718021E-2],"categories":[],"categories_nodes":[],"categories_segments":[],"categories_sizes":[],"default_left":[0,0,0,0,0,0,0,0,0,0,0,0,0,0,0,0,0,0,0,0,0],"id":16,"left_children":[1,3,5,7,9,11,-1,13,-1,15,17,-1,19,-1,-1,-1,-1,-1,-1,-1,-1],"loss_changes":[1.1608306E5,9.104297E1,4.8128906E1,6.4328125E1,1.9881245E2,8.515625E-1,0E0,1.9861963E2,0E0,4.9344738E1,5.7450867E0,0E0,3.521246E-1,0E0,0E0,0E0,0E0,0E0,0E0,0E0,0E0],"parents":[2147483647,0,0,1,1,2,2,3,3,4,4,5,5,7,7,9,9,10,10,12,12],"right_children":[2,4,6,8,10,12,-1,14,-1,16,18,-1,20,-1,-1,-1,-1,-1,-1,-1,-1],"split_conditions":[9.96E-1,9.75E-1,2E0,8.3E-2,3E0,4E0,-4.101939E-2,6.67E-1,-1.0629272E-1,8.3E-2,2E0,1.15163825E-1,1.495E3,-1.0302035E-1,-6.222521E-2,1.0291737E-1,-5.960397E-3,9.369034E-3,-1.0008003E-1,-7.0421146E-3,1.1718021E-2],"split_indices":[1,1,7,2,3,3,0,1,0,2,5,0,0,0,0,0,0,0,0,0,0],"split_type":[0,0,0,0,0,0,0,0,0,0,0,0,0,0,0,0,0,0,0,0,0],"sum_hessian":[9.745586E4,5.3491734E4,4.3964125E4,5.29412E4,5.505379E2,4.3953516E4,1.0609896E1,8.094725E3,4.4846473E4,1.7399863E2,3.7653928E2,4.3951227E4,2.287066E0,6.48728E3,1.6074457E3,3.892407E1,1.3507455E2,1.5451968E0,3.7499408E2,1.2474886E0,1.0395775E0],"tree_param":{"num_deleted":"0","num_feature":"10","num_nodes":"21","size_leaf_vector":"1"}},{"base_weights":[-5.2192144E-2,-1.0332882E0,1.1340015E0,-1.0379732E0,-5.744928E-1,1.1345917E0,-4.0008303E-2,-9.3447053E-1,-1.0563969E-1,7.6545274E-1,-8.143184E-1,5.935372E-1,1.1352968E-1,-1.0204744E-1,-5.9183933E-2,-1.21324565E-2,8.972601E-2,7.693668E-2,-1.0033683E-1,8.022245E-2,-7.7200636E-2],"categories":[],"categories_nodes":[],"categories_segments":[],"categories_sizes":[],"default_left":[0,0,0,0,0,0,0,0,0,0,0,0,0,0,0,0,0,0,0,0,0],"id":17,"left_children":[1,3,5,7,9,11,-1,13,-1,15,17,19,-1,-1,-1,-1,-1,-1,-1,-1,-1],"loss_changes":[1.03775445E5,9.298047E1,4.5628906E1,7.233203E1,1.8539069E2,1.9140625E0,0E0,2.0803271E2,0E0,1.2930538E1,1.5499112E2,3.929659E1,0E0,0E0,0E0,0E0,0E0,0E0,0E0,0E0,0E0],"parents":[2147483647,0,0,1,1,2,2,3,3,4,4,5,5,7,7,9,9,10,10,11,11],"right_children":[2,4,6,8,10,12,-1,14,-1,16,18,20,-1,-1,-1,-1,-1,-1,-1,-1,-1],"split_conditions":[9.96E-1,9.75E-1,2E0,8.3E-2,2E0,9.97E-1,-4.0008303E-2,6.67E-1,-1.0563969E-1,1.07E2,1.07E2,2E0,1.1352968E-1,-1.0204744E-1,-5.9183933E-2,-1.21324565E-2,8.972601E-2,7.693668E-2,-1.0033683E-1,8.022245E-2,-7.7200636E-2],"split_indices":[1,1,7,2,5,1,0,1,0,0,0,3,0,0,0,0,0,0,0,0,0],"split_type":[0,0,0,0,0,0,0,0,0,0,0,0,0,0,0,0,0,0,0,0,0],"sum_hessian":[8.913165E4,4.878464E4,4.0347008E4,4.8266527E4,5.181127E2,4.0336695E4,1.031102E1,7.4496084E3,4.0816918E4,7.20004E1,4.4611227E2,7.4430984E1,4.0262266E4,5.9232466E3,1.5263619E3,9.522853E0,6.247754E1,4.102765E1,4.0508463E2,7.1720825E1,2.7101588E0],"tree_param":{"num_deleted":"0","num_feature":"10","num_nodes":"21","size_leaf_vector":"1"}},{"base_weights":[-5.1867556E-2,-1.0254136E0,1.1189672E0,-9.0972316E-1,-1.0469805E0,1.1196355E0,-3.365041E-1,-1.0110996E-1,-5.823038E-1,-1.050598E-1,-2.401982E-1,5.7440853E-1,1.1203521E-1,-4.2021327E-2,1.0551466E-2,4.323488E-1,-1.06374085E-1,7.5966276E-2,-9.0376146E-2,7.77649E-2,-7.472371E-2],"categories":[],"categories_nodes":[],"categories_segments":[],"categories_sizes":[],"default_left":[0,0,0,0,0,0,0,0,0,0,0,0,0,0,0,0,0,0,0,0,0],"id":18,"left_children":[1,3,5,7,9,11,13,-1,15,-1,17,19,-1,-1,-1,-1,-1,-1,-1,-1,-1],"loss_changes":[9.287672E4,9.194531E1,4.351953E1,2.2531348E2,1.0401172E2,1.578125E0,2.0840058E0,0E0,4.1918145E3,0E0,1.415971E2,3.568454E1,0E0,0E0,0E0,0E0,0E0,0E0,0E0,0E0,0E0],"parents":[2147483647,0,0,1,1,2,2,3,3,4,4,5,5,6,6,8,8,10,10,11,11],"right_children":[2,4,6,8,10,12,14,-1,16,-1,18,20,-1,-1,-1,-1,-1,-1,-1,-1,-1],"split_conditions":[9.96E-1,8.3E-2,4E0,6.67E-1,9.8E-1,9.97E-1,6.13E2,-1.0110996E-1,3E0,-1.050598E-1,2E0,2E0,1.1203521E-1,-4.2021327E-2,1.0551466E-2,4.323488E-1,-1.06374085E-1,7.5966276E-2,-9.0376146E-2,7.77649E-2,-7.472371E-2],"split_indices":[1,2,3,1,1,1,5,0,3,0,5,3,0,0,0,0,0,0,0,0,0],"split_type":[0,0,0,0,0,0,0,0,0,0,0,0,0,0,0,0,0,0,0,0,0],"sum_hessian":[8.144056E4,4.4468008E4,3.6972555E4,7.122807E3,3.7345203E4,3.69602E4,1.2356763E1,5.4069355E3,1.7158716E3,3.717248E4,1.7272284E2,6.958196E1,3.6890617E4,1.121879E1,1.137973E0,1.3907767E2,1.576794E3,6.774612E1,1.04976715E2,6.744283E1,2.1391351E0],"tree_param":{"num_deleted":"0","num_feature":"10","num_nodes":"21","size_leaf_vector":"1"}},{"base_weights":[-5.1650077E-2,-1.018369E0,1.1056569E0,-8.9534396E-1,-1.0415599E0,1.106309E0,-3.806144E-2,-1.00197256E-1,-5.614373E-1,-1.0453311E-1,-2.3071294E-1,5.3014714E-1,1.107127E-1,3.1482542E-1,-1.0543039E-1,7.1998574E-2,-8.8409014E-2,7.5377226E-2,-7.480735E-2],"categories":[],"categories_nodes":[],"categories_segments":[],"categories_sizes":[],"default_left":[0,0,0,0,0,0,0,0,0,0,0,0,0,0,0,0,0,0,0],"id":19,"left_children":[1,3,5,7,9,11,-1,-1,13,-1,15,17,-1,-1,-1,-1,-1,-1,-1],"loss_changes":[8.32223E4,9.698047E1,4.1242188E1,2.2269531E2,9.908203E1,4.2109375E0,0E0,0E0,3.0574468E3,0E0,1.26382645E2,3.5962387E1,0E0,0E0,0E0,0E0,0E0,0E0,0E0],"parents":[2147483647,0,0,1,1,2,2,3,3,4,4,5,5,8,8,10,10,11,11],"right_children":[2,4,6,8,10,12,-1,-1,14,-1,16,18,-1,-1,-1,-1,-1,-1,-1],"split_conditions":[9.96E-1,8.3E-2,2E0,6.67E-1,9.8E-1,9.97E-1,-3.806144E-2,-1.00197256E-1,3E0,-1.0453311E-1,2E0,2E0,1.107127E-1,3.1482542E-1,-1.0543039E-1,7.1998574E-2,-8.8409014E-2,7.5377226E-2,-7.480735E-2],"split_indices":[1,2,7,1,1,1,0,0,3,0,5,3,0,0,0,0,0,0,0],"split_type":[0,0,0,0,0,0,0,0,0,0,0,0,0,0,0,0,0,0,0],"sum_hessian":[7.434583E4,4.050974E4,3.3836094E4,6.5507964E3,3.395894E4,3.3826363E4,9.730737E0,4.9348906E3,1.6159058E3,3.3795973E4,1.6296594E2,6.635829E1,3.3760008E4,1.7687282E2,1.439033E3,6.55493E1,9.741663E1,6.346158E1,2.8967085E0],"tree_param":{"num_deleted":"0","num_feature":"10","num_nodes":"19","size_leaf_vector":"1"}},{"base_weights":[-5.145189E-2,-1.0116973E0,1.0938112E0,-8.8088775E-1,-1.036651E0,1.0945586E0,-3.21072E-1,-9.929954E-2,-5.4076016E-1,-1.04058795E-1,-2.2169782E-1,5.120492E-1,1.0953994E-1,-4.024682E-2,1.0023677E-2,2.4270885E-1,-1.0455916E-1,6.8253994E-2,-8.6457066E-2,7.305213E-2,-7.239741E-2],"categories":[],"categories_nodes":[],"categories_segments":[],"categories_sizes":[],"default_left":[0,0,0,0,0,0,0,0,0,0,0,0,0,0,0,0,0,0,0,0,0],"id":20,"left_children":[1,3,5,7,9,11,13,-1,15,-1,17,19,-1,-1,-1,-1,-1,-1,-1,-1,-1],"loss_changes":[7.463154E4,1.0222266E2,3.9757812E1,2.198247E2,9.448047E1,3.9335938E0,1.8975701E0,0E0,2.3623618E3,0E0,1.12894394E2,3.2759922E1,0E0,0E0,0E0,0E0,0E0,0E0,0E0,0E0,0E0],"parents":[2147483647,0,0,1,1,2,2,3,3,4,4,5,5,6,6,8,8,10,10,11,11],"right_children":[2,4,6,8,10,12,14,-1,16,-1,18,20,-1,-1,-1,-1,-1,-1,-1,-1,-1],"split_conditions":[9.96E-1,8.3E-2,4E0,6.67E-1,9.8E-1,9.97E-1,6.13E2,-9.929954E-2,3E0,-1.04058795E-1,2E0,2E0,1.0953994E-1,-4.024682E-2,1.0023677E-2,2.4270885E-1,-1.0455916E-1,6.8253994E-2,-8.6457066E-2,7.305213E-2,-7.239741E-2],"split_indices":[1,2,3,1,1,1,5,0,3,0,5,3,0,0,0,0,0,0,0,0,0],"split_type":[0,0,0,0,0,0,0,0,0,0,0,0,0,0,0,0,0,0,0,0,0],"sum_hessian":[6.7823164E4,3.689277E4,3.0930396E4,6.02664E3,3.0866129E4,3.0918592E4,1.1806223E1,4.503782E3,1.5228579E3,3.0712225E4,1.5390436E2,6.2145744E1,3.0856445E4,1.0644171E1,1.162052E0,2.1031058E2,1.3125474E3,6.3439278E1,9.046507E1,5.9762054E1,2.3836908E0],"tree_param":{"num_deleted":"0","num_feature":"10","num_nodes":"21","size_leaf_vector":"1"}},{"base_weights":[-5.1265728E-2,-1.0053495E0,1.0832465E0,-8.66398E-1,-1.0321915E0,1.0840343E0,-3.1115875E-1,-9.840771E-2,-5.2055573E-1,-1.0363076E-1,-2.1312772E-1,4.820204E-1,1.0849487E-1,-3.9264794E-2,9.967247E-3,1.9481547E-1,-1.0374879E-1,6.470998E-2,-8.451575E-2,7.07842E-2,-7.121431E-2],"categories":[],"categories_nodes":[],"categories_segments":[],"categories_sizes":[],"default_left":[0,0,0,0,0,0,0,0,0,0,0,0,0,0,0,0,0,0,0,0,0],"id":21,"left_children":[1,3,5,7,9,11,13,-1,15,-1,17,19,-1,-1,-1,-1,-1,-1,-1,-1,-1],"loss_changes":[6.697578E4,1.0747266E2,3.7796875E1,2.1628223E2,9.019336E1,5.09375E0,1.8372989E0,0E0,1.8979463E3,0E0,1.0091977E2,3.1341084E1,0E0,0E0,0E0,0E0,0E0,0E0,0E0,0E0,0E0],"parents":[2147483647,0,0,1,1,2,2,3,3,4,4,5,5,6,6,8,8,10,10,11,11],"right_children":[2,4,6,8,10,12,14,-1,16,-1,18,20,-1,-1,-1,-1,-1,-1,-1,-1,-1],"split_conditions":[9.96E-1,8.3E-2,4E0,6.67E-1,9.8E-1,9.97E-1,6.13E2,-9.840771E-2,3E0,-1.0363076E-1,2E0,2E0,1.0849487E-1,-3.9264794E-2,9.967247E-3,1.9481547E-1,-1.0374879E-1,6.470998E-2,-8.451575E-2,7.07842E-2,-7.121431E-2],"split_indices":[1,2,3,1,1,1,5,0,3,0,5,3,0,0,0,0,0,0,0,0,0],"split_type":[0,0,0,0,0,0,0,0,0,0,0,0,0,0,0,0,0,0,0,0,0],"sum_hessian":[6.1835863E4,3.359009E4,2.8245775E4,5.546002E3,2.8044088E4,2.8234275E4,1.1500275E1,4.110441E3,1.4355609E3,2.7898586E4,1.4550214E2,5.883541E1,2.817544E4,1.0335421E1,1.1648543E0,2.3896468E2,1.1965962E3,6.142392E1,8.4078224E1,5.6328426E1,2.5069838E0],"tree_param":{"num_deleted":"0","num_feature":"10","num_nodes":"21","size_leaf_vector":"1"}},{"base_weights":[-5.1094465E-2,-9.99273E-1,1.0737814E0,-8.518666E-1,-1.0281267E0,1.0746133E0,-3.0163953E-1,-9.751319E-2,-5.009438E-1,-1.0324364E-1,-2.0498408E-1,4.5277965E-1,1.07560955E-1,-3.832035E-2,9.911041E-3,1.6099057E-1,-1.0298897E-1,6.134845E-2,-8.258208E-2,6.856953E-2,-7.001596E-2],"categories":[],"categories_nodes":[],"categories_segments":[],"categories_sizes":[],"default_left":[0,0,0,0,0,0,0,0,0,0,0,0,0,0,0,0,0,0,0,0,0],"id":22,"left_children":[1,3,5,7,9,11,13,-1,15,-1,17,19,-1,-1,-1,-1,-1,-1,-1,-1,-1],"loss_changes":[6.014261E4,1.1261914E2,3.5996094E1,2.1193408E2,8.6197266E1,6.2304688E0,1.7796404E0,0E0,1.5666586E3,0E0,9.02763E1,2.9950466E1,0E0,0E0,0E0,0E0,0E0,0E0,0E0,0E0,0E0],"parents":[2147483647,0,0,1,1,2,2,3,3,4,4,5,5,6,6,8,8,10,10,11,11],"right_children":[2,4,6,8,10,12,14,-1,16,-1,18,20,-1,-1,-1,-1,-1,-1,-1,-1,-1],"split_conditions":[9.96E-1,8.3E-2,4E0,6.67E-1,9.8E-1,9.97E-1,6.13E2,-9.751319E-2,3E0,-1.0324364E-1,2E0,2E0,1.07560955E-1,-3.832035E-2,9.911041E-3,1.6099057E-1,-1.0298897E-1,6.134845E-2,-8.258208E-2,6.856953E-2,-7.001596E-2],"split_indices":[1,2,3,1,1,1,5,0,3,0,5,3,0,0,0,0,0,0,0,0,0],"split_type":[0,0,0,0,0,0,0,0,0,0,0,0,0,0,0,0,0,0,0,0,0],"sum_hessian":[5.6347996E4,3.0576627E4,2.577137E4,5.1053184E3,2.5471309E4,2.5760162E4,1.120686E1,3.7518623E3,1.3534559E3,2.5333588E4,1.3772125E2,5.5775406E1,2.5704387E4,1.0039266E1,1.167594E0,2.6300742E2,1.0904485E3,5.9507492E1,7.821376E1,5.3144478E1,2.6309285E0],"tree_param":{"num_deleted":"0","num_feature":"10","num_nodes":"21","size_leaf_vector":"1"}},{"base_weights":[-5.0936963E-2,-9.9341184E-1,1.0652694E0,-8.372463E-1,-1.0244075E0,1.0660845E0,-3.455399E-2,-9.660789E-2,-4.8193085E-1,-1.0289266E-1,-1.9725114E-1,4.1251206E-1,1.0672238E-1,1.3589714E-1,-1.0227048E-1,5.815504E-2,-8.065439E-2,6.640538E-2,-6.9893375E-2],"categories":[],"categories_nodes":[],"categories_segments":[],"categories_sizes":[],"default_left":[0,0,0,0,0,0,0,0,0,0,0,0,0,0,0,0,0,0,0],"id":23,"left_children":[1,3,5,7,9,11,-1,-1,13,-1,15,17,-1,-1,-1,-1,-1,-1,-1],"loss_changes":[5.403549E4,1.17646484E2,3.4410156E1,2.0682275E2,8.24707E1,8.699219E0,0E0,0E0,1.318297E3,0E0,8.080679E1,2.9832273E1,0E0,0E0,0E0,0E0,0E0,0E0,0E0],"parents":[2147483647,0,0,1,1,2,2,3,3,4,4,5,5,8,8,10,10,11,11],"right_children":[2,4,6,8,10,12,-1,-1,14,-1,16,18,-1,-1,-1,-1,-1,-1,-1],"split_conditions":[9.96E-1,8.3E-2,2E0,6.67E-1,9.8E-1,9.97E-1,-3.455399E-2,-9.660789E-2,3E0,-1.0289266E-1,2E0,2E0,1.0672238E-1,1.3589714E-1,-1.0227048E-1,5.815504E-2,-8.065439E-2,6.640538E-2,-6.9893375E-2],"split_indices":[1,2,7,1,1,1,0,0,3,0,5,3,0,0,0,0,0,0,0],"split_type":[0,0,0,0,0,0,0,0,0,0,0,0,0,0,0,0,0,0,0],"sum_hessian":[5.132459E4,2.782912E4,2.3495469E4,4.701541E3,2.3127578E4,2.3486785E4,8.685109E0,3.4252227E3,1.2763184E3,2.2997057E4,1.3052296E2,5.3503296E1,2.3433281E4,2.82925E2,9.933934E2,5.769172E1,7.283125E1,5.0194046E1,3.3092523E0],"tree_param":{"num_deleted":"0","num_feature":"10","num_nodes":"19","size_leaf_vector":"1"}},{"base_weights":[-5.079671E-2,-9.8770994E-1,1.0575707E0,-8.224709E-1,-1.0209904E0,1.0585165E0,-2.893695E-1,-9.56841E-2,-4.634705E-1,-1.0257365E-1,-1.8991666E-1,3.9679193E-1,1.0597042E-1,-3.68275E-2,9.391443E-3,1.1653888E-1,-1.0158497E-1,5.5117913E-2,-7.873217E-2,6.429001E-2,-6.756731E-2],"categories":[],"categories_nodes":[],"categories_segments":[],"categories_sizes":[],"default_left":[0,0,0,0,0,0,0,0,0,0,0,0,0,0,0,0,0,0,0,0,0],"id":24,"left_children":[1,3,5,7,9,11,13,-1,15,-1,17,19,-1,-1,-1,-1,-1,-1,-1,-1,-1],"loss_changes":[4.8570113E4,1.2258789E2,3.3421875E1,2.010625E2,7.8990234E1,8.421875E0,1.6213992E0,0E0,1.1250032E3,0E0,7.2374664E1,2.725401E1,0E0,0E0,0E0,0E0,0E0,0E0,0E0,0E0,0E0],"parents":[2147483647,0,0,1,1,2,2,3,3,4,4,5,5,6,6,8,8,10,10,11,11],"right_children":[2,4,6,8,10,12,14,-1,16,-1,18,20,-1,-1,-1,-1,-1,-1,-1,-1,-1],"split_conditions":[9.96E-1,8.3E-2,4E0,6.67E-1,9.8E-1,9.97E-1,6.13E2,-9.56841E-2,3E0,-1.0257365E-1,2E0,2E0,1.0597042E-1,-3.68275E-2,9.391443E-3,1.1653888E-1,-1.0158497E-1,5.5117913E-2,-7.873217E-2,6.429001E-2,-6.756731E-2],"split_indices":[1,2,3,1,1,1,5,0,3,0,5,3,0,0,0,0,0,0,0,0,0],"split_type":[0,0,0,0,0,0,0,0,0,0,0,0,0,0,0,0,0,0,0,0,0],"sum_hessian":[4.6731887E4,2.5325871E4,2.1406016E4,4.3319165E3,2.0993953E4,2.1395275E4,1.0739868E1,3.1278784E3,1.2040383E3,2.0870086E4,1.2386859E2,5.034187E1,2.1344934E4,9.555816E0,1.1840518E0,2.9929123E2,9.0474713E2,5.5976242E1,6.789236E1,4.7461296E1,2.8805747E0],"tree_param":{"num_deleted":"0","num_feature":"10","num_nodes":"21","size_leaf_vector":"1"}},{"base_weights":[-5.066454E-2,-9.821121E-1,1.0506022E0,-8.074684E-1,-1.0178362E0,1.0516057E0,-2.8083494E-1,-5.573045E-1,-1.0162389E-1,-1.02282815E-1,-1.8296961E-1,3.7007213E-1,1.05290465E-1,-3.5974637E-2,9.337998E-3,-9.230703E-2,1.1302803E-1,5.5117663E-2,-7.465937E-2,6.222238E-2,-6.6343054E-2],"categories":[],"categories_nodes":[],"categories_segments":[],"categories_sizes":[],"default_left":[0,0,0,0,0,0,0,0,0,0,0,0,0,0,0,0,0,0,0,0,0],"id":25,"left_children":[1,3,5,7,9,11,13,15,-1,-1,17,19,-1,-1,-1,-1,-1,-1,-1,-1,-1],"loss_changes":[4.3674715E4,1.2747461E2,3.197461E1,1.9830591E2,7.574609E1,9.470703E0,1.5718708E0,1.175277E3,0E0,0E0,6.521635E1,2.595961E1,0E0,0E0,0E0,0E0,0E0,0E0,0E0,0E0,0E0],"parents":[2147483647,0,0,1,1,2,2,3,3,4,4,5,5,6,6,7,7,10,10,11,11],"right_children":[2,4,6,8,10,12,14,16,-1,-1,18,20,-1,-1,-1,-1,-1,-1,-1,-1,-1],"split_conditions":[9.96E-1,8.3E-2,4E0,3E0,9.8E-1,9.97E-1,6.13E2,2E0,-1.0162389E-1,-1.02282815E-1,2E0,2E0,1.05290465E-1,-3.5974637E-2,9.337998E-3,-9.230703E-2,1.1302803E-1,5.5117663E-2,-7.465937E-2,6.222238E-2,-6.6343054E-2],"split_indices":[1,2,3,3,1,1,5,5,0,0,3,3,0,0,0,0,0,0,0,0,0],"split_type":[0,0,0,0,0,0,0,0,0,0,0,0,0,0,0,0,0,0,0,0,0],"sum_hessian":[4.253728E4,2.304666E4,1.9490621E4,3.993886E3,1.9052773E4,1.9480143E4,1.0477931E1,1.850215E3,2.1436711E3,1.8935053E4,1.1772028E2,4.7934025E1,1.9432209E4,9.2918215E0,1.1861099E0,1.5280804E3,3.2213452E2,5.131797E1,6.640231E1,4.4930832E1,3.0031922E0],"tree_param":{"num_deleted":"0","num_feature":"10","num_nodes":"21","size_leaf_vector":"1"}},{"base_weights":[-5.0555117E-2,-9.7667956E-1,1.0442557E0,-7.9272E-1,-1.0149097E0,1.0453218E0,-2.7262855E-1,-5.380925E-1,-1.0117503E-1,-1.020168E-1,-1.7569643E-1,3.442506E-1,1.0467434E-1,-3.515301E-2,9.284797E-3,-9.113714E-2,9.837874E-2,4.996101E-2,-7.4960716E-2,6.020204E-2,-6.511669E-2],"categories":[],"categories_nodes":[],"categories_segments":[],"categories_sizes":[],"default_left":[0,0,0,0,0,0,0,0,0,0,0,0,0,0,0,0,0,0,0,0,0],"id":26,"left_children":[1,3,5,7,9,11,13,15,-1,-1,17,19,-1,-1,-1,-1,-1,-1,-1,-1,-1],"loss_changes":[3.9287734E4,1.3153125E2,3.0628906E1,1.9563257E2,7.278711E1,1.0480469E1,1.5244133E0,1.01496545E3,0E0,0E0,5.8620903E1,2.4701332E1,0E0,0E0,0E0,0E0,0E0,0E0,0E0,0E0,0E0],"parents":[2147483647,0,0,1,1,2,2,3,3,4,4,5,5,6,6,7,7,10,10,11,11],"right_children":[2,4,6,8,10,12,14,16,-1,-1,18,20,-1,-1,-1,-1,-1,-1,-1,-1,-1],"split_conditions":[9.96E-1,8.3E-2,4E0,3E0,9.8E-1,9.97E-1,6.13E2,2E0,-1.0117503E-1,-1.020168E-1,2E0,2E0,1.0467434E-1,-3.515301E-2,9.284797E-3,-9.113714E-2,9.837874E-2,4.996101E-2,-7.4960716E-2,6.020204E-2,-6.511669E-2],"split_indices":[1,2,3,3,1,1,5,5,0,0,5,3,0,0,0,0,0,0,0,0,0],"split_type":[0,0,0,0,0,0,0,0,0,0,0,0,0,0,0,0,0,0,0,0,0],"sum_hessian":[3.8707812E4,2.0970537E4,1.7737277E4,3.6830054E3,1.7287531E4,1.772705E4,1.0226663E1,1.735076E3,1.9479294E3,1.7175604E4,1.1192778E2,4.5712276E1,1.7681338E4,9.038551E0,1.1881114E0,1.3997705E3,3.3530548E2,5.2610996E1,5.9316784E1,4.2588E1,3.1242774E0],"tree_param":{"num_deleted":"0","num_feature":"10","num_nodes":"21","size_leaf_vector":"1"}},{"base_weights":[-5.045991E-2,-9.7126734E-1,1.0384476E0,-7.776754E-1,-1.0121799E0,1.0394919E0,-3.1537645E-2,-5.188987E-1,-1.00741684E-1,-1.0177257E-1,-1.695005E-1,3.084843E-1,1.0411129E-1,-8.991629E-2,8.635557E-2,5.000339E-2,-7.076238E-2,5.822881E-2,-6.4875804E-2],"categories":[],"categories_nodes":[],"categories_segments":[],"categories_sizes":[],"default_left":[0,0,0,0,0,0,0,0,0,0,0,0,0,0,0,0,0,0,0],"id":27,"left_children":[1,3,5,7,9,11,-1,13,-1,-1,15,17,-1,-1,-1,-1,-1,-1,-1],"loss_changes":[3.5350836E4,1.3555273E2,2.9394531E1,1.928081E2,6.993848E1,1.2708984E1,0E0,8.8246924E2,0E0,0E0,5.271396E1,2.4367672E1,0E0,0E0,0E0,0E0,0E0,0E0,0E0],"parents":[2147483647,0,0,1,1,2,2,3,3,4,4,5,5,7,7,10,10,11,11],"right_children":[2,4,6,8,10,12,-1,14,-1,-1,16,18,-1,-1,-1,-1,-1,-1,-1],"split_conditions":[9.96E-1,8.3E-2,2E0,3E0,9.8E-1,9.97E-1,-3.1537645E-2,2E0,-1.00741684E-1,-1.0177257E-1,2E0,2E0,1.0411129E-1,-8.991629E-2,8.635557E-2,5.000339E-2,-7.076238E-2,5.822881E-2,-6.4875804E-2],"split_indices":[1,2,7,3,1,1,0,5,0,0,3,3,0,0,0,0,0,0,0],"split_type":[0,0,0,0,0,0,0,0,0,0,0,0,0,0,0,0,0,0,0],"sum_hessian":[3.5216438E4,1.9082205E4,1.613423E4,3.398963E3,1.5683243E4,1.6126435E4,7.7959433E0,1.6291215E3,1.7698414E3,1.5576575E4,1.0666734E2,4.414579E1,1.6082288E4,1.2831611E3,3.4596036E2,4.8160973E1,5.850637E1,4.0418716E1,3.727074E0],"tree_param":{"num_deleted":"0","num_feature":"10","num_nodes":"19","size_leaf_vector":"1"}},{"base_weights":[-5.037558E-2,-9.658234E-1,1.0330852E0,-7.6226854E-1,-1.0096159E0,1.0343114E0,-2.630052E-1,-4.997021E-1,-1.0031929E-1,-1.0154741E-1,-1.6289885E-1,2.954496E-1,1.0360161E-1,-3.3894546E-2,8.772516E-3,-8.8638484E-2,7.629682E-2,4.5282293E-2,-7.123038E-2,5.6303013E-2,-6.265077E-2],"categories":[],"categories_nodes":[],"categories_segments":[],"categories_sizes":[],"default_left":[0,0,0,0,0,0,0,0,0,0,0,0,0,0,0,0,0,0,0,0,0],"id":28,"left_children":[1,3,5,7,9,11,13,15,-1,-1,17,19,-1,-1,-1,-1,-1,-1,-1,-1,-1],"loss_changes":[3.1814473E4,1.3958496E2,2.878711E1,1.8985144E2,6.735254E1,1.23671875E1,1.3891964E0,7.711891E2,0E0,0E0,4.7621624E1,2.2293745E1,0E0,0E0,0E0,0E0,0E0,0E0,0E0,0E0,0E0],"parents":[2147483647,0,0,1,1,2,2,3,3,4,4,5,5,6,6,7,7,10,10,11,11],"right_children":[2,4,6,8,10,12,14,16,-1,-1,18,20,-1,-1,-1,-1,-1,-1,-1,-1,-1],"split_conditions":[9.96E-1,8.3E-2,4E0,3E0,9.8E-1,9.97E-1,6.13E2,2E0,-1.0031929E-1,-1.0154741E-1,2E0,2E0,1.0360161E-1,-3.3894546E-2,8.772516E-3,-8.8638484E-2,7.629682E-2,4.5282293E-2,-7.123038E-2,5.6303013E-2,-6.265077E-2],"split_indices":[1,2,3,3,1,1,5,5,0,0,5,3,0,0,0,0,0,0,0,0,0],"split_type":[0,0,0,0,0,0,0,0,0,0,0,0,0,0,0,0,0,0,0,0,0],"sum_hessian":[3.203571E4,1.7365371E4,1.4670339E4,3.1396875E3,1.4225684E4,1.4660509E4,9.830264E0,1.531785E3,1.6079026E3,1.4123978E4,1.0170569E2,4.1771507E1,1.4618737E4,8.633054E0,1.1972103E0,1.1772284E3,3.545567E2,4.9616276E1,5.208941E1,3.8409954E1,3.3615537E0],"tree_param":{"num_deleted":"0","num_feature":"10","num_nodes":"21","size_leaf_vector":"1"}},{"base_weights":[-5.0300997E-2,-9.603003E-1,1.0281383E0,-7.4644166E-1,-1.0071929E0,1.0294453E0,-2.5560492E-1,-4.804935E-1,-9.990361E-2,-1.0133882E-1,-1.574133E-1,2.7246863E-1,1.03131294E-1,-3.314808E-2,8.722377E-3,-8.729823E-2,6.77515E-2,4.2878117E-2,-6.9353886E-2,5.442474E-2,-6.1435908E-2],"categories":[],"categories_nodes":[],"categories_segments":[],"categories_sizes":[],"default_left":[0,0,0,0,0,0,0,0,0,0,0,0,0,0,0,0,0,0,0,0,0],"id":29,"left_children":[1,3,5,7,9,11,13,15,-1,-1,17,19,-1,-1,-1,-1,-1,-1,-1,-1,-1],"loss_changes":[2.863664E4,1.4366504E2,2.7671875E1,1.8677295E2,6.484082E1,1.3246094E1,1.3483652E0,6.7654504E2,0E0,0E0,4.2781857E1,2.1154312E1,0E0,0E0,0E0,0E0,0E0,0E0,0E0,0E0,0E0],"parents":[2147483647,0,0,1,1,2,2,3,3,4,4,5,5,6,6,7,7,10,10,11,11],"right_children":[2,4,6,8,10,12,14,16,-1,-1,18,20,-1,-1,-1,-1,-1,-1,-1,-1,-1],"split_conditions":[9.96E-1,8.3E-2,4E0,3E0,9.8E-1,9.97E-1,6.13E2,2E0,-9.990361E-2,-1.0133882E-1,2E0,2E0,1.03131294E-1,-3.314808E-2,8.722377E-3,-8.729823E-2,6.77515E-2,4.2878117E-2,-6.9353886E-2,5.442474E-2,-6.1435908E-2],"split_indices":[1,2,3,3,1,1,5,5,0,0,5,3,0,0,0,0,0,0,0,0,0],"split_type":[0,0,0,0,0,0,0,0,0,0,0,0,0,0,0,0,0,0,0,0,0],"sum_hessian":[2.913988E4,1.5805343E4,1.3334538E4,2.9032231E3,1.290212E4,1.3324933E4,9.605286E0,1.442504E3,1.4607191E3,1.2804915E4,9.720458E1,4.0024017E1,1.3284908E4,8.406706E0,1.19858E0,1.0810289E3,3.614751E2,4.8346947E1,4.8857635E1,3.654909E1,3.4749253E0],"tree_param":{"num_deleted":"0","num_feature":"10","num_nodes":"21","size_leaf_vector":"1"}},{"base_weights":[-5.0234865E-2,-9.546477E-1,1.0235298E0,-7.3014617E-1,-1.0048839E0,1.0249244E0,-2.4848051E-1,-4.6127683E-1,-9.9490546E-2,-1.0114451E-1,-1.5225877E-1,2.5046661E-1,1.0269707E-1,-3.2427896E-2,8.672491E-3,-8.656365E-2,5.909128E-2,4.3210827E-2,-6.517734E-2,5.2594524E-2,-6.0230136E-2],"categories":[],"categories_nodes":[],"categories_segments":[],"categories_sizes":[],"default_left":[0,0,0,0,0,0,0,0,0,0,0,0,0,0,0,0,0,0,0,0,0],"id":30,"left_children":[1,3,5,7,9,11,13,15,-1,-1,17,19,-1,-1,-1,-1,-1,-1,-1,-1,-1],"loss_changes":[2.5778783E4,1.4782227E2,2.6624023E1,1.8357324E2,6.248828E1,1.4074219E1,1.3091856E0,5.976783E2,0E0,0E0,3.8631386E1,2.0057081E1,0E0,0E0,0E0,0E0,0E0,0E0,0E0,0E0,0E0],"parents":[2147483647,0,0,1,1,2,2,3,3,4,4,5,5,6,6,7,7,10,10,11,11],"right_children":[2,4,6,8,10,12,14,16,-1,-1,18,20,-1,-1,-1,-1,-1,-1,-1,-1,-1],"split_conditions":[9.96E-1,8.3E-2,4E0,3E0,9.8E-1,9.97E-1,6.13E2,2.72E-1,-9.9490546E-2,-1.0114451E-1,2E0,2E0,1.0269707E-1,-3.2427896E-2,8.672491E-3,-8.656365E-2,5.909128E-2,4.3210827E-2,-6.517734E-2,5.2594524E-2,-6.0230136E-2],"split_indices":[1,2,3,3,1,1,5,1,0,0,3,3,0,0,0,0,0,0,0,0,0],"split_type":[0,0,0,0,0,0,0,0,0,0,0,0,0,0,0,0,0,0,0,0,0],"sum_hessian":[2.6505115E4,1.43883125E4,1.2116802E4,2.6877312E3,1.1700582E4,1.2107412E4,9.389287E0,1.3607263E3,1.3270049E3,1.1607534E4,9.304785E1,3.840954E1,1.2069003E4,8.189385E0,1.1999012E0,9.855301E2,3.751962E2,4.412556E1,4.892229E1,3.4824726E1,3.5848117E0],"tree_param":{"num_deleted":"0","num_feature":"10","num_nodes":"21","size_leaf_vector":"1"}},{"base_weights":[-5.0173942E-2,-9.487889E-1,1.0192065E0,-7.132411E-1,-1.0026652E0,1.0206958E0,-2.4161956E-1,-4.419669E-1,-9.907616E-2,-1.009624E-1,-1.4658117E-1,2.2944842E-1,1.0229379E-1,-3.173281E-2,8.622862E-3,-8.51294E-2,5.2797344E-2,3.8832944E-2,-6.5716304E-2,5.0812628E-2,-5.903576E-2],"categories":[],"categories_nodes":[],"categories_segments":[],"categories_sizes":[],"default_left":[0,0,0,0,0,0,0,0,0,0,0,0,0,0,0,0,0,0,0,0,0],"id":31,"left_children":[1,3,5,7,9,11,13,15,-1,-1,17,19,-1,-1,-1,-1,-1,-1,-1,-1,-1],"loss_changes":[2.320691E4,1.5222168E2,2.5639648E1,1.8035266E2,6.0367188E1,1.48515625E1,1.271575E0,5.276512E2,0E0,0E0,3.4902817E1,1.9002832E1,0E0,0E0,0E0,0E0,0E0,0E0,0E0,0E0,0E0],"parents":[2147483647,0,0,1,1,2,2,3,3,4,4,5,5,6,6,7,7,10,10,11,11],"right_children":[2,4,6,8,10,12,14,16,-1,-1,18,20,-1,-1,-1,-1,-1,-1,-1,-1,-1],"split_conditions":[9.96E-1,8.3E-2,4E0,3E0,9.8E-1,9.97E-1,6.13E2,2.72E-1,-9.907616E-2,-1.009624E-1,2E0,2E0,1.0229379E-1,-3.173281E-2,8.622862E-3,-8.51294E-2,5.2797344E-2,3.8832944E-2,-6.5716304E-2,5.0812628E-2,-5.903576E-2],"split_indices":[1,2,3,3,1,1,5,1,0,0,5,3,0,0,0,0,0,0,0,0,0],"split_type":[0,0,0,0,0,0,0,0,0,0,0,0,0,0,0,0,0,0,0,0,0],"sum_hessian":[2.4109559E4,1.3102014E4,1.1007545E4,2.4919521E3,1.0610062E4,1.0998362E4,9.181855E0,1.286378E3,1.205574E3,1.0520954E4,8.9107285E1,3.6916786E1,1.0961446E4,7.9806805E0,1.2011743E0,9.063383E2,3.800398E2,4.585553E1,4.3251755E1,3.3225975E1,3.6908088E0],"tree_param":{"num_deleted":"0","num_feature":"10","num_nodes":"21","size_leaf_vector":"1"}},{"base_weights":[-5.0125353E-2,-9.42702E-1,1.0151192E0,-6.9579285E-1,-1.0005174E0,1.0167108E0,-2.3501043E-1,-4.2269215E-1,-9.865665E-2,-1.0079055E-1,-1.4206788E-1,2.0941572E-1,1.0191672E-1,-3.1061688E-2,8.573487E-3,-8.2897775E-2,4.8932724E-2,3.6743462E-2,-6.389649E-2,4.9079444E-2,-5.785484E-2],"categories":[],"categories_nodes":[],"categories_segments":[],"categories_sizes":[],"default_left":[0,0,0,0,0,0,0,0,0,0,0,0,0,0,0,0,0,0,0,0,0],"id":32,"left_children":[1,3,5,7,9,11,13,15,-1,-1,17,19,-1,-1,-1,-1,-1,-1,-1,-1,-1],"loss_changes":[2.0891654E4,1.5672949E2,2.470996E1,1.7698816E2,5.8280273E1,1.5581055E1,1.2354538E0,4.6701468E2,0E0,0E0,3.141641E1,1.7992094E1,0E0,0E0,0E0,0E0,0E0,0E0,0E0,0E0,0E0],"parents":[2147483647,0,0,1,1,2,2,3,3,4,4,5,5,6,6,7,7,10,10,11,11],"right_children":[2,4,6,8,10,12,14,16,-1,-1,18,20,-1,-1,-1,-1,-1,-1,-1,-1,-1],"split_conditions":[9.96E-1,8.3E-2,4E0,3E0,9.8E-1,9.97E-1,6.13E2,2E0,-9.865665E-2,-1.0079055E-1,2E0,2E0,1.0191672E-1,-3.1061688E-2,8.573487E-3,-8.2897775E-2,4.8932724E-2,3.6743462E-2,-6.389649E-2,4.9079444E-2,-5.785484E-2],"split_indices":[1,2,3,3,1,1,5,5,0,0,5,3,0,0,0,0,0,0,0,0,0],"split_type":[0,0,0,0,0,0,0,0,0,0,0,0,0,0,0,0,0,0,0,0,0],"sum_hessian":[2.1932295E4,1.1934547E4,9.997749E3,2.313803E3,9.620744E3,9.988767E3,8.982593E0,1.2184668E3,1.095336E3,9.535199E3,8.554497E1,3.5535503E1,9.95323E3,7.7801924E0,1.2023998E0,8.4421E2,3.7425687E2,4.480953E1,4.073544E1,3.174295E1,3.7925549E0],"tree_param":{"num_deleted":"0","num_feature":"10","num_nodes":"21","size_leaf_vector":"1"}},{"base_weights":[-5.008029E-2,-9.363807E-1,1.0112228E0,-6.779355E-1,-9.984174E-1,1.0127822E0,-2.774159E-2,-4.0363127E-1,-9.822827E-2,-1.0062718E-1,-1.3784406E-1,1.8086873E-1,1.0155661E0,-8.205873E-2,4.2800367E-2,3.7289377E-2,-5.9810054E-2,4.7395136E-2,-5.7568815E-2,6.556807E-2,1.0204549E-1],"categories":[],"categories_nodes":[],"categories_segments":[],"categories_sizes":[],"default_left":[0,0,0,0,0,0,0,0,0,0,0,0,0,0,0,0,0,0,0,0,0],"id":33,"left_children":[1,3,5,7,9,11,-1,13,-1,-1,15,17,19,-1,-1,-1,-1,-1,-1,-1,-1],"loss_changes":[1.8806855E4,1.6113672E2,2.390332E1,1.73331E2,5.632422E1,1.738379E1,0E0,4.1478027E2,0E0,0E0,2.8496956E1,1.7576735E1,2.5546875E0,0E0,0E0,0E0,0E0,0E0,0E0,0E0,0E0],"parents":[2147483647,0,0,1,1,2,2,3,3,4,4,5,5,7,7,10,10,11,11,12,12],"right_children":[2,4,6,8,10,12,-1,14,-1,-1,16,18,20,-1,-1,-1,-1,-1,-1,-1,-1],"split_conditions":[9.96E-1,8.3E-2,2E0,3E0,9.8E-1,9.97E-1,-2.774159E-2,2.72E-1,-9.822827E-2,-1.0062718E-1,2E0,2E0,9.98E-1,-8.205873E-2,4.2800367E-2,3.7289377E-2,-5.9810054E-2,4.7395136E-2,-5.7568815E-2,6.556807E-2,1.0204549E-1],"split_indices":[1,2,7,3,1,1,0,1,0,0,3,3,1,0,0,0,0,0,0,0,0],"split_type":[0,0,0,0,0,0,0,0,0,0,0,0,0,0,0,0,0,0,0,0,0],"sum_hessian":[1.9953688E4,1.08746E4,9.079088E3,2.1512095E3,8.723391E3,9.072391E3,6.6967797E0,1.1559191E3,9.952906E2,8.641139E3,8.22519E1,3.465914E1,9.037731E3,7.70087E2,3.8583206E2,4.0787292E1,4.146461E1,3.036635E1,4.292792E0,1.5734439E2,8.880387E3],"tree_param":{"num_deleted":"0","num_feature":"10","num_nodes":"21","size_leaf_vector":"1"}},{"base_weights":[-4.9974035E-2,-9.297052E-1,1.0074587E0,-6.5941864E-1,-9.9634403E-1,5.3870916E-1,1.0168797E0,-3.8459623E-1,-9.778737E-2,-1.00470535E-1,-1.3299076E-1,8.550309E-2,-1.8116753E0,1.01755455E-1,-1.2654932E-2,-8.039581E-2,3.847367E-2,3.3250343E-2,-6.03995E-2,-1.8916671E-1,1.5659627E-3],"categories":[],"categories_nodes":[],"categories_segments":[],"categories_sizes":[],"default_left":[0,0,0,0,0,0,0,0,0,0,0,0,0,0,0,0,0,0,0,0,0],"id":34,"left_children":[1,3,5,7,9,11,13,15,-1,-1,17,-1,19,-1,-1,-1,-1,-1,-1,-1,-1],"loss_changes":[1.6929266E4,1.6577441E2,2.5542969E1,1.6959937E2,5.4569336E1,1.8366905E2,8.80957E0,3.6730212E2,0E0,0E0,2.5746363E1,0E0,5.0906677E0,0E0,0E0,0E0,0E0,0E0,0E0,0E0,0E0],"parents":[2147483647,0,0,1,1,2,2,3,3,4,4,5,5,6,6,7,7,10,10,12,12],"right_children":[2,4,6,8,10,12,14,16,-1,-1,18,-1,20,-1,-1,-1,-1,-1,-1,-1,-1],"split_conditions":[9.96E-1,8.3E-2,9.98E-1,3E0,9.8E-1,2E0,2E0,2.72E-1,-9.778737E-2,-1.00470535E-1,2E0,8.550309E-2,1.688E3,1.01755455E-1,-1.2654932E-2,-8.039581E-2,3.847367E-2,3.3250343E-2,-6.03995E-2,-1.8916671E-1,1.5659627E-3],"split_indices":[1,2,1,3,1,3,7,1,0,0,5,0,0,0,0,0,0,0,0,0,0],"split_type":[0,0,0,0,0,0,0,0,0,0,0,0,0,0,0,0,0,0,0,0,0],"sum_hessian":[1.8158352E4,9.913354E3,8.244999E3,2.0038116E3,7.909542E3,1.8537042E2,8.059628E3,1.0992917E3,9.045199E2,7.830432E3,7.910962E1,1.7459698E2,1.0773442E1,8.057075E3,2.5530581E0,7.1088794E2,3.8840378E2,4.2745377E1,3.636424E1,9.647035E0,1.1264081E0],"tree_param":{"num_deleted":"0","num_feature":"10","num_nodes":"21","size_leaf_vector":"1"}},{"base_weights":[-5.003596E-2,-9.2266166E-1,1.0039889E0,-6.403558E-1,-9.9428135E-1,5.1192373E-1,1.0141124E0,-3.6573526E-1,-9.733034E-2,-1.0031903E-1,-1.293255E-1,8.4008E-2,-1.7599311E0,1.0148471E-1,-1.2526643E-2,-7.865258E-2,3.4627736E-2,3.373161E-2,-5.627975E-2,-1.8382758E-1,1.5575498E-3],"categories":[],"categories_nodes":[],"categories_segments":[],"categories_sizes":[],"default_left":[0,0,0,0,0,0,0,0,0,0,0,0,0,0,0,0,0,0,0,0,0],"id":35,"left_children":[1,3,5,7,9,11,13,15,-1,-1,17,-1,19,-1,-1,-1,-1,-1,-1,-1,-1],"loss_changes":[1.5235798E4,1.7047998E2,2.6992188E1,1.6568011E2,5.282373E1,1.7244157E2,8.680176E0,3.2533655E2,0E0,0E0,2.327174E1,0E0,4.836052E0,0E0,0E0,0E0,0E0,0E0,0E0,0E0,0E0],"parents":[2147483647,0,0,1,1,2,2,3,3,4,4,5,5,6,6,7,7,10,10,12,12],"right_children":[2,4,6,8,10,12,14,16,-1,-1,18,-1,20,-1,-1,-1,-1,-1,-1,-1,-1],"split_conditions":[9.96E-1,8.3E-2,9.98E-1,3E0,9.8E-1,2E0,2E0,2.72E-1,-9.733034E-2,-1.0031903E-1,2E0,8.4008E-2,1.688E3,1.0148471E-1,-1.2526643E-2,-7.865258E-2,3.4627736E-2,3.373161E-2,-5.627975E-2,-1.8382758E-1,1.5575498E-3],"split_indices":[1,2,1,3,1,3,7,1,0,0,3,0,0,0,0,0,0,0,0,0,0],"split_type":[0,0,0,0,0,0,0,0,0,0,0,0,0,0,0,0,0,0,0,0,0],"sum_hessian":[1.6524664E4,9.041615E3,7.4830483E3,1.8698774E3,7.171738E3,1.7163979E2,7.3114087E3,1.0476927E3,8.221847E2,7.095459E3,7.6278946E1,1.6099016E2,1.0649632E1,7.3088813E3,2.5274038E0,6.572017E2,3.90491E2,3.8870544E1,3.7408398E1,9.522399E0,1.1272337E0],"tree_param":{"num_deleted":"0","num_feature":"10","num_nodes":"21","size_leaf_vector":"1"}},{"base_weights":[-5.010219E-2,-9.151979E-1,1.0006112E0,-6.2077016E-1,-9.922058E-1,4.846647E-1,1.0115021E0,-3.4710532E-1,-9.6853554E-2,-1.0017114E-1,-1.2496794E-1,8.247008E-2,-1.7063739E0,1.0123024E-1,-1.2400678E-2,-7.598541E-2,3.2666083E-2,3.0083572E-2,-5.7023823E-2,-1.7828168E-1,1.5491759E-3],"categories":[],"categories_nodes":[],"categories_segments":[],"categories_sizes":[],"default_left":[0,0,0,0,0,0,0,0,0,0,0,0,0,0,0,0,0,0,0,0,0],"id":36,"left_children":[1,3,5,7,9,11,13,15,-1,-1,17,-1,19,-1,-1,-1,-1,-1,-1,-1,-1],"loss_changes":[1.3709115E4,1.7521387E2,2.8466309E1,1.6156018E2,5.1268066E1,1.6165126E2,8.556152E0,2.888186E2,0E0,0E0,2.1171707E1,0E0,4.5788345E0,0E0,0E0,0E0,0E0,0E0,0E0,0E0,0E0],"parents":[2147483647,0,0,1,1,2,2,3,3,4,4,5,5,6,6,7,7,10,10,12,12],"right_children":[2,4,6,8,10,12,14,16,-1,-1,18,-1,20,-1,-1,-1,-1,-1,-1,-1,-1],"split_conditions":[9.96E-1,8.3E-2,9.98E-1,3E0,9.8E-1,2E0,2E0,2E0,-9.6853554E-2,-1.0017114E-1,2E0,8.247008E-2,1.688E3,1.0123024E-1,-1.2400678E-2,-7.598541E-2,3.2666083E-2,3.0083572E-2,-5.7023823E-2,-1.7828168E-1,1.5491759E-3],"split_indices":[1,2,1,3,1,3,7,5,0,0,5,0,0,0,0,0,0,0,0,0,0],"split_type":[0,0,0,0,0,0,0,0,0,0,0,0,0,0,0,0,0,0,0,0,0],"sum_hessian":[1.5041924E4,8.2510625E3,6.7908613E3,1.7482228E3,6.5028394E3,1.5919534E2,6.631666E3,1.00070575E3,7.475171E2,6.429269E3,7.3570465E1,1.4860483E2,1.0590521E1,6.6291636E3,2.5021994E0,6.189698E2,3.8173596E2,4.0923546E1,3.2646923E1,9.462465E0,1.1280552E0],"tree_param":{"num_deleted":"0","num_feature":"10","num_nodes":"21","size_leaf_vector":"1"}},{"base_weights":[-5.0177965E-2,-9.073309E-1,9.9729425E-1,-6.0085976E-1,-9.9010426E-1,4.5707405E-1,1.009021E0,-3.2888958E-1,-9.6353465E-1,-1.0002533E-1,-1.2180102E-1,8.0888644E-2,-1.651846E0,1.009893E-1,-1.2276982E-2,-7.4955694E-2,2.838513E-2,-9.648543E-2,-3.3780094E-3,2.843432E-2,-5.5350114E-2,-1.7262135E-1,1.540842E-3],"categories":[],"categories_nodes":[],"categories_segments":[],"categories_sizes":[],"default_left":[0,0,0,0,0,0,0,0,0,0,0,0,0,0,0,0,0,0,0,0,0,0,0],"id":37,"left_children":[1,3,5,7,9,11,13,15,17,-1,19,-1,21,-1,-1,-1,-1,-1,-1,-1,-1,-1,-1],"loss_changes":[1.2333109E4,1.7972559E2,2.9941406E1,1.571242E2,4.97041E1,1.5130557E2,8.435059E0,2.5618927E2,2.0678711E-1,0E0,1.9125832E1,0E0,4.3237076E0,0E0,0E0,0E0,0E0,0E0,0E0,0E0,0E0,0E0,0E0],"parents":[2147483647,0,0,1,1,2,2,3,3,4,4,5,5,6,6,7,7,8,8,10,10,12,12],"right_children":[2,4,6,8,10,12,14,16,18,-1,20,-1,22,-1,-1,-1,-1,-1,-1,-1,-1,-1,-1],"split_conditions":[9.96E-1,8.3E-2,9.98E-1,3E0,9.8E-1,2E0,2E0,2.72E-1,1.1E1,-1.0002533E-1,2E0,8.0888644E-2,1.688E3,1.009893E-1,-1.2276982E-2,-7.4955694E-2,2.838513E-2,-9.648543E-2,-3.3780094E-3,2.843432E-2,-5.5350114E-2,-1.7262135E-1,1.540842E-3],"split_indices":[1,2,1,3,1,3,7,1,3,0,5,0,0,0,0,0,0,0,0,0,0,0,0],"split_type":[0,0,0,0,0,0,0,0,0,0,0,0,0,0,0,0,0,0,0,0,0,0,0],"sum_hessian":[1.3696206E4,7.53387E3,6.1623364E3,1.6372134E3,5.8966567E3,1.4791351E2,6.014423E3,9.573973E2,6.798161E2,5.8255264E3,7.1130554E1,1.3733246E2,1.0581047E1,6.0119453E3,2.4774342E0,5.650237E2,3.9237357E2,6.7809863E2,1.7174842E0,4.0167614E1,3.0962942E1,9.452174E0,1.1288726E0],"tree_param":{"num_deleted":"0","num_feature":"10","num_nodes":"23","size_leaf_vector":"1"}},{"base_weights":[-5.0266474E-2,-8.9891297E-1,9.9400795E-1,-5.804058E-1,-9.879539E-1,4.2929626E-1,1.0066428E0,-3.109282E-1,-9.582716E-1,-9.988019E-2,-1.1884381E-1,7.9263866E-2,-1.5970057E0,1.0075929E-1,-1.2155494E-2,-7.298225E-2,2.56659E-2,-9.597047E-2,-3.3522174E-3,2.9028628E-2,-5.1399987E-2,-1.6691889E-1,1.5325471E-3],"categories":[],"categories_nodes":[],"categories_segments":[],"categories_sizes":[],"default_left":[0,0,0,0,0,0,0,0,0,0,0,0,0,0,0,0,0,0,0,0,0,0,0],"id":38,"left_children":[1,3,5,7,9,11,13,15,17,-1,19,-1,21,-1,-1,-1,-1,-1,-1,-1,-1,-1,-1],"loss_changes":[1.1092125E4,1.8433691E2,3.139746E1,1.5257635E2,4.822998E1,1.4140952E2,8.316895E0,2.2686124E2,2.0275879E-1,0E0,1.7351542E1,0E0,4.0740356E0,0E0,0E0,0E0,0E0,0E0,0E0,0E0,0E0,0E0,0E0],"parents":[2147483647,0,0,1,1,2,2,3,3,4,4,5,5,6,6,7,7,8,8,10,10,12,12],"right_children":[2,4,6,8,10,12,14,16,18,-1,20,-1,22,-1,-1,-1,-1,-1,-1,-1,-1,-1,-1],"split_conditions":[9.96E-1,8.3E-2,9.98E-1,3E0,9.8E-1,2E0,2E0,3E0,1.1E1,-9.988019E-2,2E0,7.9263866E-2,1.688E3,1.0075929E-1,-1.2155494E-2,-7.298225E-2,2.56659E-2,-9.597047E-2,-3.3522174E-3,2.9028628E-2,-5.1399987E-2,-1.6691889E-1,1.5325471E-3],"split_indices":[1,2,1,3,1,3,7,0,3,0,3,0,0,0,0,0,0,0,0,0,0,0,0],"split_type":[0,0,0,0,0,0,0,0,0,0,0,0,0,0,0,0,0,0,0,0,0,0,0],"sum_hessian":[1.2476058E4,6.8842466E3,5.5918105E3,1.5369193E3,5.3473276E3,1.3768271E2,5.454128E3,9.1840765E2,6.1851166E2,5.278459E3,6.8868546E1,1.270733E2,1.0609401E1,5.451675E3,2.4530978E0,5.251307E2,3.9327698E2,6.1679987E2,1.7118E0,3.644377E1,3.2424774E1,9.479715E0,1.1296858E0],"tree_param":{"num_deleted":"0","num_feature":"10","num_nodes":"23","size_leaf_vector":"1"}},{"base_weights":[-5.0354827E-2,-8.8993955E-1,9.907226E-1,-5.5957955E-1,-9.8573333E-1,4.01471E-1,1.0043427E0,-2.93377E-1,-9.5270646E-1,-9.9734254E-2,-1.1511628E-1,7.759665E-1,-1.5422785E0,1.00537814E-1,-1.2036159E-2,-7.093039E-2,2.317517E-2,-9.5426075E-2,-3.326694E-3,-5.665163E-2,2.3312723E-2,1.1526671E-2,7.9880655E-2,-1.6122113E-1,1.5242918E-3],"categories":[],"categories_nodes":[],"categories_segments":[],"categories_sizes":[],"default_left":[0,0,0,0,0,0,0,0,0,0,0,0,0,0,0,0,0,0,0,0,0,0,0,0,0],"id":39,"left_children":[1,3,5,7,9,11,13,15,17,-1,19,21,23,-1,-1,-1,-1,-1,-1,-1,-1,-1,-1,-1,-1],"loss_changes":[9.972822E3,1.8882715E2,3.2818848E1,1.478158E2,4.692041E1,1.3196149E2,8.202637E0,2.0050153E2,1.9818115E-1,0E0,1.6268412E1,2.36969E-1,3.8319016E0,0E0,0E0,0E0,0E0,0E0,0E0,0E0,0E0,0E0,0E0,0E0,0E0],"parents":[2147483647,0,0,1,1,2,2,3,3,4,4,5,5,6,6,7,7,8,8,10,10,11,11,12,12],"right_children":[2,4,6,8,10,12,14,16,18,-1,20,22,24,-1,-1,-1,-1,-1,-1,-1,-1,-1,-1,-1,-1],"split_conditions":[9.96E-1,8.3E-2,9.98E-1,3E0,9.8E-1,2E0,2E0,2.72E-1,1.1E1,-9.9734254E-2,1.62E2,2.62E2,1.688E3,1.00537814E-1,-1.2036159E-2,-7.093039E-2,2.317517E-2,-9.5426075E-2,-3.326694E-3,-5.665163E-2,2.3312723E-2,1.1526671E-2,7.9880655E-2,-1.6122113E-1,1.5242918E-3],"split_indices":[1,2,1,3,1,3,7,1,3,0,4,0,0,0,0,0,0,0,0,0,0,0,0,0,0],"split_type":[0,0,0,0,0,0,0,0,0,0,0,0,0,0,0,0,0,0,0,0,0,0,0,0,0],"sum_hessian":[1.1369428E4,6.295377E3,5.074051E3,1.4458752E3,4.849502E3,1.2840305E2,4.945648E3,8.829312E2,5.629441E2,4.7828145E3,6.6687355E1,1.1773519E2,1.0667858E1,4.9432188E3,2.42918E0,4.8877985E2,3.9415134E2,5.612379E2,1.7061775E0,2.3582987E1,4.3104366E1,7.974975E0,1.09760216E2,9.537364E0,1.1304945E0],"tree_param":{"num_deleted":"0","num_feature":"10","num_nodes":"25","size_leaf_vector":"1"}},{"base_weights":[-5.042944E-2,-8.8020545E-1,9.874152E-1,-5.384402E-1,-9.831855E-1,3.7502012E-1,1.0020971E0,-2.762824E-1,-9.4680417E-1,-9.95861E-2,-1.1239975E-1,7.595281E-1,-1.4878807E0,1.0032258E-1,-1.1918927E-2,-6.786653E-2,2.2114865E-2,-9.484877E-2,-3.3014317E-3,2.5476119E-2,-5.158204E-2,4.3698093E-3,7.690868E-2,-1.5555215E-1,1.5160763E-3],"categories":[],"categories_nodes":[],"categories_segments":[],"categories_sizes":[],"default_left":[0,0,0,0,0,0,0,0,0,0,0,0,0,0,0,0,0,0,0,0,0,0,0,0,0],"id":40,"left_children":[1,3,5,7,9,11,13,15,17,-1,19,21,23,-1,-1,-1,-1,-1,-1,-1,-1,-1,-1,-1,-1],"loss_changes":[8.963011E3,1.9294629E2,3.4064453E1,1.4285504E2,4.654492E1,1.2305483E2,8.092285E0,1.772758E2,1.9302368E-1,0E0,1.5360206E1,2.138443E-1,3.5981827E0,0E0,0E0,0E0,0E0,0E0,0E0,0E0,0E0,0E0,0E0,0E0,0E0],"parents":[2147483647,0,0,1,1,2,2,3,3,4,4,5,5,6,6,7,7,8,8,10,10,11,11,12,12],"right_children":[2,4,6,8,10,12,14,16,18,-1,20,22,24,-1,-1,-1,-1,-1,-1,-1,-1,-1,-1,-1,-1],"split_conditions":[9.96E-1,8.3E-2,9.98E-1,3E0,9.8E-1,2E0,2E0,2E0,1.1E1,-9.95861E-2,2E0,2.4E2,1.688E3,1.0032258E-1,-1.1918927E-2,-6.786653E-2,2.2114865E-2,-9.484877E-2,-3.3014317E-3,2.5476119E-2,-5.158204E-2,4.3698093E-3,7.690868E-2,-1.5555215E-1,1.5160763E-3],"split_indices":[1,2,1,3,1,3,7,5,3,0,5,4,0,0,0,0,0,0,0,0,0,0,0,0,0],"split_type":[0,0,0,0,0,0,0,0,0,0,0,0,0,0,0,0,0,0,0,0,0,0,0,0,0],"sum_hessian":[1.0367657E4,5.7630386E3,4.6046187E3,1.3632668E3,4.399772E3,1.2023881E2,4.48438E3,8.506838E2,5.1258307E2,4.333815E3,6.595705E1,1.09486275E2,1.0752529E1,4.481974E3,2.4056716E0,4.662429E2,3.844409E2,5.1088248E2,1.7006149E0,3.83887E1,2.756835E1,2.911101E0,1.0657517E2,9.62123E0,1.1312993E0],"tree_param":{"num_deleted":"0","num_feature":"10","num_nodes":"25","size_leaf_vector":"1"}},{"base_weights":[-5.0512545E-2,-8.7006E-1,9.8404783E-1,-5.172096E-1,-9.807708E-1,3.4807038E-1,9.998836E-1,-2.597784E-1,-9.405304E-1,-9.943431E-2,-1.09982535E-1,7.423581E-1,-1.433885E0,1.0011139E-1,-1.18037425E-2,-3.962966E-2,1.1271925E-1,-9.423511E-2,-3.2764308E-3,-5.4089524E-2,2.2064751E-2,9.99363E-3,7.671903E-2,-1.4992039E-1,1.5079004E-3],"categories":[],"categories_nodes":[],"categories_segments":[],"categories_sizes":[],"default_left":[0,0,0,0,0,0,0,0,0,0,0,0,0,0,0,0,0,0,0,0,0,0,0,0,0],"id":41,"left_children":[1,3,5,7,9,11,13,15,17,-1,19,21,23,-1,-1,-1,-1,-1,-1,-1,-1,-1,-1,-1,-1],"loss_changes":[8.0530186E3,1.9685791E2,3.5324707E1,1.3763907E2,4.521875E1,1.1451547E2,7.9831543E0,1.6815906E2,1.873169E-1,0E0,1.4361262E1,4.1002655E-1,3.3731003E0,0E0,0E0,0E0,0E0,0E0,0E0,0E0,0E0,0E0,0E0,0E0,0E0],"parents":[2147483647,0,0,1,1,2,2,3,3,4,4,5,5,6,6,7,7,8,8,10,10,11,11,12,12],"right_children":[2,4,6,8,10,12,14,16,18,-1,20,22,24,-1,-1,-1,-1,-1,-1,-1,-1,-1,-1,-1,-1],"split_conditions":[9.96E-1,8.3E-2,9.98E-1,3E0,9.8E-1,2E0,2E0,9.33E-1,1.1E1,-9.943431E-2,1.62E2,2.62E2,1.688E3,1.0011139E-1,-1.18037425E-2,-3.962966E-2,1.1271925E-1,-9.423511E-2,-3.2764308E-3,-5.4089524E-2,2.2064751E-2,9.99363E-3,7.671903E-2,-1.4992039E-1,1.5079004E-3],"split_indices":[1,2,1,3,1,3,7,1,3,0,4,0,0,0,0,0,0,0,0,0,0,0,0,0,0],"split_type":[0,0,0,0,0,0,0,0,0,0,0,0,0,0,0,0,0,0,0,0,0,0,0,0,0],"sum_hessian":[9.457729E3,5.279025E3,4.1787036E3,1.2878633E3,3.9911616E3,1.12687065E2,4.0660168E3,8.2091766E2,4.669456E2,3.9271152E3,6.4046425E1,1.01824684E2,1.086238E1,4.0636343E3,2.3825629E0,7.603615E2,6.0556187E1,4.6525046E2,1.6951123E0,2.22842E1,4.1762226E1,7.5292068E0,9.429548E1,9.730281E0,1.1320999E0],"tree_param":{"num_deleted":"0","num_feature":"10","num_nodes":"25","size_leaf_vector":"1"}},{"base_weights":[-5.019303E-2,-8.569368E-1,9.805982E-1,-4.900353E-1,-9.779514E-1,3.223253E-1,9.9767965E-1,-2.3765498E-1,-9.338514E-1,-9.941172E-2,-1.5752637E-1,7.2528255E-1,-1.3802935E0,9.990209E-2,-1.1690563E-2,-6.533374E-2,2.0758424E-2,-9.3973145E-2,-1.0534984E-2,3.4521643E-2,-5.6842636E-2,9.746556E-3,7.50704E-2,-1.4432658E-1,1.4997624E-3],"categories":[],"categories_nodes":[],"categories_segments":[],"categories_sizes":[],"default_left":[0,0,0,0,0,0,0,0,0,0,0,0,0,0,0,0,0,0,0,0,0,0,0,0,0],"id":42,"left_children":[1,3,5,7,9,11,13,15,17,-1,19,21,23,-1,-1,-1,-1,-1,-1,-1,-1,-1,-1,-1,-1],"loss_changes":[7.2206523E3,2.0665405E2,3.643872E1,1.3535126E2,4.5173584E1,1.0645207E2,7.876953E0,1.5492368E2,1.9076538E-1,0E0,2.3372837E1,3.717003E-1,3.15654E0,0E0,0E0,0E0,0E0,0E0,0E0,0E0,0E0,0E0,0E0,0E0,0E0],"parents":[2147483647,0,0,1,1,2,2,3,3,4,4,5,5,6,6,7,7,8,8,10,10,11,11,12,12],"right_children":[2,4,6,8,10,12,14,16,18,-1,20,22,24,-1,-1,-1,-1,-1,-1,-1,-1,-1,-1,-1,-1],"split_conditions":[9.96E-1,8.3E-2,9.98E-1,3E0,9.66E-1,2E0,2E0,2.72E-1,7E0,-9.941172E-2,2E0,2.62E2,1.688E3,9.990209E-2,-1.1690563E-2,-6.533374E-2,2.0758424E-2,-9.3973145E-2,-1.0534984E-2,3.4521643E-2,-5.6842636E-2,9.746556E-3,7.50704E-2,-1.4432658E-1,1.4997624E-3],"split_indices":[1,2,1,3,1,3,7,1,3,0,3,0,0,0,0,0,0,0,0,0,0,0,0,0,0],"split_type":[0,0,0,0,0,0,0,0,0,0,0,0,0,0,0,0,0,0,0,0,0,0,0,0,0],"sum_hessian":[8.642796E3,4.850191E3,3.7926052E3,1.2280083E3,3.6221829E3,1.0597609E2,3.6866292E3,8.024162E2,4.2559207E2,3.5480376E3,7.414521E1,9.4978096E1,1.0997994E1,3.6842693E3,2.3598456E0,4.1014792E2,3.922683E2,4.199267E2,5.6653614E0,3.4783768E1,3.9361443E1,7.458574E0,8.751952E1,9.865098E0,1.1328964E0],"tree_param":{"num_deleted":"0","num_feature":"10","num_nodes":"25","size_leaf_vector":"1"}},{"base_weights":[-5.0278436E-2,-8.454909E-1,9.7703445E-1,-4.6897256E-1,-9.753911E-1,2.971709E-1,9.954644E-1,-2.2280045E-1,-9.2676514E-1,-9.9262275E-2,-1.5148549E-1,7.079682E-1,-1.3271023E0,9.969266E-2,-1.1579331E-2,-3.5297513E-2,1.0410235E-1,-9.331022E-2,-1.0327215E-2,3.2852683E-2,-5.500433E-2,9.506673E-3,7.3390044E-2,-1.3877073E-1,1.4916642E-3],"categories":[],"categories_nodes":[],"categories_segments":[],"categories_sizes":[],"default_left":[0,0,0,0,0,0,0,0,0,0,0,0,0,0,0,0,0,0,0,0,0,0,0,0,0],"id":43,"left_children":[1,3,5,7,9,11,13,15,17,-1,19,21,23,-1,-1,-1,-1,-1,-1,-1,-1,-1,-1,-1,-1],"loss_changes":[6.4821895E3,2.0957446E2,3.746924E1,1.2948428E2,4.3934082E1,9.879311E1,7.772705E0,1.3852637E2,2.033081E-1,0E0,2.1087873E1,3.328972E-1,2.9483643E0,0E0,0E0,0E0,0E0,0E0,0E0,0E0,0E0,0E0,0E0,0E0,0E0],"parents":[2147483647,0,0,1,1,2,2,3,3,4,4,5,5,6,6,7,7,8,8,10,10,11,11,12,12],"right_children":[2,4,6,8,10,12,14,16,18,-1,20,22,24,-1,-1,-1,-1,-1,-1,-1,-1,-1,-1,-1,-1],"split_conditions":[9.96E-1,8.3E-2,9.98E-1,3E0,9.66E-1,2E0,2E0,9.33E-1,7E0,-9.9262275E-2,2E0,2.62E2,1.688E3,9.969266E-2,-1.1579331E-2,-3.5297513E-2,1.0410235E-1,-9.331022E-2,-1.0327215E-2,3.2852683E-2,-5.500433E-2,9.506673E-3,7.3390044E-2,-1.3877073E-1,1.4916642E-3],"split_indices":[1,2,1,3,1,3,7,1,3,0,3,0,0,0,0,0,0,0,0,0,0,0,0,0,0],"split_type":[0,0,0,0,0,0,0,0,0,0,0,0,0,0,0,0,0,0,0,0,0,0,0,0,0],"sum_hessian":[7.894573E3,4.4519727E3,3.4426003E3,1.1656165E3,3.2863564E3,9.989891E1,3.3427014E3,7.7734357E2,3.8827292E2,3.21502E3,7.133632E1,8.873856E1,1.1160351E1,3.3403638E3,2.3375096E0,7.1782166E2,5.952192E1,3.8266614E2,5.6067834E0,3.3955475E1,3.7380844E1,7.3902993E0,8.134826E1,1.0026663E1,1.1336886E0],"tree_param":{"num_deleted":"0","num_feature":"10","num_nodes":"25","size_leaf_vector":"1"}},{"base_weights":[-4.9919367E-2,-8.2672834E-1,9.79161E-1,-4.4515258E-1,-9.6522564E-1,3.1577143E-1,9.932164E-1,-2.0298971E-1,-9.2321974E-1,-9.9106096E-2,-6.819285E-2,7.1274394E-1,-1.3561755E-1,9.948104E-2,-1.1470007E-2,-6.1778862E-2,2.0269593E-2,-9.300418E-2,-1.0124715E-2,3.577753E-2,-5.562831E-2,7.256595E-2,-1.9488247E-3],"categories":[],"categories_nodes":[],"categories_segments":[],"categories_sizes":[],"default_left":[0,0,0,0,0,0,0,0,0,0,0,0,0,0,0,0,0,0,0,0,0,0,0],"id":44,"left_children":[1,3,5,7,9,11,13,15,17,-1,19,21,-1,-1,-1,-1,-1,-1,-1,-1,-1,-1,-1],"loss_changes":[5.806937E3,2.1012793E2,2.2866943E1,1.2814664E2,6.862451E1,8.182881E1,7.670166E0,1.3407385E2,2.331543E-1,0E0,2.6020393E1,1.1264687E0,0E0,0E0,0E0,0E0,0E0,0E0,0E0,0E0,0E0,0E0,0E0],"parents":[2147483647,0,0,1,1,2,2,3,3,4,4,5,5,6,6,7,7,8,8,10,10,11,11],"right_children":[2,4,6,8,10,12,14,16,18,-1,20,22,-1,-1,-1,-1,-1,-1,-1,-1,-1,-1,-1],"split_conditions":[9.97E-1,8.3E-2,9.98E-1,3E0,9.66E-1,2E0,2E0,3E0,7E0,-9.9106096E-2,2E0,4.91E2,-1.3561755E-1,9.948104E-2,-1.1470007E-2,-6.1778862E-2,2.0269593E-2,-9.300418E-2,-1.0124715E-2,3.577753E-2,-5.562831E-2,7.256595E-2,-1.9488247E-3],"split_indices":[1,2,1,3,1,6,7,0,3,0,3,4,0,0,0,0,0,0,0,0,0,0,0],"split_type":[0,0,0,0,0,0,0,0,0,0,0,0,0,0,0,0,0,0,0,0,0,0,0],"sum_hessian":[7.2238774E3,4.1187446E3,3.1051326E3,1.1192811E3,2.9994636E3,7.416167E1,3.030971E3,7.618575E2,3.574236E2,2.913457E3,8.6006485E1,6.920445E1,4.9572153E0,3.0286553E3,2.3155468E0,3.7152753E2,3.9033E2,3.5187366E2,5.549939E0,4.8777218E1,3.7229263E1,6.818134E1,1.0231037E0],"tree_param":{"num_deleted":"0","num_feature":"10","num_nodes":"23","size_leaf_vector":"1"}},{"base_weights":[-5.004466E-2,-8.1378776E-1,9.755861E-1,-4.245806E-1,-9.6206284E-1,2.856784E-1,9.9091434E-1,-1.8985666E-1,-9.1509336E-1,-9.8941736E-2,-6.7375906E-2,6.956278E-1,-1.312825E-1,9.926519E-2,-1.1362542E-2,-5.9430357E-2,1.831794E-2,-9.224158E-2,-9.92732E-3,3.3943217E-2,-5.379687E-2,7.090387E-2,-1.9392603E-3],"categories":[],"categories_nodes":[],"categories_segments":[],"categories_sizes":[],"default_left":[0,0,0,0,0,0,0,0,0,0,0,0,0,0,0,0,0,0,0,0,0,0,0],"id":45,"left_children":[1,3,5,7,9,11,13,15,17,-1,19,21,-1,-1,-1,-1,-1,-1,-1,-1,-1,-1,-1],"loss_changes":[5.208008E3,2.1171313E2,2.435254E1,1.2166597E2,6.58042E1,7.710475E1,7.5688477E0,1.1689546E2,2.3873901E-1,0E0,2.3341076E1,1.0856285E0,0E0,0E0,0E0,0E0,0E0,0E0,0E0,0E0,0E0,0E0,0E0],"parents":[2147483647,0,0,1,1,2,2,3,3,4,4,5,5,6,6,7,7,8,8,10,10,11,11],"right_children":[2,4,6,8,10,12,14,16,18,-1,20,22,-1,-1,-1,-1,-1,-1,-1,-1,-1,-1,-1],"split_conditions":[9.97E-1,8.3E-2,9.98E-1,3E0,9.66E-1,2E0,2E0,3E0,7E0,-9.8941736E-2,2E0,4.91E2,-1.312825E-1,9.926519E-2,-1.1362542E-2,-5.9430357E-2,1.831794E-2,-9.224158E-2,-9.92732E-3,3.3943217E-2,-5.379687E-2,7.090387E-2,-1.9392603E-3],"split_indices":[1,2,1,3,1,6,7,0,3,0,3,4,0,0,0,0,0,0,0,0,0,0,0],"split_type":[0,0,0,0,0,0,0,0,0,0,0,0,0,0,0,0,0,0,0,0,0,0,0],"sum_hessian":[6.6083765E3,3.7901477E3,2.8182288E3,1.0669033E3,2.7232444E3,6.9790184E1,2.7484387E3,7.4036115E2,3.2654214E2,2.640398E3,8.284633E1,6.453593E1,5.254261E0,2.7461448E3,2.2939491E0,3.4953314E2,3.90828E2,3.210474E2,5.4947624E0,4.742427E1,3.542206E1,6.3512012E1,1.023911E0],"tree_param":{"num_deleted":"0","num_feature":"10","num_nodes":"23","size_leaf_vector":"1"}},{"base_weights":[-5.0164342E-2,-8.0006284E-1,9.7182447E-1,-4.0419084E-1,-9.5868456E-1,2.5639227E-1,9.8853713E-1,-1.7730197E-1,-9.0644854E-1,-9.87677E-2,-6.662536E-2,6.783622E-1,-1.2682508E-1,9.904309E-2,-1.1256894E-2,-3.0131413E-2,9.53814E-2,-9.142906E-2,-9.734864E-3,3.0437265E-2,-5.4738857E-2,6.922526E-2,-1.9297375E-3],"categories":[],"categories_nodes":[],"categories_segments":[],"categories_sizes":[],"default_left":[0,0,0,0,0,0,0,0,0,0,0,0,0,0,0,0,0,0,0,0,0,0,0],"id":46,"left_children":[1,3,5,7,9,11,13,15,17,-1,19,21,-1,-1,-1,-1,-1,-1,-1,-1,-1,-1,-1],"loss_changes":[4.66811E3,2.1281128E2,2.575879E1,1.15229385E2,6.316284E1,7.24441E1,7.4692383E0,1.0966367E2,2.411499E-1,0E0,2.1154684E1,1.0451202E0,0E0,0E0,0E0,0E0,0E0,0E0,0E0,0E0,0E0,0E0,0E0],"parents":[2147483647,0,0,1,1,2,2,3,3,4,4,5,5,6,6,7,7,8,8,10,10,11,11],"right_children":[2,4,6,8,10,12,14,16,18,-1,20,22,-1,-1,-1,-1,-1,-1,-1,-1,-1,-1,-1],"split_conditions":[9.97E-1,8.3E-2,9.98E-1,3E0,9.66E-1,2E0,2E0,9.33E-1,7E0,-9.87677E-2,2E0,4.91E2,-1.2682508E-1,9.904309E-2,-1.1256894E-2,-3.0131413E-2,9.53814E-2,-9.142906E-2,-9.734864E-3,3.0437265E-2,-5.4738857E-2,6.922526E-2,-1.9297375E-3],"split_indices":[1,2,1,3,1,6,7,1,3,0,5,4,0,0,0,0,0,0,0,0,0,0,0],"split_type":[0,0,0,0,0,0,0,0,0,0,0,0,0,0,0,0,0,0,0,0,0,0,0],"sum_hessian":[6.0507637E3,3.4924634E3,2.5583005E3,1.01937445E3,2.4730889E3,6.5858604E1,2.492442E3,7.208151E2,2.9855933E2,2.3931658E3,7.992298E1,6.0277252E1,5.5813527E0,2.4901692E3,2.272708E0,6.6281805E2,5.7997105E1,2.9311813E2,5.441187E0,4.9253056E1,3.0669928E1,5.9252537E1,1.024714E0],"tree_param":{"num_deleted":"0","num_feature":"10","num_nodes":"23","size_leaf_vector":"1"}},{"base_weights":[-4.979027E-2,-7.8335494E-1,9.6784854E-1,-3.7931266E-1,-9.550639E-1,2.281311E-1,9.860629E-1,-1.6054301E-1,-8.97263E-1,-9.85824E-2,-6.6830166E-2,6.609978E-1,-1.2230182E-1,9.8812684E-2,-1.1153018E-2,-5.5811793E-2,1.7794555E-2,-9.0564184E-2,-9.547192E-3,2.873466E-2,-5.312726E-2,6.753494E-2,-1.9202576E-3],"categories":[],"categories_nodes":[],"categories_segments":[],"categories_sizes":[],"default_left":[0,0,0,0,0,0,0,0,0,0,0,0,0,0,0,0,0,0,0,0,0,0,0],"id":47,"left_children":[1,3,5,7,9,11,13,15,17,-1,19,21,-1,-1,-1,-1,-1,-1,-1,-1,-1,-1,-1],"loss_changes":[4.17432E3,2.1814209E2,2.7066895E1,1.1066342E2,6.0612305E1,6.787871E1,7.3706055E0,1.0007104E2,2.4049377E-1,0E0,1.9062262E1,1.0050888E0,0E0,0E0,0E0,0E0,0E0,0E0,0E0,0E0,0E0,0E0,0E0],"parents":[2147483647,0,0,1,1,2,2,3,3,4,4,5,5,6,6,7,7,8,8,10,10,11,11],"right_children":[2,4,6,8,10,12,14,16,18,-1,20,22,-1,-1,-1,-1,-1,-1,-1,-1,-1,-1,-1],"split_conditions":[9.97E-1,8.3E-2,9.98E-1,3E0,9.66E-1,2E0,2E0,2.72E-1,7E0,-9.85824E-2,2E0,4.91E2,-1.2230182E-1,9.8812684E-2,-1.1153018E-2,-5.5811793E-2,1.7794555E-2,-9.0564184E-2,-9.547192E-3,2.873466E-2,-5.312726E-2,6.753494E-2,-1.9202576E-3],"split_indices":[1,2,1,3,1,6,7,1,3,0,5,4,0,0,0,0,0,0,0,0,0,0,0],"split_type":[0,0,0,0,0,0,0,0,0,0,0,0,0,0,0,0,0,0,0,0,0,0,0],"sum_hessian":[5.551513E3,3.2287058E3,2.3228074E3,9.8205273E2,2.246653E3,6.232129E1,2.260486E3,7.0885065E2,2.7320212E2,2.1693303E3,7.732272E1,5.6390457E1,5.9308305E0,2.2582341E3,2.2518156E0,3.2000668E2,3.8884393E2,2.6781296E2,5.389152E0,4.819563E1,2.9127092E1,5.5364944E1,1.0255127E0],"tree_param":{"num_deleted":"0","num_feature":"10","num_nodes":"23","size_leaf_vector":"1"}},{"base_weights":[-4.9930904E-2,-7.6812446E-1,9.6363115E-1,-3.5997337E-1,-9.511772E-1,2.0106451E-1,9.834696E-1,-1.4965409E-1,-8.8751733E-1,-9.8384224E-2,-6.7064196E-2,6.435766E-1,-1.17766164E-1,9.857186E-2,-1.1050875E-2,-2.6615068E-2,8.8784136E-2,-8.964471E-2,-9.364138E-3,2.9084573E-2,-4.913547E-2,6.58369E-2,-1.9108154E-3],"categories":[],"categories_nodes":[],"categories_segments":[],"categories_sizes":[],"default_left":[0,0,0,0,0,0,0,0,0,0,0,0,0,0,0,0,0,0,0,0,0,0,0],"id":48,"left_children":[1,3,5,7,9,11,13,15,17,-1,19,21,-1,-1,-1,-1,-1,-1,-1,-1,-1,-1,-1],"loss_changes":[3.7369717E3,2.1757996E2,2.8260132E1,1.04108284E2,5.821875E1,6.343823E1,7.272339E0,9.078544E1,2.3674011E-1,0E0,1.7272285E1,9.6562004E-1,0E0,0E0,0E0,0E0,0E0,0E0,0E0,0E0,0E0,0E0,0E0],"parents":[2147483647,0,0,1,1,2,2,3,3,4,4,5,5,6,6,7,7,8,8,10,10,11,11],"right_children":[2,4,6,8,10,12,14,16,18,-1,20,22,-1,-1,-1,-1,-1,-1,-1,-1,-1,-1,-1],"split_conditions":[9.97E-1,8.3E-2,9.98E-1,3E0,9.66E-1,2E0,2E0,9.33E-1,7E0,-9.8384224E-2,2E0,4.91E2,-1.17766164E-1,9.857186E-2,-1.1050875E-2,-2.6615068E-2,8.8784136E-2,-8.964471E-2,-9.364138E-3,2.9084573E-2,-4.913547E-2,6.58369E-2,-1.9108154E-3],"split_indices":[1,2,1,3,1,6,7,1,3,0,3,4,0,0,0,0,0,0,0,0,0,0,0],"split_type":[0,0,0,0,0,0,0,0,0,0,0,0,0,0,0,0,0,0,0,0,0,0,0],"sum_hessian":[5.0933335E3,2.983861E3,2.1094722E3,9.4225446E2,2.0416067E3,5.913403E1,2.0503381E3,6.920315E2,2.5022295E2,1.9666882E3,7.491855E1,5.283912E1,6.294912E0,2.048107E3,2.2312644E0,6.355386E2,5.6492943E1,2.4488435E2,5.338596E0,4.4050247E1,3.0868298E1,5.1812813E1,1.0263076E0],"tree_param":{"num_deleted":"0","num_feature":"10","num_nodes":"23","size_leaf_vector":"1"}},{"base_weights":[-4.9488425E-2,-7.498554E-1,9.591454E-1,-3.366297E-1,-9.4700724E-1,1.7536396E-1,9.80735E-1,-1.349533E-1,-8.771957E-1,-9.8171405E-2,-6.6410206E-2,6.2615836E-1,-1.13265954E-1,9.831851E-2,-1.0950424E-2,-5.221072E-2,1.713265E-2,-8.866871E-2,-9.185566E-3,2.5874367E-2,-5.0085038E-2,6.413689E-2,-1.9014141E-3],"categories":[],"categories_nodes":[],"categories_segments":[],"categories_sizes":[],"default_left":[0,0,0,0,0,0,0,0,0,0,0,0,0,0,0,0,0,0,0,0,0,0,0],"id":49,"left_children":[1,3,5,7,9,11,13,15,17,-1,19,21,-1,-1,-1,-1,-1,-1,-1,-1,-1,-1,-1],"loss_changes":[3.3368765E3,2.2068237E2,2.9324463E1,9.9157265E1,5.6026123E1,5.9151035E1,7.1749268E0,8.501352E1,2.3005676E-1,0E0,1.5669547E1,9.26857E-1,0E0,0E0,0E0,0E0,0E0,0E0,0E0,0E0,0E0,0E0,0E0],"parents":[2147483647,0,0,1,1,2,2,3,3,4,4,5,5,6,6,7,7,8,8,10,10,11,11],"right_children":[2,4,6,8,10,12,14,16,18,-1,20,22,-1,-1,-1,-1,-1,-1,-1,-1,-1,-1,-1],"split_conditions":[9.97E-1,8.3E-2,9.98E-1,3E0,9.66E-1,2E0,2E0,2.72E-1,7E0,-9.8171405E-2,2E0,4.91E2,-1.13265954E-1,9.831851E-2,-1.0950424E-2,-5.221072E-2,1.713265E-2,-8.866871E-2,-9.185566E-3,2.5874367E-2,-5.0085038E-2,6.413689E-2,-1.9014141E-3],"split_indices":[1,2,1,3,1,6,7,1,3,0,5,4,0,0,0,0,0,0,0,0,0,0,0],"split_type":[0,0,0,0,0,0,0,0,0,0,0,0,0,0,0,0,0,0,0,0,0,0,0],"sum_hessian":[4.6833228E3,2.7670752E3,1.9162478E3,9.112551E2,1.85582E3,5.625978E1,1.8599879E3,6.8185803E2,2.293971E2,1.783241E3,7.257906E1,4.9593773E1,6.6660066E0,1.857777E3,2.2110465E0,2.949421E2,3.869159E2,2.2410762E2,5.289464E0,4.6136738E1,2.6442327E1,4.8566673E1,1.0270987E0],"tree_param":{"num_deleted":"0","num_feature":"10","num_nodes":"23","size_leaf_vector":"1"}},{"base_weights":[-4.961443E-2,-7.33138E-1,9.543644E-1,-3.185773E-1,-9.425189E-1,1.5112759E-1,9.77836E-1,-1.2561698E-1,-8.662864E-1,-9.7942166E-2,-6.6708475E-2,6.08784E-1,-1.0884199E-1,9.805044E-2,-1.0851626E-2,-2.3456423E-2,8.283294E-2,-8.763459E-2,-9.011325E-3,2.4397997E-2,-4.858299E-2,6.2438883E-2,-1.8920504E-3],"categories":[],"categories_nodes":[],"categories_segments":[],"categories_sizes":[],"default_left":[0,0,0,0,0,0,0,0,0,0,0,0,0,0,0,0,0,0,0,0,0,0,0],"id":50,"left_children":[1,3,5,7,9,11,13,15,17,-1,19,21,-1,-1,-1,-1,-1,-1,-1,-1,-1,-1,-1],"loss_changes":[2.9832427E3,2.1842322E2,3.0249878E1,9.27154E1,5.3885376E1,5.5039333E1,7.078125E0,7.532141E1,2.204895E-1,0E0,1.4156105E1,8.8887405E-1,0E0,0E0,0E0,0E0,0E0,0E0,0E0,0E0,0E0,0E0,0E0],"parents":[2147483647,0,0,1,1,2,2,3,3,4,4,5,5,6,6,7,7,8,8,10,10,11,11],"right_children":[2,4,6,8,10,12,14,16,18,-1,20,22,-1,-1,-1,-1,-1,-1,-1,-1,-1,-1,-1],"split_conditions":[9.97E-1,8.3E-2,9.98E-1,3E0,9.66E-1,2E0,2E0,9.33E-1,7E0,-9.7942166E-2,2E0,4.91E2,-1.0884199E-1,9.805044E-2,-1.0851626E-2,-2.3456423E-2,8.283294E-2,-8.763459E-2,-9.011325E-3,2.4397997E-2,-4.858299E-2,6.2438883E-2,-1.8920504E-3],"split_indices":[1,2,1,3,1,6,7,1,3,0,5,4,0,0,0,0,0,0,0,0,0,0,0],"split_type":[0,0,0,0,0,0,0,0,0,0,0,0,0,0,0,0,0,0,0,0,0,0,0],"sum_hessian":[4.3068174E3,2.565549E3,1.7412682E3,8.778644E2,1.6876847E3,5.366129E1,1.6876069E3,6.673434E2,2.1052098E2,1.6171779E3,7.050679E1,4.6624325E1,7.0369644E0,1.6854158E3,2.1911547E0,6.1247656E2,5.4866814E1,2.0527928E2,5.2417016E0,4.5290886E1,2.5215904E1,4.559644E1,1.027886E0],"tree_param":{"num_deleted":"0","num_feature":"10","num_nodes":"23","size_leaf_vector":"1"}},{"base_weights":[-4.9123004E-2,-7.133894E-1,9.492598E-1,-2.9696319E-1,-9.376844E-1,1.2844187E-1,9.747483E-1,-1.1279651E-1,-8.547822E-1,-9.756021E-2,-3.0172022E-2,5.91506E-1,-1.04527466E-1,9.776536E-2,-1.0754441E-2,-4.8690096E-2,1.6418977E-2,-8.6541176E-2,-8.841294E-3,3.95117E-2,-4.714961E-2,6.0747962E-2,-1.8827297E-3],"categories":[],"categories_nodes":[],"categories_segments":[],"categories_sizes":[],"default_left":[0,0,0,0,0,0,0,0,0,0,0,0,0,0,0,0,0,0,0,0,0,0,0],"id":51,"left_children":[1,3,5,7,9,11,13,15,17,-1,19,21,-1,-1,-1,-1,-1,-1,-1,-1,-1,-1,-1],"loss_changes":[2.659871E3,2.1929639E2,3.1028564E1,8.765914E1,5.293518E1,5.1121582E1,6.981201E0,7.192108E1,2.0819092E-1,0E0,1.9308191E1,8.517761E-1,0E0,0E0,0E0,0E0,0E0,0E0,0E0,0E0,0E0,0E0,0E0],"parents":[2147483647,0,0,1,1,2,2,3,3,4,4,5,5,6,6,7,7,8,8,10,10,11,11],"right_children":[2,4,6,8,10,12,14,16,18,-1,20,22,-1,-1,-1,-1,-1,-1,-1,-1,-1,-1,-1],"split_conditions":[9.97E-1,8.3E-2,9.98E-1,3E0,1.62E2,2E0,2E0,3E0,7E0,-9.756021E-2,2E0,4.91E2,-1.04527466E-1,9.776536E-2,-1.0754441E-2,-4.8690096E-2,1.6418977E-2,-8.6541176E-2,-8.841294E-3,3.95117E-2,-4.714961E-2,6.0747962E-2,-1.8827297E-3],"split_indices":[1,2,1,3,4,6,7,0,3,0,3,4,0,0,0,0,0,0,0,0,0,0,0],"split_type":[0,0,0,0,0,0,0,0,0,0,0,0,0,0,0,0,0,0,0,0,0,0,0],"sum_hessian":[3.9702874E3,2.3874949E3,1.5827924E3,8.520529E2,1.535442E3,5.1307137E1,1.5314852E3,6.5864294E2,1.9340999E2,1.4724208E3,6.302118E1,4.3905846E1,7.401288E0,1.5293137E3,2.1715817E0,2.7375104E2,3.8489188E2,1.8821474E2,5.195261E0,3.316002E1,2.986116E1,4.287718E1,1.028669E0],"tree_param":{"num_deleted":"0","num_feature":"10","num_nodes":"23","size_leaf_vector":"1"}},{"base_weights":[-4.913349E-2,-6.9504577E-1,9.438025E-1,-2.8037006E-1,-9.320888E-1,1.0734073E-1,9.7144634E-1,-1.0488162E-1,-8.42681E-1,-9.742852E-2,-5.3302623E-2,5.74366E-1,-1.0034787E-1,9.746085E-2,-1.0658835E-2,-2.0641303E-2,7.742488E-2,-8.538772E-2,-8.675328E-3,2.281336E-2,-4.4960737E-2,5.906822E-2,-1.8734456E-3],"categories":[],"categories_nodes":[],"categories_segments":[],"categories_sizes":[],"default_left":[0,0,0,0,0,0,0,0,0,0,0,0,0,0,0,0,0,0,0,0,0,0,0],"id":52,"left_children":[1,3,5,7,9,11,13,15,17,-1,19,21,-1,-1,-1,-1,-1,-1,-1,-1,-1,-1,-1],"loss_changes":[2.3739077E3,2.1512561E2,3.165686E1,8.151383E1,5.153418E1,4.741014E1,6.8843994E0,6.264892E1,1.9337463E-1,0E0,1.1656161E1,8.156395E-1,0E0,0E0,0E0,0E0,0E0,0E0,0E0,0E0,0E0,0E0,0E0],"parents":[2147483647,0,0,1,1,2,2,3,3,4,4,5,5,6,6,7,7,8,8,10,10,11,11],"right_children":[2,4,6,8,10,12,14,16,18,-1,20,22,-1,-1,-1,-1,-1,-1,-1,-1,-1,-1,-1],"split_conditions":[9.97E-1,8.3E-2,9.98E-1,3E0,9.66E-1,2E0,2E0,9.33E-1,7E0,-9.742852E-2,2E0,4.91E2,-1.0034787E-1,9.746085E-2,-1.0658835E-2,-2.0641303E-2,7.742488E-2,-8.538772E-2,-8.675328E-3,2.281336E-2,-4.4960737E-2,5.906822E-2,-1.8734456E-3],"split_indices":[1,2,1,3,1,6,7,1,3,0,5,4,0,0,0,0,0,0,0,0,0,0,0],"split_type":[0,0,0,0,0,0,0,0,0,0,0,0,0,0,0,0,0,0,0,0,0,0,0],"sum_hessian":[3.6609695E3,2.2217224E3,1.439247E3,8.239628E2,1.3977596E3,4.9167686E1,1.3900792E3,6.4606604E2,1.7789676E2,1.331645E3,6.611461E1,4.14144E1,7.753286E0,1.387927E3,2.1523206E0,5.9289624E2,5.3169853E1,1.7274666E2,5.1500897E0,4.36228E1,2.2491814E1,4.0384953E1,1.0294484E0],"tree_param":{"num_deleted":"0","num_feature":"10","num_nodes":"23","size_leaf_vector":"1"}},{"base_weights":[-4.8565075E-2,-6.563588E-1,9.679054E-1,-3.5090938E-1,-9.6960187E-1,9.713456E-2,-1.05647715E-2,-7.324181E-1,8.182538E-2,-9.7591184E-2,-2.4070868E-1,-4.4068363E-2,-9.380614E-2,1.16867974E-1,-3.0599663E-2,2.2583887E-2,-4.0582836E-2],"categories":[],"categories_nodes":[],"categories_segments":[],"categories_sizes":[],"default_left":[0,0,0,0,0,0,0,0,0,0,0,0,0,0,0,0,0],"id":53,"left_children":[1,3,5,7,9,-1,-1,11,13,-1,15,-1,-1,-1,-1,-1,-1],"loss_changes":[2.1160593E3,1.9818988E2,6.7874756E0,1.8545639E2,1.1456299E-1,0E0,0E0,2.7437988E1,2.351565E2,0E0,4.5700617E0,0E0,0E0,0E0,0E0,0E0,0E0],"parents":[2147483647,0,0,1,1,2,2,3,3,4,4,7,7,8,8,10,10],"right_children":[2,4,6,8,10,-1,-1,12,14,-1,16,-1,-1,-1,-1,-1,-1],"split_conditions":[9.98E-1,3E0,2E0,4.65E-1,5.55E2,9.713456E-2,-1.05647715E-2,8.3E-2,5E0,-9.7591184E-2,2E0,-4.4068363E-2,-9.380614E-2,1.16867974E-1,-3.0599663E-2,2.2583887E-2,-4.0582836E-2],"split_indices":[1,3,7,1,4,0,0,2,4,0,6,0,0,0,0,0,0],"split_type":[0,0,0,0,0,0,0,0,0,0,0,0,0,0,0,0,0],"sum_hessian":[3.3845623E3,2.1225056E3,1.2620568E3,1.0960908E3,1.0264147E3,1.2599233E3,2.1333654E0,5.7516327E2,5.209276E2,1.0108856E3,1.5529097E1,2.637935E2,3.1136978E2,1.26407425E2,3.9452017E2,2.1368456E0,1.3392251E1],"tree_param":{"num_deleted":"0","num_feature":"10","num_nodes":"17","size_leaf_vector":"1"}},{"base_weights":[-4.780165E-2,-6.524776E-1,9.318989E-1,-2.4148798E-1,-9.178228E-1,1.1427865E-1,9.6409744E-1,-8.5032694E-2,-8.143659E-1,-9.655742E-2,1.6096374E-2,5.661545E-1,-9.252945E-2,9.678386E-2,-1.0472215E-2,-1.8317396E-2,7.492285E-2,-8.271992E-2,-6.8323733E-3,3.8230132E-2,-4.1390013E-2,5.8269896E-2,-1.8637332E-3],"categories":[],"categories_nodes":[],"categories_segments":[],"categories_sizes":[],"default_left":[0,0,0,0,0,0,0,0,0,0,0,0,0,0,0,0,0,0,0,0,0,0,0],"id":54,"left_children":[1,3,5,7,9,11,13,15,17,-1,19,21,-1,-1,-1,-1,-1,-1,-1,-1,-1,-1,-1],"loss_changes":[1.8850693E3,2.1004523E2,2.9778687E1,7.0205765E1,5.3289734E1,4.2758152E1,6.6899414E0,5.594138E1,4.878006E-1,0E0,1.53618765E1,8.00663E-1,0E0,0E0,0E0,0E0,0E0,0E0,0E0,0E0,0E0,0E0,0E0],"parents":[2147483647,0,0,1,1,2,2,3,3,4,4,5,5,6,6,7,7,8,8,10,10,11,11],"right_children":[2,4,6,8,10,12,14,16,18,-1,20,22,-1,-1,-1,-1,-1,-1,-1,-1,-1,-1,-1],"split_conditions":[9.97E-1,8.3E-2,9.98E-1,3E0,1.62E2,2E0,2E0,9.33E-1,7E0,-9.655742E-2,2E0,4.91E2,-9.252945E-2,9.678386E-2,-1.0472215E-2,-1.8317396E-2,7.492285E-2,-8.271992E-2,-6.8323733E-3,3.8230132E-2,-4.1390013E-2,5.8269896E-2,-1.8637332E-3],"split_indices":[1,2,1,3,4,6,7,1,3,0,3,4,0,0,0,0,0,0,0,0,0,0,0],"split_type":[0,0,0,0,0,0,0,0,0,0,0,0,0,0,0,0,0,0,0,0,0,0,0],"sum_hessian":[3.1415532E3,1.9467128E3,1.1948406E3,7.787379E2,1.1679749E3,4.8718277E1,1.1461223E3,6.297258E2,1.4901207E2,1.1105161E3,5.7458755E1,4.0306164E1,8.412113E0,1.1440076E3,2.114708E0,5.77409E2,5.2316837E1,1.4435326E2,4.658809E0,3.222924E1,2.5229515E1,3.9266834E1,1.0393294E0],"tree_param":{"num_deleted":"0","num_feature":"10","num_nodes":"23","size_leaf_vector":"1"}},{"base_weights":[-4.697201E-2,-6.110502E-1,9.599968E-1,-3.0662653E-1,-9.602578E-1,9.640629E-2,-1.038113E-2,-6.963869E-1,8.763057E-2,-9.67831E-2,-2.1156923E-1,-4.071322E-2,-9.255045E-2,1.0754167E-1,-2.7787743E-2,2.2673732E-2,-3.8124975E-2],"categories":[],"categories_nodes":[],"categories_segments":[],"categories_sizes":[],"default_left":[0,0,0,0,0,0,0,0,0,0,0,0,0,0,0,0,0],"id":55,"left_children":[1,3,5,7,9,-1,-1,11,13,-1,15,-1,-1,-1,-1,-1,-1],"loss_changes":[1.6782324E3,1.9532257E2,6.591736E0,1.6112381E2,8.4973145E-1,0E0,0E0,2.729161E1,1.991626E2,0E0,4.281974E0,0E0,0E0,0E0,0E0,0E0,0E0],"parents":[2147483647,0,0,1,1,2,2,3,3,4,4,7,7,8,8,10,10],"right_children":[2,4,6,8,10,-1,-1,12,14,-1,16,-1,-1,-1,-1,-1,-1],"split_conditions":[9.98E-1,3E0,2E0,4.65E-1,5.55E2,9.640629E-2,-1.038113E-2,8.3E-2,5E0,-9.67831E-2,2E0,-4.071322E-2,-9.255045E-2,1.0754167E-1,-2.7787743E-2,2.2673732E-2,-3.8124975E-2],"split_indices":[1,3,7,1,4,0,0,2,4,0,6,0,0,0,0,0,0],"split_type":[0,0,0,0,0,0,0,0,0,0,0,0,0,0,0,0,0],"sum_hessian":[2.9139321E3,1.8727367E3,1.0411956E3,1.0205917E3,8.52145E2,1.0390992E3,2.0963428E0,5.055154E2,5.1507623E2,8.378162E2,1.4328783E1,2.479829E2,2.575325E2,1.2862416E2,3.864521E2,2.122049E0,1.2206734E1],"tree_param":{"num_deleted":"0","num_feature":"10","num_nodes":"17","size_leaf_vector":"1"}},{"base_weights":[-4.614199E-2,-6.7775846E-1,8.207052E-1,-2.6808104E-1,-9.635268E-2,1.3966154E-1,9.555718E-1,2.618731E-2,-7.177155E-1,5.716583E-1,-9.293776E-2,9.5998846E-2,-1.0291486E-2,-4.7724213E-2,1.1650176E-1,-8.4623195E-2,-4.218851E-3,9.271505E-2,2.7574837E-2],"categories":[],"categories_nodes":[],"categories_segments":[],"categories_sizes":[],"default_left":[0,0,0,0,0,0,0,0,0,0,0,0,0,0,0,0,0,0,0],"id":56,"left_children":[1,3,5,7,-1,9,11,13,15,17,-1,-1,-1,-1,-1,-1,-1,-1,-1],"loss_changes":[1.5082228E3,1.8130164E2,1.04023926E2,9.063902E1,0E0,1.101165E2,6.492737E0,2.585831E2,2.2775146E1,1.2329323E1,0E0,0E0,0E0,0E0,0E0,0E0,0E0,0E0,0E0],"parents":[2147483647,0,0,1,1,2,2,3,3,5,5,6,6,7,7,8,8,9,9],"right_children":[2,4,6,8,-1,10,12,14,16,18,-1,-1,-1,-1,-1,-1,-1,-1,-1],"split_conditions":[9.33E-1,8.3E-2,9.98E-1,9E0,-9.635268E-2,2E0,2E0,4.34E-1,9.17E-1,9.75E-1,-9.293776E-2,9.5998846E-2,-1.0291486E-2,-4.7724213E-2,1.1650176E-1,-8.4623195E-2,-4.218851E-3,9.271505E-2,2.7574837E-2],"split_indices":[1,2,1,0,0,6,7,1,1,1,0,0,0,0,0,0,0,0,0],"split_type":[0,0,0,0,0,0,0,0,0,0,0,0,0,0,0,0,0,0,0],"sum_hessian":[2.714351E3,1.5727504E3,1.1416006E3,6.6219293E2,9.105575E2,1.9543123E2,9.461694E2,4.1163135E2,2.505616E2,1.4581346E2,4.9617767E1,9.440911E2,2.0782638E0,2.9350412E2,1.1812722E2,2.0626627E2,4.4295338E1,4.685715E1,9.8956314E1],"tree_param":{"num_deleted":"0","num_feature":"10","num_nodes":"19","size_leaf_vector":"1"}},{"base_weights":[-4.492582E-2,-6.55248E-1,8.08396E-1,-2.4853906E-1,-9.5971406E-2,1.3176215E-1,9.507918E-1,2.6431173E-2,-6.6356945E-1,5.393417E-1,-9.0835236E-2,9.555864E-2,-1.0203253E-2,-4.5323674E-2,1.0493588E-1,-7.8444555E-2,-3.9306725E-3,8.835804E-2,2.5825823E-2],"categories":[],"categories_nodes":[],"categories_segments":[],"categories_sizes":[],"default_left":[0,0,0,0,0,0,0,0,0,0,0,0,0,0,0,0,0,0,0],"id":57,"left_children":[1,3,5,7,-1,9,11,13,15,17,-1,-1,-1,-1,-1,-1,-1,-1,-1],"loss_changes":[1.3348239E3,1.8016302E2,1.0051367E2,7.639693E1,0E0,9.844665E1,6.3927E0,2.1561476E2,1.9479187E1,1.1187462E1,0E0,0E0,0E0,0E0,0E0,0E0,0E0,0E0,0E0],"parents":[2147483647,0,0,1,1,2,2,3,3,5,5,6,6,7,7,8,8,9,9],"right_children":[2,4,6,8,-1,10,12,14,16,18,-1,-1,-1,-1,-1,-1,-1,-1,-1],"split_conditions":[9.33E-1,8.3E-2,9.98E-1,9E0,-9.5971406E-2,2E0,2E0,4.34E-1,9.17E-1,3.7E1,-9.0835236E-2,9.555864E-2,-1.0203253E-2,-4.5323674E-2,1.0493588E-1,-7.8444555E-2,-3.9306725E-3,8.835804E-2,2.5825823E-2],"split_indices":[1,2,1,0,0,6,7,1,1,4,0,0,0,0,0,0,0,0,0],"split_type":[0,0,0,0,0,0,0,0,0,0,0,0,0,0,0,0,0,0,0],"sum_hessian":[2.5226782E3,1.4734579E3,1.0492203E3,6.4636414E2,8.270937E2,1.8911124E2,8.60109E2,4.000471E2,2.4631706E2,1.4278763E2,4.6323612E1,8.580486E2,2.0604644E0,2.7992432E2,1.2012277E2,2.020602E2,4.425686E1,4.491334E1,9.787429E1],"tree_param":{"num_deleted":"0","num_feature":"10","num_nodes":"19","size_leaf_vector":"1"}},{"base_weights":[-4.3687E-2,-5.435457E-1,9.4563127E-1,-2.4452223E-1,-9.4278294E-1,9.508322E-2,-1.0116394E-2,-6.2886554E-1,8.164435E-2,-9.524814E-2,-1.5781446E-1,-3.2902997E-2,-9.026441E-2,8.169141E-2,-2.0676045E-2,2.1889262E-2,-3.309413E-2],"categories":[],"categories_nodes":[],"categories_segments":[],"categories_sizes":[],"default_left":[0,0,0,0,0,0,0,0,0,0,0,0,0,0,0,0,0],"id":58,"left_children":[1,3,5,7,9,-1,-1,11,13,-1,15,-1,-1,-1,-1,-1,-1],"loss_changes":[1.1814617E3,1.8473639E2,6.291443E0,1.1809479E2,2.111206E0,0E0,0E0,2.9439636E1,1.14253555E2,0E0,3.547259E0,0E0,0E0,0E0,0E0,0E0,0E0],"parents":[2147483647,0,0,1,1,2,2,3,3,4,4,7,7,8,8,10,10],"right_children":[2,4,6,8,10,-1,-1,12,14,-1,16,-1,-1,-1,-1,-1,-1],"split_conditions":[9.98E-1,3E0,2E0,4.65E-1,5.55E2,9.508322E-2,-1.0116394E-2,8.3E-2,5E0,-9.524814E-2,2E0,-3.2902997E-2,-9.026441E-2,8.169141E-2,-2.0676045E-2,2.1889262E-2,-3.309413E-2],"split_indices":[1,3,7,1,4,0,0,2,4,0,6,0,0,0,0,0,0],"split_type":[0,0,0,0,0,0,0,0,0,0,0,0,0,0,0,0,0],"sum_hessian":[2.3483232E3,1.5660693E3,7.822538E2,9.138541E2,6.522153E2,7.802108E2,2.0429387E0,4.1099313E2,5.0286096E2,6.400394E2,1.2175838E1,2.171796E2,1.9381354E2,1.3134773E2,3.715132E2,2.1691065E0,1.0006732E1],"tree_param":{"num_deleted":"0","num_feature":"10","num_nodes":"17","size_leaf_vector":"1"}},{"base_weights":[-4.286126E-2,-6.148416E-1,7.874741E-1,-2.2028875E-1,-9.514977E-2,1.5734617E-1,9.4005203E-1,-2.1325525E-2,-7.2553355E-1,5.234063E-1,-8.632734E-2,9.4568945E-2,-1.0030884E-2,-4.0975843E-2,4.8083905E-2,-1.0635282E-1,-1.2091502E-2,8.4893554E-2,2.5404042E-2],"categories":[],"categories_nodes":[],"categories_segments":[],"categories_sizes":[],"default_left":[0,0,0,0,0,0,0,0,0,0,0,0,0,0,0,0,0,0,0],"id":59,"left_children":[1,3,5,7,-1,9,11,13,15,17,-1,-1,-1,-1,-1,-1,-1,-1,-1],"loss_changes":[1.0636147E3,1.7183255E2,8.4907715E1,6.3640778E1,0E0,8.4570595E1,6.1886597E0,9.69886E1,3.4035103E1,9.82653E0,0E0,0E0,0E0,0E0,0E0,0E0,0E0,0E0,0E0],"parents":[2147483647,0,0,1,1,2,2,3,3,5,5,6,6,7,7,8,8,9,9],"right_children":[2,4,6,8,-1,10,12,14,16,18,-1,-1,-1,-1,-1,-1,-1,-1,-1],"split_conditions":[9.33E-1,8.3E-2,9.98E-1,9E0,-9.514977E-2,2E0,2E0,4.65E-1,9.09E-1,9.75E-1,-8.632734E-2,9.4568945E-2,-1.0030884E-2,-4.0975843E-2,4.8083905E-2,-1.0635282E-1,-1.2091502E-2,8.4893554E-2,2.5404042E-2],"split_indices":[1,2,1,4,0,6,7,1,1,1,0,0,0,0,0,0,0,0,0],"split_type":[0,0,0,0,0,0,0,0,0,0,0,0,0,0,0,0,0,0,0],"sum_hessian":[2.1991042E3,1.305201E3,8.939032E2,6.161615E2,6.890395E2,1.8217368E2,7.117295E2,4.5702945E2,1.5913205E2,1.4125415E2,4.0919514E1,7.0970386E2,2.0256813E0,2.5977182E2,1.9725763E2,9.23348E1,6.679726E1,4.4474503E1,9.6779655E1],"tree_param":{"num_deleted":"0","num_feature":"10","num_nodes":"19","size_leaf_vector":"1"}},{"base_weights":[-4.235711E-2,-5.920002E-1,7.7286434E-1,-2.0603694E-1,-9.466507E-2,1.4770025E-1,9.340242E-1,4.60697E-2,-5.709352E-1,4.9406528E-1,-8.399581E-2,9.4012946E-2,-9.946694E-3,-3.8231596E-2,8.405654E-2,-6.849962E-2,-8.438262E-4,8.114804E-2,2.3774745E-2],"categories":[],"categories_nodes":[],"categories_segments":[],"categories_sizes":[],"default_left":[0,0,0,0,0,0,0,0,0,0,0,0,0,0,0,0,0,0,0],"id":60,"left_children":[1,3,5,7,-1,9,11,13,15,17,-1,-1,-1,-1,-1,-1,-1,-1,-1],"loss_changes":[9.394551E2,1.6739609E2,8.2353485E1,5.8005222E1,0E0,7.5656456E1,6.0844116E0,1.3849222E2,1.6359955E1,9.026112E0,0E0,0E0,0E0,0E0,0E0,0E0,0E0,0E0,0E0],"parents":[2147483647,0,0,1,1,2,2,3,3,5,5,6,6,7,7,8,8,9,9],"right_children":[2,4,6,8,-1,10,12,14,16,18,-1,-1,-1,-1,-1,-1,-1,-1,-1],"split_conditions":[9.33E-1,8.3E-2,9.98E-1,9E0,-9.466507E-2,2E0,2E0,4.34E-1,9.17E-1,3.7E1,-8.399581E-2,9.4012946E-2,-9.946694E-3,-3.8231596E-2,8.405654E-2,-6.849962E-2,-8.438262E-4,8.114804E-2,2.3774745E-2],"split_indices":[1,2,1,0,0,6,7,1,1,4,0,0,0,0,0,0,0,0,0],"split_type":[0,0,0,0,0,0,0,0,0,0,0,0,0,0,0,0,0,0,0],"sum_hessian":[2.0561978E3,1.2314197E3,8.247782E2,6.0481915E2,6.2660046E2,1.7689705E2,6.4788116E2,3.680263E2,2.3679285E2,1.3836768E2,3.8529377E1,6.4587244E2,2.0086863E0,2.4584471E2,1.22181595E2,1.9325067E2,4.354218E1,4.2463753E1,9.590392E1],"tree_param":{"num_deleted":"0","num_feature":"10","num_nodes":"19","size_leaf_vector":"1"}},{"base_weights":[-4.1006383E-2,-4.7666898E-1,9.275175E-1,-1.909191E-1,-9.2050225E-1,9.3412295E-2,-9.863794E-3,-5.560239E-1,7.576497E-2,-9.3269475E-2,-1.1261822E-1,-2.5662333E-2,-8.745335E-2,6.6463195E-2,-1.6366646E-2,2.1147737E-2,-2.8710885E-2],"categories":[],"categories_nodes":[],"categories_segments":[],"categories_sizes":[],"default_left":[0,0,0,0,0,0,0,0,0,0,0,0,0,0,0,0,0],"id":61,"left_children":[1,3,5,7,9,-1,-1,11,13,-1,15,-1,-1,-1,-1,-1,-1],"loss_changes":[8.293325E2,1.6826062E2,5.9782104E0,8.352542E1,3.072937E0,0E0,0E0,2.9922493E1,7.38475E1,0E0,2.9423087E0,0E0,0E0,0E0,0E0,0E0,0E0],"parents":[2147483647,0,0,1,1,2,2,3,3,4,4,7,7,8,8,10,10],"right_children":[2,4,6,8,10,-1,-1,12,14,-1,16,-1,-1,-1,-1,-1,-1],"split_conditions":[9.98E-1,3E0,2E0,4.65E-1,5.55E2,9.3412295E-2,-9.863794E-3,8.3E-2,5E0,-9.3269475E-2,2E0,-2.5662333E-2,-8.745335E-2,6.6463195E-2,-1.6366646E-2,2.1147737E-2,-2.8710885E-2],"split_indices":[1,3,7,1,4,0,0,2,4,0,6,0,0,0,0,0,0],"split_type":[0,0,0,0,0,0,0,0,0,0,0,0,0,0,0,0,0],"sum_hessian":[1.9245216E3,1.3344255E3,5.900961E2,8.291824E2,5.0524313E2,5.881042E2,1.9919485E0,3.4084637E2,4.88336E2,4.9468756E2,1.055558E1,1.9430899E2,1.4653738E2,1.3089363E2,3.5744238E2,2.2104793E0,8.345101E0],"tree_param":{"num_deleted":"0","num_feature":"10","num_nodes":"17","size_leaf_vector":"1"}},{"base_weights":[-4.013395E-2,-5.5045265E-1,7.4809307E-1,-1.8232489E-1,-9.363248E-2,1.6666256E-1,9.2049754E-1,-2.1701443E-3,-6.275288E-1,4.783878E-1,-7.909968E-2,9.2763685E-2,-9.782153E-3,-3.415769E-2,3.919643E-2,-9.4973095E-2,-7.680617E-3,7.79786E-2,2.320025E-2],"categories":[],"categories_nodes":[],"categories_segments":[],"categories_sizes":[],"default_left":[0,0,0,0,0,0,0,0,0,0,0,0,0,0,0,0,0,0,0],"id":62,"left_children":[1,3,5,7,-1,9,11,13,15,17,-1,-1,-1,-1,-1,-1,-1,-1,-1],"loss_changes":[7.4563086E2,1.5629022E2,6.999838E1,4.8112686E1,0E0,6.462403E1,5.869995E0,6.252285E1,2.9210411E1,8.014812E0,0E0,0E0,0E0,0E0,0E0,0E0,0E0,0E0,0E0],"parents":[2147483647,0,0,1,1,2,2,3,3,5,5,6,6,7,7,8,8,9,9],"right_children":[2,4,6,8,-1,10,12,14,16,18,-1,-1,-1,-1,-1,-1,-1,-1,-1],"split_conditions":[9.33E-1,8.3E-2,9.98E-1,9E0,-9.363248E-2,2E0,2E0,4.65E-1,9.09E-1,9.75E-1,-7.909968E-2,9.2763685E-2,-9.782153E-3,-3.415769E-2,3.919643E-2,-9.4973095E-2,-7.680617E-3,7.79786E-2,2.320025E-2],"split_indices":[1,2,1,4,0,6,7,1,1,1,0,0,0,0,0,0,0,0,0],"split_type":[0,0,0,0,0,0,0,0,0,0,0,0,0,0,0,0,0,0,0],"sum_hessian":[1.8131898E3,1.104282E3,7.089078E2,5.802065E2,5.2407556E2,1.7112524E2,5.3778253E2,4.2736703E2,1.5283943E2,1.3665292E2,3.4472317E1,5.3580707E2,1.9754618E0,2.3105891E2,1.9630812E2,8.728355E1,6.5555885E1,4.1989693E1,9.466323E1],"tree_param":{"num_deleted":"0","num_feature":"10","num_nodes":"19","size_leaf_vector":"1"}},{"base_weights":[-3.953448E-2,-5.2734256E-1,7.312107E-1,-1.7045462E-1,-9.302121E-2,1.5592925E-1,9.129343E-1,5.8018647E-2,-4.9193996E-1,4.5164564E-1,-7.67264E-2,9.206418E-2,-9.70175E-3,-3.1636816E-2,6.7974515E-2,-6.35356E-2,-7.1022534E-3,7.4690826E-2,2.170111E-2],"categories":[],"categories_nodes":[],"categories_segments":[],"categories_sizes":[],"default_left":[0,0,0,0,0,0,0,0,0,0,0,0,0,0,0,0,0,0,0],"id":63,"left_children":[1,3,5,7,-1,9,11,13,15,17,-1,-1,-1,-1,-1,-1,-1,-1,-1],"loss_changes":[6.563829E2,1.5041434E2,6.793814E1,4.3973904E1,0E0,5.788965E1,5.7597046E0,8.88687E1,1.4044048E1,7.4247513E0,0E0,0E0,0E0,0E0,0E0,0E0,0E0,0E0,0E0],"parents":[2147483647,0,0,1,1,2,2,3,3,5,5,6,6,7,7,8,8,9,9],"right_children":[2,4,6,8,-1,10,12,14,16,18,-1,-1,-1,-1,-1,-1,-1,-1,-1],"split_conditions":[9.33E-1,8.3E-2,9.98E-1,9E0,-9.302121E-2,2E0,2E0,4.34E-1,9.09E-1,3.7E1,-7.67264E-2,9.206418E-2,-9.70175E-3,-3.1636816E-2,6.7974515E-2,-6.35356E-2,-7.1022534E-3,7.4690826E-2,2.170111E-2],"split_indices":[1,2,1,0,0,6,7,1,1,4,0,0,0,0,0,0,0,0,0],"split_type":[0,0,0,0,0,0,0,0,0,0,0,0,0,0,0,0,0,0,0],"sum_hessian":[1.7053002E3,1.0482035E3,6.570967E2,5.7091345E2,4.7729007E2,1.6666077E2,4.9043588E2,3.433161E2,2.2759735E2,1.3396486E2,3.269592E1,4.8847665E2,1.9592221E0,2.2041255E2,1.22903534E2,1.6215753E2,6.543981E1,3.998381E1,9.398104E1],"tree_param":{"num_deleted":"0","num_feature":"10","num_nodes":"19","size_leaf_vector":"1"}},{"base_weights":[-3.820668E-2,-4.378374E-1,8.4599686E-1,-1.1379955E-1,-8.215358E-1,9.24869E-2,1.5674347E-1,-6.5529263E-3,-6.838988E-1,-9.1428675E-2,1.1169857E-1,-9.984461E-2,6.9015376E-2,1.7717501E-2,-2.2689903E-2,-7.065654E-2,2.5600723E-3,3.3290636E-2,-2.555572E-2],"categories":[],"categories_nodes":[],"categories_segments":[],"categories_sizes":[],"default_left":[0,0,0,0,0,0,0,0,0,0,0,0,0,0,0,0,0,0,0],"id":64,"left_children":[1,3,5,7,9,-1,11,13,15,-1,17,-1,-1,-1,-1,-1,-1,-1,-1],"loss_changes":[5.818927E2,1.3898705E2,2.4983246E1,3.8882843E1,4.6661987E1,0E0,6.107191E1,2.3340755E1,1.9817238E0,0E0,6.935273E0,0E0,0E0,0E0,0E0,0E0,0E0,0E0,0E0],"parents":[2147483647,0,0,1,1,2,2,3,3,4,4,6,6,7,7,8,8,10,10],"right_children":[2,4,6,8,10,-1,12,14,16,-1,18,-1,-1,-1,-1,-1,-1,-1,-1],"split_conditions":[9.97E-1,8.3E-2,3E0,3E0,1.62E2,9.24869E-2,6.13E2,9E0,7E0,-9.1428675E-2,2E0,-9.984461E-2,6.9015376E-2,1.7717501E-2,-2.2689903E-2,-7.065654E-2,2.5600723E-3,3.3290636E-2,-2.555572E-2],"split_indices":[1,2,3,3,4,0,5,0,3,0,3,0,0,0,0,0,0,0,0],"split_type":[0,0,0,0,0,0,0,0,0,0,0,0,0,0,0,0,0,0,0],"sum_hessian":[1.6058004E3,1.112902E3,4.928984E2,6.1741736E2,4.954846E2,4.3615213E2,5.6746273E1,5.366863E2,8.073111E1,4.5106125E2,4.442334E1,1.2417582E1,4.4328693E1,2.9479785E2,2.4188843E2,7.8311966E1,2.4191449E0,2.8891708E1,1.5531632E1],"tree_param":{"num_deleted":"0","num_feature":"10","num_nodes":"19","size_leaf_vector":"1"}},{"base_weights":[-3.7551105E-2,-3.9079484E-1,8.967648E-1,-1.3519444E-1,-8.814018E-1,9.05117E-2,-8.964715E-3,-4.6955276E-1,7.8249514E-2,-8.976578E-2,-6.44505E-2,-2.0530026E-2,-8.278831E-2,4.0388938E-2,-2.2317769E-2,2.0540752E-2,-2.4012184E-2],"categories":[],"categories_nodes":[],"categories_segments":[],"categories_sizes":[],"default_left":[0,0,0,0,0,0,0,0,0,0,0,0,0,0,0,0,0],"id":65,"left_children":[1,3,5,7,9,-1,-1,11,13,-1,15,-1,-1,-1,-1,-1,-1],"loss_changes":[5.1598114E2,1.3969257E2,5.1585693E0,5.5582E1,3.9487E0,0E0,0E0,2.5225632E1,4.952879E1,0E0,2.3635137E0,0E0,0E0,0E0,0E0,0E0,0E0],"parents":[2147483647,0,0,1,1,2,2,